{"learner":{"attributes":{"best_iteration":"19","best_score":"0.6809959354898902"},"feature_names":["applicant_age","dependents","years_at_current_job","annual_income","other_income","credit_score","num_existing_loans","num_defaults_last_5y","num_credit_inquiries","credit_utilization_pct","loan_amount","interest_rate","bank_balance","monthly_expenses","existing_emi","savings_balance","property_value","has_co_applicant","app_year","app_month","app_day_of_week","app_quarter","app_days_since_ref","loan_term_months","debt_to_income","loan_to_income","total_income","monthly_surplus","loan_to_value","income_per_dependent","has_other_income","savings_to_loan","balance_to_expenses","total_debt_exposure","credit_score_bin","age_bin","payment_per_month","payment_burden","education_ordinal","gender_encoded","marital_status_encoded","employment_type_encoded","loan_purpose_encoded","property_type_encoded","application_channel_encoded","city_encoded","state_encoded"],"feature_types":["float","int","float","float","float","float","int","int","int","float","float","float","float","float","float","float","float","int","int","int","int","int","int","int","float","float","float","float","float","float","int","float","float","float","int","int","float","float","int","int","int","int","int","int","int","int","int"],"gradient_booster":{"model":{"cats":{"enc":[],"feature_segments":[],"sorted_idx":[]},"gbtree_model_param":{"num_parallel_tree":"1","num_trees":"40"},"iteration_indptr":[0,1,2,3,4,5,6,7,8,9,10,11,12,13,14,15,16,17,18,19,20,21,22,23,24,25,26,27,28,29,30,31,32,33,34,35,36,37,38,39,40],"tree_info":[0,0,0,0,0,0,0,0,0,0,0,0,0,0,0,0,0,0,0,0,0,0,0,0,0,0,0,0,0,0,0,0,0,0,0,0,0,0,0,0],"trees":[{"base_weights":[7.3694024E-4,3.4365878E-1,-6.132422E-1,5.389588E-1,4.197772E-2,-2.741475E-1,-1.1886718E0,8.092355E-1,4.1871688E-1,4.029925E-1,-1.4799637E-1,-5.4291494E-2,-4.8633525E-1,-8.34548E-1,-1.4168688E0,9.5868915E-1,7.1407795E-1,5.461866E-1,3.005855E-1,6.285808E-1,2.627758E-1,3.8769413E-2,-2.3270561E-1,1.3006777E-1,-2.346307E-1,-2.4757835E-1,-7.179435E-1,-5.6389016E-1,-9.618847E-1,-1.1220074E0,-1.5019896E0,1.1089851E0,9.1260946E-1,8.048118E-1,6.101243E-1,6.211083E-1,4.8172694E-1,4.2495126E-1,2.6345834E-1,8.240109E-1,5.472431E-1,3.970441E-1,1.9207768E-1,-1.7316613E-2,1.6741945E-1,-3.101504E-1,-5.8499724E-2,2.4644741E-1,5.0065983E-2,-1.0945073E-1,-3.556548E-1,-9.3386196E-2,-3.430297E-1,-5.836936E-1,-8.163603E-1,-4.4021463E-1,-6.7242855E-1,-8.4046847E-1,-1.1397532E0,-9.286149E-1,-1.2643093E0,-1.3127922E0,-1.534176E0,1.1682184E0,1.0399948E0,9.928006E-1,8.4186864E-1,8.752673E-1,7.55653E-1,6.656148E-1,5.563875E-1,5.8796555E-1,7.024877E-1,5.859457E-1,4.470155E-1,4.856019E-1,3.7843242E-1,1.8214673E-1,3.9807197E-1,9.7232187E-1,7.680519E-1,6.646303E-1,4.893293E-1,5.02249E-1,3.3489382E-1,2.6078352E-1,9.5026426E-2,8.9465864E-2,-1.8191251E-1,1.9480821E-1,-2.7962902E-1,-1.1123422E-1,-4.8222852E-1,-2.2697931E-2,-6.594981E-1,3.322883E-1,1.5080945E-1,1.3694431E-1,-5.4596957E-2,-1.7529973E-3,-1.5711977E-1,-2.6315987E-1,-4.2346185E-1,4.242969E-2,-1.4163011E-1,-1.8994181E-1,-3.8336024E-1,-4.485622E-1,-6.219812E-1,-6.629438E-1,-8.691395E-1,-3.5322848E-1,-5.1066077E-1,-5.6151617E-1,-7.395286E-1,-7.622039E-1,-9.1546005E-1,-1.0854475E0,-1.2023586E0,-7.7093184E-1,-1.0033022E0,-1.1930206E0,-1.3619357E0,-1.0970643E0,-1.376264E0,-1.4484073E0,-1.5479534E0,1.2390833E-1,1.1306427E-1,1.1214904E-1,9.9566706E-2,1.0414697E-1,9.524476E-2,8.934178E-2,7.965788E-2,9.192846E-2,8.157206E-2,8.231261E-2,7.151998E-2,7.108835E-2,6.4268954E-2,6.270086E-2,5.226658E-2,6.698888E-2,4.933136E-2,7.207942E-2,4.1916735E-2,6.219387E-2,5.5166293E-2,3.726266E-2,5.660075E-2,5.052283E-2,4.2763487E-2,4.217946E-2,3.2960486E-2,2.419544E-2,6.538491E-3,4.2452957E-2,-2.8143898E-3,9.046968E-2,1.0147988E-1,8.755467E-2,7.2596274E-2,7.2683096E-2,5.8585137E-2,5.5542555E-2,4.3170612E-2,5.8023453E-2,4.6270497E-2,4.056493E-2,2.9480347E-2,3.2591116E-2,2.1985723E-2,1.615991E-2,7.228439E-3,1.7043134E-2,3.1312492E-3,-1.032235E-2,-2.3809819E-2,2.2591215E-2,7.302791E-3,-1.7921798E-2,-4.555532E-2,-2.4001354E-3,-1.773599E-2,-4.145021E-2,-6.267526E-2,2.0217698E-3,-4.6425103E-3,-7.061999E-2,-5.1349442E-2,4.310369E-2,2.9327596E-2,2.802666E-2,9.911821E-3,1.9709818E-2,8.485223E-3,-4.2638654E-4,-1.1604966E-2,-1.7769447E-2,7.521507E-4,-9.385393E-3,-2.1255687E-2,-1.5025574E-2,-2.9736612E-2,-3.568676E-2,-4.8735704E-2,-2.747394E-3,8.376977E-3,-6.459401E-5,-1.7445184E-2,-1.3619569E-2,-2.6443055E-2,-3.037529E-2,-4.343496E-2,-5.135115E-2,-4.1088562E-2,-5.7076156E-2,-6.6278525E-2,-6.209175E-2,-8.8463224E-2,-8.2680814E-2,-1.0333327E-1,-5.4507125E-2,-3.2193527E-2,-4.1115858E-2,-5.620853E-2,-5.250011E-2,-6.901982E-2,-6.829905E-2,-8.242994E-2,-7.8719154E-2,-6.8895854E-2,-7.3045455E-2,-9.348362E-2,-9.590509E-2,-1.10733025E-1,-1.054721E-1,-1.2330341E-1,-9.209074E-2,-7.0620716E-2,-9.126928E-2,-1.1282052E-1,-1.13044E-1,-1.2240907E-1,-1.3945173E-1,-1.2759493E-1,-1.281051E-1,-1.0663855E-1,-1.3115786E-1,-1.4198259E-1,-1.1583028E-1,-1.5089351E-1,-1.5890834E-1,-1.5428476E-1],"categories":[],"categories_nodes":[],"categories_segments":[],"categories_sizes":[],"default_left":[0,0,0,0,0,0,0,0,0,0,0,0,0,0,0,0,0,0,0,0,0,0,0,0,0,0,0,0,0,0,0,0,0,0,0,0,0,0,0,0,0,0,0,0,0,0,0,0,0,0,0,0,0,0,0,0,0,0,0,0,0,0,0,0,0,0,0,0,0,0,0,0,0,0,0,0,0,0,0,0,0,0,0,0,0,0,0,0,0,0,0,0,0,0,0,0,0,0,0,0,0,0,0,0,0,0,0,0,0,0,0,0,0,0,0,0,0,0,0,0,0,0,0,0,0,0,0,0,0,0,0,0,0,0,0,0,0,0,0,0,0,0,0,0,0,0,0,0,0,0,0,0,0,0,0,0,0,0,0,0,0,0,0,0,0,0,0,0,0,0,0,0,0,0,0,0,0,0,0,0,0,0,0,0,0,0,0,0,0,0,0,0,0,0,0,0,0,0,0,0,0,0,0,0,0,0,0,0,0,0,0,0,0,0,0,0,0,0,0,0,0,0,0,0,0,0,0,0,0,0,0,0,0,0,0,0,0,0,0,0,0,0,0,0,0,0,0,0,0,0,0,0,0,0,0],"id":0,"left_children":[1,3,5,7,9,11,13,15,17,19,21,23,25,27,29,31,33,35,37,39,41,43,45,47,49,51,53,55,57,59,61,63,65,67,69,71,73,75,77,79,81,83,85,87,89,91,93,95,97,99,101,103,105,107,109,111,113,115,117,119,121,123,125,127,129,131,133,135,137,139,141,143,145,147,149,151,153,155,157,159,161,163,165,167,169,171,173,175,177,179,181,183,185,187,189,191,193,195,197,199,201,203,205,207,209,211,213,215,217,219,221,223,225,227,229,231,233,235,237,239,241,243,245,247,249,251,253,-1,-1,-1,-1,-1,-1,-1,-1,-1,-1,-1,-1,-1,-1,-1,-1,-1,-1,-1,-1,-1,-1,-1,-1,-1,-1,-1,-1,-1,-1,-1,-1,-1,-1,-1,-1,-1,-1,-1,-1,-1,-1,-1,-1,-1,-1,-1,-1,-1,-1,-1,-1,-1,-1,-1,-1,-1,-1,-1,-1,-1,-1,-1,-1,-1,-1,-1,-1,-1,-1,-1,-1,-1,-1,-1,-1,-1,-1,-1,-1,-1,-1,-1,-1,-1,-1,-1,-1,-1,-1,-1,-1,-1,-1,-1,-1,-1,-1,-1,-1,-1,-1,-1,-1,-1,-1,-1,-1,-1,-1,-1,-1,-1,-1,-1,-1,-1,-1,-1,-1,-1,-1,-1,-1,-1,-1,-1,-1],"loss_changes":[5.378039E5,9.65633E4,1.7861406E5,3.2331781E4,4.417178E4,2.6869496E4,2.7426812E4,4.3557812E3,1.0368211E4,7.0239727E3,6.6763115E3,9.404854E3,1.6207547E4,4.5836016E3,5.1787812E3,8.242578E2,1.7648438E3,1.5991328E3,1.6499844E3,1.3525781E3,1.2998877E3,9.50118E2,3.9167744E3,1.3023462E3,2.1663403E3,2.1240908E3,1.9651953E3,5.709883E2,1.9524688E3,1.2713906E3,9.733125E2,1.1303125E2,5.165547E2,3.4546094E2,2.5974414E2,4.126797E2,6.437656E2,2.3161621E2,3.0123125E3,2.068457E2,4.0829883E2,3.086797E2,5.9817236E2,1.6117496E3,4.8954346E2,6.8791074E3,1.9224294E3,4.6776636E2,7.5378186E2,3.6087408E2,4.5587988E2,3.6158313E2,5.50291E2,3.253379E2,6.945039E2,1.21732666E2,1.6825879E2,3.1483594E2,1.234375E2,2.3011914E2,1.837539E2,3.174297E2,1.595E2,3.863086E1,4.557129E1,8.2953125E1,1.124375E2,1.0688281E2,1.6009766E2,4.407617E1,1.0522168E2,8.4365234E2,2.295664E2,5.4538086E1,1.1819434E3,4.0350586E1,9.831445E1,1.1981504E3,1.1686895E3,1.875293E1,8.155176E1,9.686328E1,1.5307031E2,5.382129E1,8.4118164E1,1.3993286E2,5.6289154E1,2.61872E2,1.5950562E2,1.4267236E2,4.069333E1,5.377135E2,1.0544668E3,8.586525E1,3.3888428E1,1.1555859E2,1.8035358E2,1.4192352E2,1.1630197E2,3.5195507E1,1.7087585E2,1.1873828E2,1.7832373E2,4.1803192E1,1.8842279E2,7.438501E1,2.8625E2,3.3799316E1,1.0210742E2,2.0420312E2,4.4304688E2,5.328833E1,5.6004883E1,3.9799805E1,6.710205E1,4.7615234E1,9.771484E1,5.3314453E1,7.584766E1,6.056079E1,1.4949805E2,2.8566406E1,2.9695312E1,2.855127E1,4.8839844E1,3.3115234E2,2.23125E1,0E0,0E0,0E0,0E0,0E0,0E0,0E0,0E0,0E0,0E0,0E0,0E0,0E0,0E0,0E0,0E0,0E0,0E0,0E0,0E0,0E0,0E0,0E0,0E0,0E0,0E0,0E0,0E0,0E0,0E0,0E0,0E0,0E0,0E0,0E0,0E0,0E0,0E0,0E0,0E0,0E0,0E0,0E0,0E0,0E0,0E0,0E0,0E0,0E0,0E0,0E0,0E0,0E0,0E0,0E0,0E0,0E0,0E0,0E0,0E0,0E0,0E0,0E0,0E0,0E0,0E0,0E0,0E0,0E0,0E0,0E0,0E0,0E0,0E0,0E0,0E0,0E0,0E0,0E0,0E0,0E0,0E0,0E0,0E0,0E0,0E0,0E0,0E0,0E0,0E0,0E0,0E0,0E0,0E0,0E0,0E0,0E0,0E0,0E0,0E0,0E0,0E0,0E0,0E0,0E0,0E0,0E0,0E0,0E0,0E0,0E0,0E0,0E0,0E0,0E0,0E0,0E0,0E0,0E0,0E0,0E0,0E0,0E0,0E0,0E0,0E0,0E0,0E0],"parents":[2147483647,0,0,1,1,2,2,3,3,4,4,5,5,6,6,7,7,8,8,9,9,10,10,11,11,12,12,13,13,14,14,15,15,16,16,17,17,18,18,19,19,20,20,21,21,22,22,23,23,24,24,25,25,26,26,27,27,28,28,29,29,30,30,31,31,32,32,33,33,34,34,35,35,36,36,37,37,38,38,39,39,40,40,41,41,42,42,43,43,44,44,45,45,46,46,47,47,48,48,49,49,50,50,51,51,52,52,53,53,54,54,55,55,56,56,57,57,58,58,59,59,60,60,61,61,62,62,63,63,64,64,65,65,66,66,67,67,68,68,69,69,70,70,71,71,72,72,73,73,74,74,75,75,76,76,77,77,78,78,79,79,80,80,81,81,82,82,83,83,84,84,85,85,86,86,87,87,88,88,89,89,90,90,91,91,92,92,93,93,94,94,95,95,96,96,97,97,98,98,99,99,100,100,101,101,102,102,103,103,104,104,105,105,106,106,107,107,108,108,109,109,110,110,111,111,112,112,113,113,114,114,115,115,116,116,117,117,118,118,119,119,120,120,121,121,122,122,123,123,124,124,125,125,126,126],"right_children":[2,4,6,8,10,12,14,16,18,20,22,24,26,28,30,32,34,36,38,40,42,44,46,48,50,52,54,56,58,60,62,64,66,68,70,72,74,76,78,80,82,84,86,88,90,92,94,96,98,100,102,104,106,108,110,112,114,116,118,120,122,124,126,128,130,132,134,136,138,140,142,144,146,148,150,152,154,156,158,160,162,164,166,168,170,172,174,176,178,180,182,184,186,188,190,192,194,196,198,200,202,204,206,208,210,212,214,216,218,220,222,224,226,228,230,232,234,236,238,240,242,244,246,248,250,252,254,-1,-1,-1,-1,-1,-1,-1,-1,-1,-1,-1,-1,-1,-1,-1,-1,-1,-1,-1,-1,-1,-1,-1,-1,-1,-1,-1,-1,-1,-1,-1,-1,-1,-1,-1,-1,-1,-1,-1,-1,-1,-1,-1,-1,-1,-1,-1,-1,-1,-1,-1,-1,-1,-1,-1,-1,-1,-1,-1,-1,-1,-1,-1,-1,-1,-1,-1,-1,-1,-1,-1,-1,-1,-1,-1,-1,-1,-1,-1,-1,-1,-1,-1,-1,-1,-1,-1,-1,-1,-1,-1,-1,-1,-1,-1,-1,-1,-1,-1,-1,-1,-1,-1,-1,-1,-1,-1,-1,-1,-1,-1,-1,-1,-1,-1,-1,-1,-1,-1,-1,-1,-1,-1,-1,-1,-1,-1,-1],"split_conditions":[6.805356E2,5.1404676E4,5.216768E4,6.0283984E2,6.081452E2,7.269328E2,7.1611694E2,5.556682E2,3.0696004E4,5.584535E2,6.606603E4,3.1252348E4,3.0970662E4,6.712935E4,6.2022473E4,5.0168295E2,3.2952293E4,2.0078668E4,6.3004376E2,5.107535E2,6.823965E4,6.783939E2,6.783939E2,1.9062209E4,7.014243E2,1.835386E4,4.03213E4,6.961267E2,7.0054755E2,7.469106E2,7.259112E2,3.3237965E4,3.0409832E4,2.1078934E4,5.825633E2,6.783939E2,6.321075E2,4.03213E4,6.783939E2,4.7006815E2,6.712935E4,5.8071844E2,5.9102124E2,6.523141E2,6.788204E2,6.4202637E2,6.788204E2,7.0321E2,7.041071E2,3.788802E4,4.0632848E4,8.885512E3,3E0,7.409863E2,7.4330457E2,5.910033E4,5.7037477E4,6.900226E2,7.08667E2,7.249062E2,5.747045E4,7.237094E4,6.823965E4,4.7006815E2,4.7006815E2,1.9744424E4,5.343433E2,5.860708E2,5.7687494E2,3.9703086E4,3.9400016E4,6.458364E2,6.788204E2,6.179037E2,6.783939E2,6.2358356E2,6.179037E2,6.621667E2,6.788204E2,2E0,6.449281E4,5.4259186E2,5.386416E2,5.618038E4,5.660958E4,5.7279364E2,5.956656E2,6.2790186E2,6.6304944E2,6.250784E4,2.1222668E3,6.2358356E2,6.6658527E2,4.662082E3,9.448804E-2,9.852995E3,9.852995E3,2.5819314E4,7.1611694E2,5.2357875E4,6.900226E2,7.068357E2,7.132811E2,5.083247E-1,7.3869244E2,2.5871498E4,2.3513576E4,7E0,3.49566E4,4.919029E4,4.846762E4,1.2154951E1,6.857058E2,7.1143945E2,7.0774976E2,2.1812314E5,7.1141586E4,7.363116E4,7.4934516E4,1.4468247E5,5.747045E4,5.4324945E4,7.272729E2,2.8150114E1,1.58033E3,7.364606E2,1.0201268E1,1.2390833E-1,1.1306427E-1,1.1214904E-1,9.9566706E-2,1.0414697E-1,9.524476E-2,8.934178E-2,7.965788E-2,9.192846E-2,8.157206E-2,8.231261E-2,7.151998E-2,7.108835E-2,6.4268954E-2,6.270086E-2,5.226658E-2,6.698888E-2,4.933136E-2,7.207942E-2,4.1916735E-2,6.219387E-2,5.5166293E-2,3.726266E-2,5.660075E-2,5.052283E-2,4.2763487E-2,4.217946E-2,3.2960486E-2,2.419544E-2,6.538491E-3,4.2452957E-2,-2.8143898E-3,9.046968E-2,1.0147988E-1,8.755467E-2,7.2596274E-2,7.2683096E-2,5.8585137E-2,5.5542555E-2,4.3170612E-2,5.8023453E-2,4.6270497E-2,4.056493E-2,2.9480347E-2,3.2591116E-2,2.1985723E-2,1.615991E-2,7.228439E-3,1.7043134E-2,3.1312492E-3,-1.032235E-2,-2.3809819E-2,2.2591215E-2,7.302791E-3,-1.7921798E-2,-4.555532E-2,-2.4001354E-3,-1.773599E-2,-4.145021E-2,-6.267526E-2,2.0217698E-3,-4.6425103E-3,-7.061999E-2,-5.1349442E-2,4.310369E-2,2.9327596E-2,2.802666E-2,9.911821E-3,1.9709818E-2,8.485223E-3,-4.2638654E-4,-1.1604966E-2,-1.7769447E-2,7.521507E-4,-9.385393E-3,-2.1255687E-2,-1.5025574E-2,-2.9736612E-2,-3.568676E-2,-4.8735704E-2,-2.747394E-3,8.376977E-3,-6.459401E-5,-1.7445184E-2,-1.3619569E-2,-2.6443055E-2,-3.037529E-2,-4.343496E-2,-5.135115E-2,-4.1088562E-2,-5.7076156E-2,-6.6278525E-2,-6.209175E-2,-8.8463224E-2,-8.2680814E-2,-1.0333327E-1,-5.4507125E-2,-3.2193527E-2,-4.1115858E-2,-5.620853E-2,-5.250011E-2,-6.901982E-2,-6.829905E-2,-8.242994E-2,-7.8719154E-2,-6.8895854E-2,-7.3045455E-2,-9.348362E-2,-9.590509E-2,-1.10733025E-1,-1.054721E-1,-1.2330341E-1,-9.209074E-2,-7.0620716E-2,-9.126928E-2,-1.1282052E-1,-1.13044E-1,-1.2240907E-1,-1.3945173E-1,-1.2759493E-1,-1.281051E-1,-1.0663855E-1,-1.3115786E-1,-1.4198259E-1,-1.1583028E-1,-1.5089351E-1,-1.5890834E-1,-1.5428476E-1],"split_indices":[5,3,3,5,5,5,5,5,3,5,3,3,3,3,3,5,3,3,5,5,3,5,5,3,5,3,3,5,5,5,5,3,3,26,5,5,5,3,5,5,3,5,5,5,5,5,5,5,5,3,3,3,34,5,5,26,3,5,5,5,3,3,3,5,5,3,5,5,5,3,3,5,5,5,5,5,5,5,5,6,3,5,5,3,3,5,5,5,5,3,13,5,5,27,24,3,3,26,5,16,5,5,5,37,5,3,3,46,3,3,3,9,5,5,5,16,3,3,3,16,3,26,36,0,13,5,9,0,0,0,0,0,0,0,0,0,0,0,0,0,0,0,0,0,0,0,0,0,0,0,0,0,0,0,0,0,0,0,0,0,0,0,0,0,0,0,0,0,0,0,0,0,0,0,0,0,0,0,0,0,0,0,0,0,0,0,0,0,0,0,0,0,0,0,0,0,0,0,0,0,0,0,0,0,0,0,0,0,0,0,0,0,0,0,0,0,0,0,0,0,0,0,0,0,0,0,0,0,0,0,0,0,0,0,0,0,0,0,0,0,0,0,0,0,0,0,0,0,0,0,0,0,0,0,0],"split_type":[0,0,0,0,0,0,0,0,0,0,0,0,0,0,0,0,0,0,0,0,0,0,0,0,0,0,0,0,0,0,0,0,0,0,0,0,0,0,0,0,0,0,0,0,0,0,0,0,0,0,0,0,0,0,0,0,0,0,0,0,0,0,0,0,0,0,0,0,0,0,0,0,0,0,0,0,0,0,0,0,0,0,0,0,0,0,0,0,0,0,0,0,0,0,0,0,0,0,0,0,0,0,0,0,0,0,0,0,0,0,0,0,0,0,0,0,0,0,0,0,0,0,0,0,0,0,0,0,0,0,0,0,0,0,0,0,0,0,0,0,0,0,0,0,0,0,0,0,0,0,0,0,0,0,0,0,0,0,0,0,0,0,0,0,0,0,0,0,0,0,0,0,0,0,0,0,0,0,0,0,0,0,0,0,0,0,0,0,0,0,0,0,0,0,0,0,0,0,0,0,0,0,0,0,0,0,0,0,0,0,0,0,0,0,0,0,0,0,0,0,0,0,0,0,0,0,0,0,0,0,0,0,0,0,0,0,0,0,0,0,0,0,0,0,0,0,0,0,0,0,0,0,0,0,0],"sum_hessian":[2.5543172E6,1.6389342E6,9.1538294E5,9.948772E5,6.4405706E5,5.759709E5,3.394121E5,3.0632406E5,6.885531E5,2.2206245E5,4.219946E5,2.8287462E5,2.9309625E5,1.3300892E5,2.0640317E5,1.19161305E5,1.8716275E5,3.3118456E5,3.5736856E5,8.51174E4,1.3694506E5,1.3167653E5,2.9031806E5,1.398784E5,1.4299623E5,1.4432189E5,1.4877434E5,4.2557375E4,9.045155E4,4.6240082E4,1.601631E5,2.7955883E4,9.120542E4,9.993222E4,8.723054E4,1.5315897E5,1.7802561E5,8.215646E4,2.752121E5,2.5011986E4,6.010541E4,4.7234234E4,8.971082E4,9.170002E4,3.9976508E4,2.0097292E5,8.934514E4,5.698275E4,8.289565E4,7.029218E4,7.270405E4,5.518232E4,8.913957E4,6.2933707E4,8.584065E4,1.989397E4,2.2663404E4,5.375985E4,3.669169E4,1.9604514E4,2.6635568E4,2.3291738E4,1.3687136E5,1.5032994E4,1.2922889E4,4.274128E4,4.846414E4,4.106298E4,5.886924E4,4.29094E4,4.432114E4,1.0884054E5,4.4318426E4,4.447537E4,1.3355023E5,3.565739E4,4.6499066E4,1.7157611E5,1.0363599E5,6.8474478E3,1.816454E4,1.9853428E4,4.025198E4,1.753863E4,2.9695605E4,5.2524953E4,3.7185867E4,5.5618E4,3.6082023E4,3.7669234E4,2.3072703E3,9.321793E4,1.0775499E5,8.432301E4,5.0221284E3,3.0028172E4,2.6954578E4,4.529609E4,3.7599562E4,2.1567096E4,4.8725086E4,3.0755555E4,4.1948496E4,1.446387E4,4.071845E4,1.8588078E4,7.055149E4,1.389736E4,4.9036348E4,2.1975807E4,6.386484E4,8.904638E3,1.0989334E4,8.546281E3,1.4117122E4,2.6311322E4,2.7448527E4,1.965806E4,1.7033633E4,6.304821E3,1.3299692E4,1.540197E4,1.12336E4,5.2991807E3,1.7992557E4,1.8957896E4,1.1791346E5,5.1979927E3,9.835001E3,4.5441978E3,8.378691E3,1.936302E4,2.337826E4,2.2657055E4,2.5807088E4,2.3601885E4,1.7461096E4,2.2058287E4,3.681095E4,1.4415075E4,2.8494322E4,1.4318099E4,3.0003043E4,5.8339984E4,5.050055E4,4.162717E4,2.6912522E3,2.1688166E4,2.2787203E4,8.217928E4,5.1370957E4,2.6632498E4,9.024894E3,2.4623805E4,2.1875262E4,1.13459086E5,5.811702E4,9.757874E4,6.0572485E3,2.6503206E3,4.1971274E3,5.1054814E3,1.3059058E4,1.1089436E4,8.763991E3,1.8743621E4,2.1508361E4,5.8964526E3,1.1642178E4,1.0736913E4,1.8958691E4,2.0266742E4,3.225821E4,9.467011E3,2.7718857E4,2.3248195E4,3.2369805E4,1.5032114E4,2.1049908E4,3.0004842E4,7.664394E3,1.4701699E3,8.3710034E2,4.0194625E4,5.302331E4,7.3374375E4,3.4380617E4,3.0021998E4,5.430101E4,3.802119E3,1.2200093E3,8.500793E3,2.1527377E4,7.6903086E3,1.926427E4,2.1020111E4,2.4275979E4,2.067043E4,1.6929133E4,1.0790413E3,2.0488055E4,2.2757035E4,2.596805E4,7.152568E3,2.3602986E4,2.054364E4,2.1404854E4,5.375148E3,9.088722E3,7.689516E3,3.3028934E4,1.079904E4,7.789038E3,2.7548395E4,4.3003094E4,5.097445E3,8.799915E3,2.1749752E4,2.7286594E4,1.847688E4,3.4989263E3,5.0779242E4,1.3085596E4,1.2465093E3,7.6581284E3,3.7474055E3,7.241928E3,6.6611753E3,1.8851064E3,8.474244E3,5.642878E3,1.9611215E4,6.7001074E3,2.6058918E3,2.4842635E4,2.907703E3,1.6750357E4,2.9364204E3,1.4097212E4,1.896698E3,4.408123E3,7.712824E3,5.5868687E3,5.1222417E3,1.0279729E4,8.1356504E3,3.097949E3,7.5150275E2,4.5476777E3,7.253244E3,1.0739313E4,3.2760767E3,1.568182E4,1.2986996E4,1.0492646E5],"tree_param":{"num_deleted":"0","num_feature":"47","num_nodes":"255","size_leaf_vector":"1"}},{"base_weights":[-7.341556E-4,3.078939E-1,-5.5322725E-1,4.724931E-1,1.3607111E-2,-2.4756521E-1,-1.0735457E0,7.300184E-1,3.692932E-1,3.7347743E-1,-1.4712851E-1,-5.279475E-2,-4.498998E-1,-7.6894295E-1,-1.2937026E0,8.798508E-1,6.550373E-1,4.9105486E-1,2.5287834E-1,6.1270374E-1,2.7310225E-1,1.8065525E-4,-2.0879433E-1,1.1789822E-1,-2.1077734E-1,-2.361478E-1,-6.568399E-1,-5.141232E-1,-8.897224E-1,-1.0085045E0,-1.3673606E0,9.9724E-1,8.310392E-1,7.435445E-1,5.678353E-1,5.735467E-1,4.450401E-1,3.7601128E-1,2.151039E-1,7.0628864E-1,5.0873756E-1,3.680591E-1,2.0727295E-1,1.4671227E-1,-4.1215375E-2,-5.564523E-2,-2.7182317E-1,2.1566987E-1,4.2955585E-2,-1.11259654E-1,-3.3227897E-1,-1.10143214E-1,-3.3012807E-1,-5.2412564E-1,-7.3970157E-1,-4.3507227E-1,-6.567333E-1,-7.49069E-1,-1.0361981E0,-8.009453E-1,-1.1076535E0,-1.225936E0,-1.3895706E0,1.0648277E0,9.3972236E-1,9.101193E-1,7.567004E-1,8.139594E-1,6.9882596E-1,6.461405E-1,5.2862906E-1,6.656668E-1,5.486204E-1,5.5107474E-1,4.0896183E-1,3.9982322E-1,2.5298968E-1,1.4137043E-1,3.4168398E-1,8.34665E-1,6.7046535E-1,5.8570975E-1,4.7720686E-1,4.9596608E-1,3.2665882E-1,3.2414046E-1,1.5351279E-1,2.7806622E-1,1.2434404E-1,-1.2950447E-1,1.0811206E-1,1.9834427E-2,-1.2064295E-1,-4.1403905E-1,-6.8181865E-2,3.1182647E-1,1.5358575E-1,1.1090569E-1,-7.8319766E-2,-5.8382964E-3,-1.6875088E-1,-2.63338E-1,-4.2136127E-1,9.686402E-2,-1.384705E-1,-1.8371044E-1,-3.6243993E-1,-4.1578886E-1,-5.626152E-1,-7.013372E-1,-9.014939E-1,-3.2708234E-1,-5.0002754E-1,-6.07485E-1,-7.773203E-1,-6.912414E-1,-8.038174E-1,-9.599088E-1,-1.1155058E0,-7.078792E-1,-9.3126404E-1,-1.0538099E0,-1.1997445E0,-9.7238976E-1,-1.2859219E0,-1.3046731E0,-1.4028976E0,1.1249647E-1,1.0329183E-1,1.0166531E-1,8.985595E-2,9.550538E-2,8.7155245E-2,7.887327E-2,7.00637E-2,8.525934E-2,7.690007E-2,7.4983194E-2,6.4876094E-2,6.844414E-2,6.0621228E-2,5.494059E-2,4.4775877E-2,7.380449E-2,6.276605E-2,4.9520947E-2,6.4407885E-2,5.766037E-2,5.1502217E-2,3.468859E-2,5.1268484E-2,4.354265E-2,3.5591982E-2,2.9473683E-2,1.6479049E-2,2.5215933E-2,7.7981316E-3,3.6653694E-2,-5.729455E-3,-3.4427356E-2,8.381102E-2,7.746729E-2,6.484737E-2,3.440344E-3,5.905233E-2,3.703341E-2,4.9122673E-2,5.3810537E-2,4.3390695E-2,3.6658905E-2,2.9238159E-2,3.9164316E-2,2.9490499E-2,1.8141473E-2,8.359629E-3,1.2391857E-2,3.3437323E-2,1.2661676E-2,-6.641727E-2,-3.2917135E-3,-2.567989E-2,1.3266596E-2,-2.9911691E-2,1.2112555E-2,8.931017E-4,-6.613958E-3,-1.4619655E-2,-3.024058E-2,-5.3710695E-2,-3.6379087E-3,-5.965771E-2,3.8823143E-2,2.639258E-2,1.9222854E-2,8.199145E-3,1.817695E-2,6.876696E-3,-1.5542728E-3,-1.1604977E-2,8.57547E-3,-2.1543594E-3,-1.226834E-2,-2.3290155E-2,-2.4167495E-2,-3.536138E-2,-3.2928783E-2,-4.75184E-2,3.837226E-2,7.391876E-3,-4.8552E-3,-1.7043767E-2,-4.8804667E-2,-1.7232327E-2,-3.0815959E-2,-4.2175457E-2,-4.4495028E-2,-2.866808E-2,-5.4738034E-2,-6.2229615E-2,-5.6206144E-2,-7.473415E-2,-7.678295E-2,-9.334268E-2,-3.183682E-2,-9.773203E-2,-4.400911E-2,-5.922662E-2,-6.1005283E-2,8.854115E-2,-7.882306E-2,-2.1339543E-2,-5.46677E-2,-7.106903E-2,-6.742575E-2,-8.1726834E-2,-9.075393E-2,-9.902244E-2,-9.854137E-2,-1.14244975E-1,-5.595993E-2,-7.697264E-2,-8.342994E-2,-1.006987E-1,-9.229239E-2,-1.0729279E-1,-1.1261662E-1,-1.2398418E-1,-8.238717E-2,-1.02503955E-1,-1.2222754E-1,-1.3377611E-1,-1.1193543E-1,-1.3499206E-1,-1.3943952E-1,-1.4326069E-1],"categories":[],"categories_nodes":[],"categories_segments":[],"categories_sizes":[],"default_left":[0,0,0,0,0,0,0,0,0,0,0,0,0,0,0,0,0,0,0,0,0,0,0,0,0,0,0,0,0,0,0,0,0,0,0,0,0,0,0,0,0,0,0,0,0,0,0,0,0,0,0,0,0,0,0,0,0,0,0,0,0,0,0,0,0,0,0,0,0,0,0,0,0,0,0,0,0,0,0,0,0,0,0,0,0,0,0,0,0,0,0,0,0,0,0,0,0,0,0,0,0,0,0,0,0,0,0,0,0,0,0,0,0,0,0,0,0,0,0,0,0,0,0,0,0,0,0,0,0,0,0,0,0,0,0,0,0,0,0,0,0,0,0,0,0,0,0,0,0,0,0,0,0,0,0,0,0,0,0,0,0,0,0,0,0,0,0,0,0,0,0,0,0,0,0,0,0,0,0,0,0,0,0,0,0,0,0,0,0,0,0,0,0,0,0,0,0,0,0,0,0,0,0,0,0,0,0,0,0,0,0,0,0,0,0,0,0,0,0,0,0,0,0,0,0,0,0,0,0,0,0,0,0,0,0,0,0,0,0,0,0,0,0,0,0,0,0,0,0,0,0,0,0,0,0],"id":1,"left_children":[1,3,5,7,9,11,13,15,17,19,21,23,25,27,29,31,33,35,37,39,41,43,45,47,49,51,53,55,57,59,61,63,65,67,69,71,73,75,77,79,81,83,85,87,89,91,93,95,97,99,101,103,105,107,109,111,113,115,117,119,121,123,125,127,129,131,133,135,137,139,141,143,145,147,149,151,153,155,157,159,161,163,165,167,169,171,173,175,177,179,181,183,185,187,189,191,193,195,197,199,201,203,205,207,209,211,213,215,217,219,221,223,225,227,229,231,233,235,237,239,241,243,245,247,249,251,253,-1,-1,-1,-1,-1,-1,-1,-1,-1,-1,-1,-1,-1,-1,-1,-1,-1,-1,-1,-1,-1,-1,-1,-1,-1,-1,-1,-1,-1,-1,-1,-1,-1,-1,-1,-1,-1,-1,-1,-1,-1,-1,-1,-1,-1,-1,-1,-1,-1,-1,-1,-1,-1,-1,-1,-1,-1,-1,-1,-1,-1,-1,-1,-1,-1,-1,-1,-1,-1,-1,-1,-1,-1,-1,-1,-1,-1,-1,-1,-1,-1,-1,-1,-1,-1,-1,-1,-1,-1,-1,-1,-1,-1,-1,-1,-1,-1,-1,-1,-1,-1,-1,-1,-1,-1,-1,-1,-1,-1,-1,-1,-1,-1,-1,-1,-1,-1,-1,-1,-1,-1,-1,-1,-1,-1,-1,-1,-1],"loss_changes":[4.3488225E5,7.9263E4,1.4537522E5,2.7889E4,3.395116E4,2.2692047E4,2.2682938E4,3.3722656E3,1.06193125E4,4.351289E3,3.6855957E3,7.9117676E3,1.2492457E4,4.367297E3,4.12325E3,5.7289844E2,1.5438984E3,1.3896875E3,1.7813477E3,5.2077344E2,7.9790137E2,7.262412E2,2.760708E3,1.0333064E3,1.8423413E3,1.6451187E3,1.5776367E3,5.1420703E2,1.9828047E3,8.285664E2,4.8846875E2,1.13296875E2,4.1509766E2,3.1211328E2,3.0910156E2,3.0069922E2,8.9901953E2,2.6328223E2,2.7353975E3,1.2906055E2,6.130957E1,2.7659814E2,4.7363525E2,7.745331E1,1.2307876E3,4.0910434E2,5.8679053E3,3.6525195E2,6.5788666E2,5.0767468E2,4.2122852E2,3.4805328E2,3.7640137E2,2.2977344E2,5.476836E2,2.0581592E2,9.617236E1,1.5495898E2,2.8426562E2,1.574082E2,1.3396875E2,3.21E2,1.5071875E2,2.4762695E1,4.9414062E1,5.854883E1,6.492578E1,6.632422E1,1.5461523E2,5.1006836E1,1.12615234E2,7.633301E1,5.2583984E2,5.4625E1,1.1291191E3,1.1759082E2,5.3648865E1,1.3006538E3,1.0697578E3,2.5248047E1,5.0007812E1,1.9537598E1,2.6799805E1,3.318286E1,5.393799E1,4.676172E1,1.0072681E2,3.3259888E1,4.0472565E1,7.2131067E2,3.4687888E2,4.261158E1,6.2393066E1,1.638834E3,1.4000583E3,8.775903E1,1.0286182E2,1.5277399E2,6.7901306E1,4.2525127E1,1.6015796E2,7.5555176E1,1.481626E2,4.6999397E1,1.5006195E2,4.9778076E1,2.0974902E2,5.432788E1,3.6663086E1,4.571328E2,7.153711E1,6.219812E1,1.01098145E2,4.4853516E1,2.884375E1,6.679492E1,4.3407227E1,3.7277344E1,7.99043E1,6.933423E1,3.9004395E1,4.2095703E1,2.8270508E1,3.0885254E1,5.488867E1,1.5203711E2,2.74375E1,0E0,0E0,0E0,0E0,0E0,0E0,0E0,0E0,0E0,0E0,0E0,0E0,0E0,0E0,0E0,0E0,0E0,0E0,0E0,0E0,0E0,0E0,0E0,0E0,0E0,0E0,0E0,0E0,0E0,0E0,0E0,0E0,0E0,0E0,0E0,0E0,0E0,0E0,0E0,0E0,0E0,0E0,0E0,0E0,0E0,0E0,0E0,0E0,0E0,0E0,0E0,0E0,0E0,0E0,0E0,0E0,0E0,0E0,0E0,0E0,0E0,0E0,0E0,0E0,0E0,0E0,0E0,0E0,0E0,0E0,0E0,0E0,0E0,0E0,0E0,0E0,0E0,0E0,0E0,0E0,0E0,0E0,0E0,0E0,0E0,0E0,0E0,0E0,0E0,0E0,0E0,0E0,0E0,0E0,0E0,0E0,0E0,0E0,0E0,0E0,0E0,0E0,0E0,0E0,0E0,0E0,0E0,0E0,0E0,0E0,0E0,0E0,0E0,0E0,0E0,0E0,0E0,0E0,0E0,0E0,0E0,0E0,0E0,0E0,0E0,0E0,0E0,0E0],"parents":[2147483647,0,0,1,1,2,2,3,3,4,4,5,5,6,6,7,7,8,8,9,9,10,10,11,11,12,12,13,13,14,14,15,15,16,16,17,17,18,18,19,19,20,20,21,21,22,22,23,23,24,24,25,25,26,26,27,27,28,28,29,29,30,30,31,31,32,32,33,33,34,34,35,35,36,36,37,37,38,38,39,39,40,40,41,41,42,42,43,43,44,44,45,45,46,46,47,47,48,48,49,49,50,50,51,51,52,52,53,53,54,54,55,55,56,56,57,57,58,58,59,59,60,60,61,61,62,62,63,63,64,64,65,65,66,66,67,67,68,68,69,69,70,70,71,71,72,72,73,73,74,74,75,75,76,76,77,77,78,78,79,79,80,80,81,81,82,82,83,83,84,84,85,85,86,86,87,87,88,88,89,89,90,90,91,91,92,92,93,93,94,94,95,95,96,96,97,97,98,98,99,99,100,100,101,101,102,102,103,103,104,104,105,105,106,106,107,107,108,108,109,109,110,110,111,111,112,112,113,113,114,114,115,115,116,116,117,117,118,118,119,119,120,120,121,121,122,122,123,123,124,124,125,125,126,126],"right_children":[2,4,6,8,10,12,14,16,18,20,22,24,26,28,30,32,34,36,38,40,42,44,46,48,50,52,54,56,58,60,62,64,66,68,70,72,74,76,78,80,82,84,86,88,90,92,94,96,98,100,102,104,106,108,110,112,114,116,118,120,122,124,126,128,130,132,134,136,138,140,142,144,146,148,150,152,154,156,158,160,162,164,166,168,170,172,174,176,178,180,182,184,186,188,190,192,194,196,198,200,202,204,206,208,210,212,214,216,218,220,222,224,226,228,230,232,234,236,238,240,242,244,246,248,250,252,254,-1,-1,-1,-1,-1,-1,-1,-1,-1,-1,-1,-1,-1,-1,-1,-1,-1,-1,-1,-1,-1,-1,-1,-1,-1,-1,-1,-1,-1,-1,-1,-1,-1,-1,-1,-1,-1,-1,-1,-1,-1,-1,-1,-1,-1,-1,-1,-1,-1,-1,-1,-1,-1,-1,-1,-1,-1,-1,-1,-1,-1,-1,-1,-1,-1,-1,-1,-1,-1,-1,-1,-1,-1,-1,-1,-1,-1,-1,-1,-1,-1,-1,-1,-1,-1,-1,-1,-1,-1,-1,-1,-1,-1,-1,-1,-1,-1,-1,-1,-1,-1,-1,-1,-1,-1,-1,-1,-1,-1,-1,-1,-1,-1,-1,-1,-1,-1,-1,-1,-1,-1,-1,-1,-1,-1,-1,-1,-1],"split_conditions":[6.805356E2,5.493828E4,5.216768E4,5.986114E2,6.01435E2,7.2897797E2,7.1900653E2,5.461707E2,3.2099143E4,5.4259186E2,6.881396E4,3.0696004E4,3.0970662E4,6.712935E4,6.107257E4,5.0168295E2,3.267041E4,1.835386E4,6.2790186E2,5.1804944E2,5.7279364E2,6.2790186E2,6.351652E2,1.9403809E4,7.0502136E2,1.9403809E4,3.9400016E4,7.041071E2,6.987744E2,7.409863E2,7.279595E2,3.1252348E4,3.2099143E4,1.9403809E4,5.6836383E2,6.2577606E2,6.3004376E2,4.9551938E4,6.783939E2,4.7006815E2,6.881396E4,6.606603E4,6.996433E4,5.660958E4,6.783939E2,6.179037E2,6.783939E2,6.9788E2,7.095921E2,3.849074E4,4.3805188E4,4.8076206E3,3E0,7.456933E2,4.846762E4,5.7037477E4,6.2022473E4,6.89168E2,7.08667E2,5.7037477E4,5.747045E4,6.939388E4,6.712935E4,4.7006815E2,4.7006815E2,2.0728281E4,5.343433E2,5.7882074E2,5.7687494E2,5.584535E2,4.846762E4,1.06736045E4,6.783939E2,6.179037E2,6.783939E2,6.1555206E2,6.190791E2,6.4678674E2,6.788204E2,1.0508078E4,6.250784E4,1.0005194E4,3.1393816E3,1.032E3,5.584535E2,5.825633E2,5.941331E2,1.4566925E3,3.1128738E5,6.568358E2,6.788204E2,5.1519865E-1,6.2358356E2,6.577408E2,6.788204E2,1.2065319E4,7.170805E2,6.908979E2,2.3816611E4,6.8397687E2,6.9438257E2,7.239133E2,7.132811E2,7.3320685E2,7.456933E2,7.2E1,2.5579596E4,1.476E3,3.759445E4,7.4449896E2,7.409863E2,8.1146944E5,6.9438257E2,7.981142E0,2.464E1,7.237094E4,7.1141586E4,7.023122E2,7.4934516E4,7.249062E2,7.279595E2,7.481357E2,3.376319E4,6.2992508E4,7.229157E2,3E0,1.39E3,1.1249647E-1,1.0329183E-1,1.0166531E-1,8.985595E-2,9.550538E-2,8.7155245E-2,7.887327E-2,7.00637E-2,8.525934E-2,7.690007E-2,7.4983194E-2,6.4876094E-2,6.844414E-2,6.0621228E-2,5.494059E-2,4.4775877E-2,7.380449E-2,6.276605E-2,4.9520947E-2,6.4407885E-2,5.766037E-2,5.1502217E-2,3.468859E-2,5.1268484E-2,4.354265E-2,3.5591982E-2,2.9473683E-2,1.6479049E-2,2.5215933E-2,7.7981316E-3,3.6653694E-2,-5.729455E-3,-3.4427356E-2,8.381102E-2,7.746729E-2,6.484737E-2,3.440344E-3,5.905233E-2,3.703341E-2,4.9122673E-2,5.3810537E-2,4.3390695E-2,3.6658905E-2,2.9238159E-2,3.9164316E-2,2.9490499E-2,1.8141473E-2,8.359629E-3,1.2391857E-2,3.3437323E-2,1.2661676E-2,-6.641727E-2,-3.2917135E-3,-2.567989E-2,1.3266596E-2,-2.9911691E-2,1.2112555E-2,8.931017E-4,-6.613958E-3,-1.4619655E-2,-3.024058E-2,-5.3710695E-2,-3.6379087E-3,-5.965771E-2,3.8823143E-2,2.639258E-2,1.9222854E-2,8.199145E-3,1.817695E-2,6.876696E-3,-1.5542728E-3,-1.1604977E-2,8.57547E-3,-2.1543594E-3,-1.226834E-2,-2.3290155E-2,-2.4167495E-2,-3.536138E-2,-3.2928783E-2,-4.75184E-2,3.837226E-2,7.391876E-3,-4.8552E-3,-1.7043767E-2,-4.8804667E-2,-1.7232327E-2,-3.0815959E-2,-4.2175457E-2,-4.4495028E-2,-2.866808E-2,-5.4738034E-2,-6.2229615E-2,-5.6206144E-2,-7.473415E-2,-7.678295E-2,-9.334268E-2,-3.183682E-2,-9.773203E-2,-4.400911E-2,-5.922662E-2,-6.1005283E-2,8.854115E-2,-7.882306E-2,-2.1339543E-2,-5.46677E-2,-7.106903E-2,-6.742575E-2,-8.1726834E-2,-9.075393E-2,-9.902244E-2,-9.854137E-2,-1.14244975E-1,-5.595993E-2,-7.697264E-2,-8.342994E-2,-1.006987E-1,-9.229239E-2,-1.0729279E-1,-1.1261662E-1,-1.2398418E-1,-8.238717E-2,-1.02503955E-1,-1.2222754E-1,-1.3377611E-1,-1.1193543E-1,-1.3499206E-1,-1.3943952E-1,-1.4326069E-1],"split_indices":[5,3,3,5,5,5,5,5,3,5,3,3,3,3,3,5,3,3,5,5,5,5,5,3,5,3,3,5,5,5,5,3,3,3,5,5,5,3,5,5,3,3,3,3,5,5,5,5,5,3,3,3,34,5,3,3,3,5,5,3,3,3,3,5,5,3,5,5,5,5,3,3,5,5,5,5,5,5,5,29,3,29,27,22,5,5,5,27,10,5,5,32,5,5,5,3,5,5,3,5,5,5,5,5,5,22,3,22,3,5,5,16,5,25,11,3,3,5,3,5,5,5,33,3,5,34,22,0,0,0,0,0,0,0,0,0,0,0,0,0,0,0,0,0,0,0,0,0,0,0,0,0,0,0,0,0,0,0,0,0,0,0,0,0,0,0,0,0,0,0,0,0,0,0,0,0,0,0,0,0,0,0,0,0,0,0,0,0,0,0,0,0,0,0,0,0,0,0,0,0,0,0,0,0,0,0,0,0,0,0,0,0,0,0,0,0,0,0,0,0,0,0,0,0,0,0,0,0,0,0,0,0,0,0,0,0,0,0,0,0,0,0,0,0,0,0,0,0,0,0,0,0,0,0,0],"split_type":[0,0,0,0,0,0,0,0,0,0,0,0,0,0,0,0,0,0,0,0,0,0,0,0,0,0,0,0,0,0,0,0,0,0,0,0,0,0,0,0,0,0,0,0,0,0,0,0,0,0,0,0,0,0,0,0,0,0,0,0,0,0,0,0,0,0,0,0,0,0,0,0,0,0,0,0,0,0,0,0,0,0,0,0,0,0,0,0,0,0,0,0,0,0,0,0,0,0,0,0,0,0,0,0,0,0,0,0,0,0,0,0,0,0,0,0,0,0,0,0,0,0,0,0,0,0,0,0,0,0,0,0,0,0,0,0,0,0,0,0,0,0,0,0,0,0,0,0,0,0,0,0,0,0,0,0,0,0,0,0,0,0,0,0,0,0,0,0,0,0,0,0,0,0,0,0,0,0,0,0,0,0,0,0,0,0,0,0,0,0,0,0,0,0,0,0,0,0,0,0,0,0,0,0,0,0,0,0,0,0,0,0,0,0,0,0,0,0,0,0,0,0,0,0,0,0,0,0,0,0,0,0,0,0,0,0,0,0,0,0,0,0,0,0,0,0,0,0,0,0,0,0,0,0,0],"sum_hessian":[2.5504045E6,1.6363332E6,9.1407125E5,1.0493915E6,5.8694175E5,5.7581125E5,3.3825997E5,3.0021878E5,7.491727E5,1.812162E5,4.0572556E5,2.9339034E5,2.824209E5,1.4191503E5,1.9634495E5,1.001271E5,2.0009167E5,3.661758E5,3.8299688E5,5.356012E4,1.2765608E5,1.19724664E5,2.8600088E5,1.4102238E5,1.5236797E5,1.3892502E5,1.434959E5,4.5636555E4,9.627847E4,4.030429E4,1.5604067E5,2.9400672E4,7.072643E4,9.929892E4,1.0079275E5,1.3111358E5,2.3506222E5,8.990983E4,2.9308703E5,2.81843E4,2.5375822E4,5.226327E4,7.5392805E4,2.637196E4,9.33527E4,8.3386984E4,2.026139E5,6.1190348E4,7.983203E4,8.376277E4,6.86052E4,5.9351426E4,7.9573586E4,5.515883E4,8.833708E4,2.9363805E4,1.6272752E4,4.911849E4,4.715998E4,1.303202E4,2.7272268E4,2.1186955E4,1.348537E5,1.3509024E4,1.5891647E4,3.4264883E4,3.6461547E4,3.8561652E4,6.073727E4,3.3623027E4,6.716972E4,2.7916594E4,1.0319699E5,5.9671727E4,1.753905E5,7.5327305E4,1.4582525E4,1.852059E5,1.07881125E5,6.1440835E3,2.2040217E4,7.369053E3,1.800677E4,1.2777117E4,3.9486152E4,2.3752646E4,5.1640164E4,3.8357395E3,2.253622E4,5.866654E4,3.4686164E4,3.8582793E4,4.4804195E4,1.1929881E5,8.331509E4,2.4005824E4,3.7184523E4,5.116472E4,2.8667309E4,2.955995E4,5.4202824E4,3.8676965E4,2.9928238E4,7.143856E3,5.220757E4,1.4387032E4,6.5186555E4,1.446262E4,4.0696207E4,7.140969E4,1.6927389E4,1.1030807E4,1.8332998E4,1.155832E4,4.7144316E3,2.3894139E4,2.5224348E4,2.4044102E4,2.311588E4,7.6064004E3,5.425619E3,1.7217826E4,1.005444E4,4.0568384E3,1.7130117E4,1.831028E4,1.1654343E5,4.67125E3,8.837774E3,5.5309634E3,1.0360685E4,1.5814976E4,1.8449908E4,2.3195518E4,1.326603E4,2.072998E4,1.7831672E4,3.0078986E4,3.0658283E4,1.7153014E4,1.6470014E4,5.3435555E4,1.3734167E4,9.605587E3,1.8311006E4,6.617621E4,3.7020777E4,3.492568E4,2.4746047E4,1.0972613E5,6.566436E4,4.1590633E4,3.373667E4,9.896088E3,4.6864385E3,6.7401445E4,1.1780447E5,1.01555195E5,6.325935E3,1.7614336E1,6.126469E3,3.834784E3,1.8205434E4,6.385382E1,7.3051997E3,2.0914185E3,1.5915351E4,7.6053047E3,5.1718125E3,1.8234607E4,2.1251545E4,7.174603E3,1.6578043E4,3.6909074E4,1.473109E4,1.0271058E3,2.8086338E3,2.247229E4,6.3931854E1,3.3357266E4,2.5309271E4,3.2714324E4,1.9718391E3,3.748612E3,3.483418E4,1.4302309E4,3.0501887E4,6.2557336E4,5.6741477E4,7.858625E4,4.72884E3,9.247812E3,1.4758013E4,2.4148678E4,1.3035847E4,1.9078125E4,3.2086594E4,1.0762141E4,1.7905168E4,4.3260493E3,2.52339E4,3.1549562E4,2.2653262E4,3.1194945E4,7.4820186E3,1.1043482E4,1.8884756E4,5.279368E2,6.6159194E3,1.3693232E4,3.851434E4,5.1738666E2,1.38696455E4,3.404097E4,3.1145586E4,1.179586E4,2.6667595E3,3.2428328E4,8.267879E3,1.7734006E4,5.367568E4,3.269009E3,1.3658381E4,1.0886402E4,1.4440424E2,1.1115774E4,7.217224E3,1.1539063E4,1.9256327E1,4.6245625E3,8.986904E1,2.8368462E3,2.1057293E4,2.3772864E3,2.2847062E4,8.826849E3,1.5217253E4,3.9726147E3,1.9143266E4,2.2417673E3,5.3646333E3,2.3843845E3,3.0412344E3,2.2007002E3,1.5017127E4,3.5568118E3,6.497629E3,1.0661156E3,2.990723E3,7.7004033E3,9.429713E3,3.5983577E3,1.4711921E4,9.064888E4,2.589455E4],"tree_param":{"num_deleted":"0","num_feature":"47","num_nodes":"255","size_leaf_vector":"1"}},{"base_weights":[-9.215197E-4,2.784137E-1,-5.02981E-1,4.3884322E-1,3.0804232E-2,-2.1480154E-1,-9.589021E-1,6.6037947E-1,3.4060282E-1,3.3631316E-1,-1.1984253E-1,-3.0478006E-2,-3.80439E-1,-6.618941E-1,-1.1528066E0,8.068819E-1,5.9465206E-1,4.5137176E-1,2.4630073E-1,5.189675E-1,2.2628598E-1,3.9968707E-2,-1.866791E-1,1.1150325E-1,-1.7016976E-1,-2.0422229E-1,-5.621684E-1,-4.3582302E-1,-7.8631884E-1,-8.9614457E-1,-1.2486938E0,9.120239E-1,7.6343876E-1,6.791904E-1,5.2600056E-1,5.230738E-1,4.0942663E-1,3.141736E-1,2.0210831E-1,6.691516E-1,4.5103982E-1,3.4968534E-1,1.7571163E-1,-5.3908434E-3,1.4699143E-1,-2.4267976E-1,-5.649282E-2,1.8893126E-1,2.5264703E-2,-8.468507E-2,-2.5871918E-1,-3.464645E-2,-2.586563E-1,-4.5230386E-1,-6.3845944E-1,-3.17206E-1,-5.040105E-1,-6.785561E-1,-9.15475E-1,-7.201872E-1,-9.927067E-1,-1.0892608E0,-1.2758791E0,9.78815E-1,8.686684E-1,8.2456505E-1,7.047659E-1,7.1496576E-1,6.1083823E-1,5.69345E-1,4.5464066E-1,5.959812E-1,4.9658963E-1,5.017377E-1,3.8172314E-1,3.8756886E-1,2.859021E-1,2.970352E-1,1.637238E-1,7.679526E-1,6.330221E-1,5.4096633E-1,4.0704146E-1,4.0627477E-1,2.7460784E-1,2.5467408E-1,1.21208966E-1,9.410116E-2,-1.4177781E-1,1.7049594E-1,-2.377299E-1,-8.1403926E-2,-3.918419E-1,-2.8180374E-2,-5.289384E-1,2.3963994E-1,1.03924476E-1,1.13802254E-1,-5.2140832E-2,-1.1872997E-2,-1.2809317E-1,-1.657161E-1,-3.144953E-1,4.038707E-2,-7.407636E-2,-1.210565E-1,-3.0157217E-1,-3.262184E-1,-4.939672E-1,-5.1546323E-1,-6.794368E-1,-1.8193842E-1,-3.6948138E-1,-4.3097684E-1,-6.2490606E-1,-6.4014137E-1,-7.5804543E-1,-8.525361E-1,-9.74181E-1,-5.997126E-1,-7.842999E-1,-9.18309E-1,-1.0898429E0,-8.4970075E-1,-1.1275257E0,-1.2296077E0,-1.2864348E0,7.937261E-2,9.873586E-2,9.430378E-2,8.2803585E-2,8.717807E-2,7.953538E-2,7.159454E-2,5.869651E-2,7.942467E-2,6.824365E-2,6.7701064E-2,5.688336E-2,6.3930474E-2,5.4657828E-2,5.2496977E-2,4.040095E-2,6.421778E-2,5.3711593E-2,4.365514E-2,5.8823895E-2,5.6524884E-2,4.8223898E-2,3.286583E-2,4.7092732E-2,4.528954E-2,3.7280273E-2,2.229467E-2,3.806057E-2,3.364616E-2,2.6392812E-2,7.452099E-3,2.9299606E-2,8.9650504E-2,7.37794E-2,7.464468E-2,6.078219E-2,5.8098614E-2,4.780143E-2,4.688305E-2,3.641637E-2,4.7584854E-2,3.7979025E-2,2.9371275E-2,1.8209241E-2,2.7892804E-2,1.9446855E-2,1.4801656E-2,8.41126E-3,1.5874973E-2,2.7747527E-3,-9.376551E-3,-2.2127025E-2,1.8820204E-2,1.09944735E-2,-2.6137415E-2,6.970981E-2,-9.0880395E-4,-1.4540541E-2,-3.1321585E-2,-4.818052E-2,-5.2981796E-3,-2.3474594E-4,-2.8398518E-2,-5.537038E-2,3.456054E-2,2.0926522E-2,2.2569252E-2,6.1308686E-3,1.4593119E-2,7.3899264E-3,-2.251503E-3,-1.2542414E-2,-4.022413E-3,4.316402E-3,-7.6015564E-3,-1.663111E-2,-8.936181E-3,-1.9717557E-2,-2.9922808E-2,-4.5194924E-2,5.5236085E-3,-1.116868E-2,-7.5697125E-4,-1.0833321E-2,-6.572158E-3,-1.8584372E-2,-2.3730924E-2,-3.6633823E-2,-3.996293E-2,-2.8394783E-2,-5.0429773E-2,-3.8230233E-2,-4.9801327E-2,-6.6435106E-2,-6.59723E-2,-8.450918E-2,-6.957004E-2,-1.588939E-2,-3.530662E-2,-6.932587E-2,-3.8136665E-2,-5.1370304E-2,-5.523727E-2,-6.8954185E-2,-5.1826686E-2,-6.5658435E-2,-5.801582E-2,-7.712411E-2,-7.470202E-2,-8.6885266E-2,-8.6583324E-2,-9.966758E-2,-6.2036455E-2,-2.8762368E-2,-6.761568E-2,-8.540591E-2,-9.027542E-2,-1.0486118E-1,-9.620091E-2,-1.1205514E-1,-1.2646616E-1,-8.152043E-2,-1.0816095E-1,-1.16156936E-1,-1.0264387E-1,-1.2710461E-1,-1.28327E-1,-1.3343158E-1],"categories":[],"categories_nodes":[],"categories_segments":[],"categories_sizes":[],"default_left":[0,0,0,0,0,0,0,0,0,0,0,0,0,0,0,0,0,0,0,0,0,0,0,0,0,0,0,0,0,0,0,0,0,0,0,0,0,0,0,0,0,0,0,0,0,0,0,0,0,0,0,0,0,0,0,0,0,0,0,0,0,0,0,0,0,0,0,0,0,0,0,0,0,0,0,0,0,0,0,0,0,0,0,0,0,0,0,0,0,0,0,0,0,0,0,0,0,0,0,0,0,0,0,0,0,0,0,0,0,0,0,0,0,0,0,0,0,0,0,0,0,0,0,0,0,0,0,0,0,0,0,0,0,0,0,0,0,0,0,0,0,0,0,0,0,0,0,0,0,0,0,0,0,0,0,0,0,0,0,0,0,0,0,0,0,0,0,0,0,0,0,0,0,0,0,0,0,0,0,0,0,0,0,0,0,0,0,0,0,0,0,0,0,0,0,0,0,0,0,0,0,0,0,0,0,0,0,0,0,0,0,0,0,0,0,0,0,0,0,0,0,0,0,0,0,0,0,0,0,0,0,0,0,0,0,0,0,0,0,0,0,0,0,0,0,0,0,0,0,0,0,0,0,0,0],"id":2,"left_children":[1,3,5,7,9,11,13,15,17,19,21,23,25,27,29,31,33,35,37,39,41,43,45,47,49,51,53,55,57,59,61,63,65,67,69,71,73,75,77,79,81,83,85,87,89,91,93,95,97,99,101,103,105,107,109,111,113,115,117,119,121,123,125,127,129,131,133,135,137,139,141,143,145,147,149,151,153,155,157,159,161,163,165,167,169,171,173,175,177,179,181,183,185,187,189,191,193,195,197,199,201,203,205,207,209,211,213,215,217,219,221,223,225,227,229,231,233,235,237,239,241,243,245,247,249,251,253,-1,-1,-1,-1,-1,-1,-1,-1,-1,-1,-1,-1,-1,-1,-1,-1,-1,-1,-1,-1,-1,-1,-1,-1,-1,-1,-1,-1,-1,-1,-1,-1,-1,-1,-1,-1,-1,-1,-1,-1,-1,-1,-1,-1,-1,-1,-1,-1,-1,-1,-1,-1,-1,-1,-1,-1,-1,-1,-1,-1,-1,-1,-1,-1,-1,-1,-1,-1,-1,-1,-1,-1,-1,-1,-1,-1,-1,-1,-1,-1,-1,-1,-1,-1,-1,-1,-1,-1,-1,-1,-1,-1,-1,-1,-1,-1,-1,-1,-1,-1,-1,-1,-1,-1,-1,-1,-1,-1,-1,-1,-1,-1,-1,-1,-1,-1,-1,-1,-1,-1,-1,-1,-1,-1,-1,-1,-1,-1],"loss_changes":[3.5667103E5,6.491172E4,1.194522E5,2.1580797E4,2.9569174E4,1.700749E4,2.0277438E4,2.9329062E3,7.1757812E3,4.2640293E3,4.596091E3,5.229322E3,9.395707E3,3.9118086E3,5.2415938E3,4.3022656E2,1.2201094E3,9.498828E2,1.1129414E3,8.1341406E2,8.263301E2,6.1599506E2,2.2119639E3,8.7310535E2,1.00598975E3,1.3750098E3,1.2103672E3,3.991953E2,1.2479297E3,9.8378516E2,6.707969E2,7.901172E1,2.388711E2,2.3000781E2,3.5870898E2,2.2482617E2,5.0951562E2,3.0351562E2,8.1884766E2,8.817969E1,2.1709863E2,1.6342773E2,4.0419067E2,1.2093275E3,3.4159814E2,5.1034414E3,1.2206652E3,2.9696777E2,4.2395657E2,2.1372784E2,3.3857812E2,1.07098755E2,6.6586035E2,3.1081934E2,4.2928125E2,1.2739514E2,2.765376E2,1.4885352E2,1.4992188E2,1.5813867E2,2.6934375E2,2.0620117E2,6.3125E1,1.636914E1,4.978125E1,4.4396484E1,4.445117E1,1.5897656E2,8.962988E1,1.1464258E2,1.559668E2,8.4125E1,4.7036328E2,5.669922E1,7.255488E2,3.90791E1,6.297529E2,8.4375E1,1.8453975E3,2.5106201E1,5.1550293E1,4.5174805E1,9.755029E1,4.0259033E1,2.9193115E1,5.5952637E1,5.5251038E1,2.2104556E2,1.4344897E2,3.814441E1,4.826143E1,4.7179077E2,7.794336E2,5.516337E1,3.11427E1,1.3882788E2,1.3358313E2,3.698355E1,7.165576E1,3.9413273E1,8.4306946E1,5.877307E1,8.549756E1,2.8165674E1,5.4062027E1,9.610242E1,3.5766162E2,4.5520996E1,5.113379E1,5.5024414E1,2.0824219E2,5.939908E1,6.884973E1,8.002637E1,5.496045E1,6.574902E1,3.6944336E1,3.326465E1,5.0570312E1,4.581836E1,1.0050488E2,4.2003906E1,6.2595703E1,4.3581787E1,2.9197266E1,2.0607422E2,1.4625E1,0E0,0E0,0E0,0E0,0E0,0E0,0E0,0E0,0E0,0E0,0E0,0E0,0E0,0E0,0E0,0E0,0E0,0E0,0E0,0E0,0E0,0E0,0E0,0E0,0E0,0E0,0E0,0E0,0E0,0E0,0E0,0E0,0E0,0E0,0E0,0E0,0E0,0E0,0E0,0E0,0E0,0E0,0E0,0E0,0E0,0E0,0E0,0E0,0E0,0E0,0E0,0E0,0E0,0E0,0E0,0E0,0E0,0E0,0E0,0E0,0E0,0E0,0E0,0E0,0E0,0E0,0E0,0E0,0E0,0E0,0E0,0E0,0E0,0E0,0E0,0E0,0E0,0E0,0E0,0E0,0E0,0E0,0E0,0E0,0E0,0E0,0E0,0E0,0E0,0E0,0E0,0E0,0E0,0E0,0E0,0E0,0E0,0E0,0E0,0E0,0E0,0E0,0E0,0E0,0E0,0E0,0E0,0E0,0E0,0E0,0E0,0E0,0E0,0E0,0E0,0E0,0E0,0E0,0E0,0E0,0E0,0E0,0E0,0E0,0E0,0E0,0E0,0E0],"parents":[2147483647,0,0,1,1,2,2,3,3,4,4,5,5,6,6,7,7,8,8,9,9,10,10,11,11,12,12,13,13,14,14,15,15,16,16,17,17,18,18,19,19,20,20,21,21,22,22,23,23,24,24,25,25,26,26,27,27,28,28,29,29,30,30,31,31,32,32,33,33,34,34,35,35,36,36,37,37,38,38,39,39,40,40,41,41,42,42,43,43,44,44,45,45,46,46,47,47,48,48,49,49,50,50,51,51,52,52,53,53,54,54,55,55,56,56,57,57,58,58,59,59,60,60,61,61,62,62,63,63,64,64,65,65,66,66,67,67,68,68,69,69,70,70,71,71,72,72,73,73,74,74,75,75,76,76,77,77,78,78,79,79,80,80,81,81,82,82,83,83,84,84,85,85,86,86,87,87,88,88,89,89,90,90,91,91,92,92,93,93,94,94,95,95,96,96,97,97,98,98,99,99,100,100,101,101,102,102,103,103,104,104,105,105,106,106,107,107,108,108,109,109,110,110,111,111,112,112,113,113,114,114,115,115,116,116,117,117,118,118,119,119,120,120,121,121,122,122,123,123,124,124,125,125,126,126],"right_children":[2,4,6,8,10,12,14,16,18,20,22,24,26,28,30,32,34,36,38,40,42,44,46,48,50,52,54,56,58,60,62,64,66,68,70,72,74,76,78,80,82,84,86,88,90,92,94,96,98,100,102,104,106,108,110,112,114,116,118,120,122,124,126,128,130,132,134,136,138,140,142,144,146,148,150,152,154,156,158,160,162,164,166,168,170,172,174,176,178,180,182,184,186,188,190,192,194,196,198,200,202,204,206,208,210,212,214,216,218,220,222,224,226,228,230,232,234,236,238,240,242,244,246,248,250,252,254,-1,-1,-1,-1,-1,-1,-1,-1,-1,-1,-1,-1,-1,-1,-1,-1,-1,-1,-1,-1,-1,-1,-1,-1,-1,-1,-1,-1,-1,-1,-1,-1,-1,-1,-1,-1,-1,-1,-1,-1,-1,-1,-1,-1,-1,-1,-1,-1,-1,-1,-1,-1,-1,-1,-1,-1,-1,-1,-1,-1,-1,-1,-1,-1,-1,-1,-1,-1,-1,-1,-1,-1,-1,-1,-1,-1,-1,-1,-1,-1,-1,-1,-1,-1,-1,-1,-1,-1,-1,-1,-1,-1,-1,-1,-1,-1,-1,-1,-1,-1,-1,-1,-1,-1,-1,-1,-1,-1,-1,-1,-1,-1,-1,-1,-1,-1,-1,-1,-1,-1,-1,-1,-1,-1,-1,-1,-1,-1],"split_conditions":[6.805356E2,5.1404676E4,5.0288895E4,6.0283984E2,6.0551465E2,7.249062E2,7.1611694E2,5.461707E2,2.985079E4,5.556682E2,6.5016957E4,3.0696004E4,3.0970662E4,6.712935E4,6.250784E4,5.0168295E2,2.9569523E4,1.7625916E4,3.879102E4,5.107535E2,6.5016957E4,6.783939E2,6.783939E2,2.1366934E4,7.014243E2,1.4729504E4,3.9400016E4,6.92638E2,6.987744E2,7.409863E2,7.259112E2,2.759269E4,3.1252348E4,5.877698E2,5.860708E2,6.341522E2,6.3004376E2,6.351652E2,6.3617175E2,4.7006815E2,6.712935E4,5.877698E2,1E0,6.4956647E2,6.788204E2,6.4202637E2,6.788204E2,7.068357E2,6.996575E2,3.849074E4,3.849074E4,7.7360264E3,3E0,7.409863E2,7.409863E2,5.412725E4,5.9682684E4,6.92638E2,7.068357E2,7.239133E2,5.660958E4,6.823965E4,7.1141586E4,3.066791E1,4.7006815E2,5.241547E2,4.882947E4,1.5621258E4,1.8941432E4,5.584535E2,3.9090273E4,1.3228296E4,6.783939E2,6.536777E3,6.783939E2,6.094148E2,6.783939E2,6.190791E2,6.783939E2,6.08476E4,6.04039E4,5.4259186E2,5.343433E2,5.6603345E2,9.7622943E2,3.640256E1,5.956656E2,6.2898004E2,6.674561E2,6.2680586E4,2.2420998E5,6.2358356E2,6.613004E2,3.6507677E-2,4.7351086E2,9.852995E3,1.06736045E4,6.908979E2,7.170805E2,4.282111E1,6.89168E2,7.0774976E2,4.846762E4,5.3845974E1,7.481357E2,2.4112186E4,2.3513576E4,7E0,5.5597782E1,4.846762E4,4.846762E4,8.320386E-3,6.014889E-1,7.068357E2,7.0321E2,7.237094E4,6.996433E4,7.2999805E4,7.4934516E4,3.940065E-1,5.453016E4,3.3097773E3,7.5193317E2,2E0,3E0,7.364606E2,8.424527E-1,7.937261E-2,9.873586E-2,9.430378E-2,8.2803585E-2,8.717807E-2,7.953538E-2,7.159454E-2,5.869651E-2,7.942467E-2,6.824365E-2,6.7701064E-2,5.688336E-2,6.3930474E-2,5.4657828E-2,5.2496977E-2,4.040095E-2,6.421778E-2,5.3711593E-2,4.365514E-2,5.8823895E-2,5.6524884E-2,4.8223898E-2,3.286583E-2,4.7092732E-2,4.528954E-2,3.7280273E-2,2.229467E-2,3.806057E-2,3.364616E-2,2.6392812E-2,7.452099E-3,2.9299606E-2,8.9650504E-2,7.37794E-2,7.464468E-2,6.078219E-2,5.8098614E-2,4.780143E-2,4.688305E-2,3.641637E-2,4.7584854E-2,3.7979025E-2,2.9371275E-2,1.8209241E-2,2.7892804E-2,1.9446855E-2,1.4801656E-2,8.41126E-3,1.5874973E-2,2.7747527E-3,-9.376551E-3,-2.2127025E-2,1.8820204E-2,1.09944735E-2,-2.6137415E-2,6.970981E-2,-9.0880395E-4,-1.4540541E-2,-3.1321585E-2,-4.818052E-2,-5.2981796E-3,-2.3474594E-4,-2.8398518E-2,-5.537038E-2,3.456054E-2,2.0926522E-2,2.2569252E-2,6.1308686E-3,1.4593119E-2,7.3899264E-3,-2.251503E-3,-1.2542414E-2,-4.022413E-3,4.316402E-3,-7.6015564E-3,-1.663111E-2,-8.936181E-3,-1.9717557E-2,-2.9922808E-2,-4.5194924E-2,5.5236085E-3,-1.116868E-2,-7.5697125E-4,-1.0833321E-2,-6.572158E-3,-1.8584372E-2,-2.3730924E-2,-3.6633823E-2,-3.996293E-2,-2.8394783E-2,-5.0429773E-2,-3.8230233E-2,-4.9801327E-2,-6.6435106E-2,-6.59723E-2,-8.450918E-2,-6.957004E-2,-1.588939E-2,-3.530662E-2,-6.932587E-2,-3.8136665E-2,-5.1370304E-2,-5.523727E-2,-6.8954185E-2,-5.1826686E-2,-6.5658435E-2,-5.801582E-2,-7.712411E-2,-7.470202E-2,-8.6885266E-2,-8.6583324E-2,-9.966758E-2,-6.2036455E-2,-2.8762368E-2,-6.761568E-2,-8.540591E-2,-9.027542E-2,-1.0486118E-1,-9.620091E-2,-1.1205514E-1,-1.2646616E-1,-8.152043E-2,-1.0816095E-1,-1.16156936E-1,-1.0264387E-1,-1.2710461E-1,-1.28327E-1,-1.3343158E-1],"split_indices":[5,3,3,5,5,5,5,5,3,5,3,3,3,3,3,5,3,3,3,5,3,5,5,3,5,3,3,5,5,5,5,3,3,5,5,5,5,5,5,5,3,5,34,5,5,5,5,5,5,3,3,3,34,5,5,3,3,5,5,5,3,3,3,36,5,5,3,3,26,5,3,3,5,29,5,5,5,5,5,26,26,5,5,5,14,9,5,5,5,26,15,5,5,24,15,3,3,5,5,0,5,5,3,9,5,3,3,46,9,3,3,31,37,5,5,3,3,3,3,24,3,27,5,45,20,5,28,0,0,0,0,0,0,0,0,0,0,0,0,0,0,0,0,0,0,0,0,0,0,0,0,0,0,0,0,0,0,0,0,0,0,0,0,0,0,0,0,0,0,0,0,0,0,0,0,0,0,0,0,0,0,0,0,0,0,0,0,0,0,0,0,0,0,0,0,0,0,0,0,0,0,0,0,0,0,0,0,0,0,0,0,0,0,0,0,0,0,0,0,0,0,0,0,0,0,0,0,0,0,0,0,0,0,0,0,0,0,0,0,0,0,0,0,0,0,0,0,0,0,0,0,0,0,0,0],"split_type":[0,0,0,0,0,0,0,0,0,0,0,0,0,0,0,0,0,0,0,0,0,0,0,0,0,0,0,0,0,0,0,0,0,0,0,0,0,0,0,0,0,0,0,0,0,0,0,0,0,0,0,0,0,0,0,0,0,0,0,0,0,0,0,0,0,0,0,0,0,0,0,0,0,0,0,0,0,0,0,0,0,0,0,0,0,0,0,0,0,0,0,0,0,0,0,0,0,0,0,0,0,0,0,0,0,0,0,0,0,0,0,0,0,0,0,0,0,0,0,0,0,0,0,0,0,0,0,0,0,0,0,0,0,0,0,0,0,0,0,0,0,0,0,0,0,0,0,0,0,0,0,0,0,0,0,0,0,0,0,0,0,0,0,0,0,0,0,0,0,0,0,0,0,0,0,0,0,0,0,0,0,0,0,0,0,0,0,0,0,0,0,0,0,0,0,0,0,0,0,0,0,0,0,0,0,0,0,0,0,0,0,0,0,0,0,0,0,0,0,0,0,0,0,0,0,0,0,0,0,0,0,0,0,0,0,0,0,0,0,0,0,0,0,0,0,0,0,0,0,0,0,0,0,0,0],"sum_hessian":[2.5432355E6,1.6340726E6,9.091629E5,9.916006E5,6.42472E5,5.5705806E5,3.5210484E5,3.046335E5,6.869671E5,2.1217788E5,4.3029412E5,2.6365762E5,2.9340044E5,1.3907889E5,2.1302595E5,9.434125E4,2.1029225E5,3.1590066E5,3.7106647E5,7.9762195E4,1.3241567E5,1.26890305E5,3.0340384E5,1.3075738E5,1.3290025E5,1.4896061E5,1.4443981E5,4.9374113E4,8.970477E4,5.7942125E4,1.5508383E5,2.7577557E4,6.6763695E4,9.423776E4,1.160545E5,1.1658903E5,1.9931161E5,1.4632588E5,2.247406E5,2.4838004E4,5.492419E4,3.849166E4,9.3924016E4,8.91196E4,3.7770703E4,2.1214648E5,9.125735E4,6.889755E4,6.1859836E4,6.7621305E4,6.527895E4,3.619756E4,1.12763055E5,5.919773E4,8.5242086E4,1.8024629E4,3.1349486E4,4.8905895E4,4.079888E4,2.053369E4,3.7408438E4,2.2597639E4,1.3248619E5,1.084648E4,1.6731076E4,3.2691818E4,3.4071875E4,6.185401E4,3.2383746E4,7.219552E4,4.385898E4,3.106091E4,8.5528125E4,4.6004027E4,1.5330758E5,4.068675E4,1.05639125E5,6.47079E4,1.6003269E5,6.645288E3,1.8192717E4,1.8040547E4,3.6883645E4,2.1945727E4,1.6545932E4,3.835391E4,5.5570105E4,5.1529793E4,3.7589812E4,3.5596496E4,2.1742073E3,1.0193486E5,1.1021162E5,8.6098734E4,5.1586157E3,4.315355E4,2.5743996E4,2.8854816E4,3.300502E4,2.525695E4,4.236435E4,2.4474047E4,4.0804902E4,1.2469183E4,2.3728377E4,2.6809258E4,8.59538E4,1.4704984E4,4.4492742E4,2.1305557E4,6.3936527E4,5.025403E3,1.2999226E4,1.9546133E4,1.18033545E4,3.29778E4,1.5928097E4,1.9697074E4,2.1101803E4,7.1355625E3,1.3398127E4,2.1189562E4,1.6218874E4,3.115575E3,1.9482062E4,2.4630967E4,1.0785522E5,4.8271683E2,1.0363764E4,5.9035835E3,1.0827492E4,1.2484182E4,2.0207639E4,3.111403E4,2.957847E3,1.7988535E4,4.3865477E4,1.25686045E4,1.981514E4,1.7719191E4,5.447633E4,1.835443E4,2.5504549E4,1.7397607E4,1.3663303E4,5.16794E4,3.3848727E4,1.0799623E4,3.5204406E4,9.612841E4,5.717917E4,7.4956704E3,3.3191082E4,6.3457965E4,4.2181156E4,2.9530998E4,3.51769E4,9.469269E4,6.5340008E4,1.2572948E3,5.387993E3,3.3020046E3,1.4890711E4,1.1024094E4,7.016452E3,1.5105669E4,2.1777977E4,6.046047E3,1.589968E4,1.3712136E4,2.8337961E3,2.7337355E4,1.1016557E4,3.2256814E4,2.3313291E4,2.6099535E4,2.543026E4,2.3436611E4,1.4153199E4,2.7540984E4,8.055512E3,2.1212751E3,5.2932137E1,4.7859312E4,5.407555E4,5.8813945E4,5.1397668E4,4.392581E4,4.2172926E4,4.7480463E2,4.683811E3,9.611707E3,3.3541844E4,6.672905E3,1.9071092E4,1.5983018E4,1.28718E4,2.350436E4,9.50066E3,1.667002E4,8.586931E3,1.7932135E4,2.4432217E4,7.142517E3,1.7331531E4,3.6728574E4,4.0763293E3,1.1360537E4,1.108645E3,8.0674185E3,1.5660958E4,1.4460515E4,1.2348744E4,4.314682E4,4.2806973E4,5.3701836E3,9.334801E3,4.07219E4,3.7708452E3,1.907435E4,2.2312085E3,5.7141395E4,6.795133E3,2.1448213E2,4.8109204E3,1.2373968E4,6.252579E2,1.2222194E4,7.3239385E3,5.566384E3,6.23697E3,3.924212E3,2.9053588E4,1.1030569E3,1.482504E4,2.644218E3,1.7052855E4,3.634665E3,1.7467139E4,6.6917603E3,4.4380228E2,5.2578813E3,8.1402456E3,1.8936908E4,2.2526548E3,3.1477341E3,1.307114E4,2.3638722E2,2.8791877E3,8.308613E3,1.117345E4,4.177044E3,2.0453924E4,1.0119435E5,6.660869E3],"tree_param":{"num_deleted":"0","num_feature":"47","num_nodes":"255","size_leaf_vector":"1"}},{"base_weights":[7.8304455E-4,2.561472E-1,-4.4451457E-1,4.075977E-1,4.48019E-2,-1.9326787E-1,-8.81124E-1,6.1405885E-1,3.2413357E-1,3.1682083E-1,-8.6722106E-2,-2.7812596E-2,-3.4926695E-1,-6.2027705E-1,-1.0835184E0,7.3981667E-1,5.514612E-1,4.3484384E-1,2.5602293E-1,5.207344E-1,2.3733655E-1,3.806116E-2,-1.676953E-1,1.0300218E-1,-1.5943877E-1,-1.7808598E-1,-5.1577884E-1,-4.144782E-1,-7.187345E-1,-8.552014E-1,-1.1578152E0,8.065498E-1,6.796813E-1,6.2503535E-1,4.8736468E-1,5.101921E-1,4.0602347E-1,3.4981993E-1,2.2515371E-1,6.344096E-1,4.6664813E-1,3.4512663E-1,1.842145E-1,-2.9809934E-3,1.4239006E-1,-2.2288288E-1,-3.0082174E-2,1.9716133E-1,4.7349147E-2,-8.112354E-2,-2.4787994E-1,-7.608779E-2,-2.54401E-1,-4.3356383E-1,-6.114518E-1,-2.9165745E-1,-4.8765668E-1,-6.164665E-1,-8.883509E-1,-6.393838E-1,-9.336927E-1,-1.0292568E0,-1.1780404E0,8.7044936E-1,7.684735E-1,7.518221E-1,6.247228E-1,6.9677633E-1,5.981043E-1,5.3478223E-1,4.4101542E-1,5.786703E-1,4.7878528E-1,3.7938777E-1,4.7905532E-1,4.101228E-1,3.149981E-1,1.6196541E-1,3.3868918E-1,7.1122944E-1,5.9186035E-1,5.407406E-1,4.2443854E-1,4.041779E-1,2.727432E-1,2.701739E-1,1.3087384E-1,1.002553E-1,-1.21731296E-1,1.9347997E-1,7.83299E-2,-1.0238092E-1,-3.9111018E-1,-1.6453077E-1,-2.6974043E-2,2.7022102E-1,1.3788164E-1,1.2916668E-1,-1.3937067E-2,-1.3300726E-2,-1.3231191E-1,-1.8847378E-1,-3.2364914E-1,3.0559814E-2,-1.15876414E-1,-1.3451892E-1,-2.9145792E-1,-3.329868E-1,-4.7621295E-1,-4.7342038E-1,-6.5785307E-1,-1.4011647E-1,-3.2091632E-1,-4.1784042E-1,-5.669475E-1,-5.563073E-1,-6.754609E-1,-7.309265E-1,-9.101242E-1,-5.7237273E-1,-7.6573974E-1,-8.722035E-1,-1.004772E0,-8.18474E-1,-1.0664302E0,-1.140582E0,-1.1860551E0,9.516861E-2,8.490403E-2,8.6513005E-2,7.413366E-2,8.465856E-2,7.324926E-2,6.5691605E-2,5.9796065E-2,7.37077E-2,6.499923E-2,6.35904E-2,5.546468E-2,5.8340717E-2,5.092712E-2,4.6472616E-2,4.013389E-2,5.8804877E-2,4.402849E-2,4.1874375E-2,5.727939E-2,4.4381723E-2,2.747411E-2,5.371048E-2,4.6411168E-2,4.583692E-2,3.865474E-2,3.630468E-2,2.9155707E-2,2.2813505E-2,8.511102E-3,3.7194636E-2,2.8316382E-2,7.813763E-2,6.587603E-2,6.678075E-2,5.520165E-2,5.8408577E-2,5.0900042E-2,4.8521455E-2,3.7635755E-2,4.4766072E-2,3.5600524E-2,3.1297226E-2,2.1688936E-2,3.0694488E-2,2.3870803E-2,1.6946904E-2,1.07666E-2,1.932645E-2,6.4861923E-3,-5.9065614E-3,-1.9266782E-2,1.8074805E-2,2.8975546E-2,1.2553095E-2,4.1968194E-3,-1.4526377E-3,-1.6311344E-2,-3.3334162E-2,-4.6150725E-2,-1.7919807E-1,-1.5523802E-2,5.4008896E-3,-3.2499854E-3,3.646422E-2,2.3642857E-2,2.231708E-2,1.0010733E-2,1.6508099E-2,8.400067E-3,3.0658436E-3,-7.0291692E-3,2.0361764E-3,-4.3833586E-3,-8.6794505E-3,-1.668993E-2,-1.0732542E-2,-2.1528052E-2,-2.7860431E-2,-3.7408266E-2,-1.0258688E-2,4.824936E-3,-3.927464E-3,-1.4814898E-2,-8.633507E-3,-1.9326234E-2,-2.5298545E-2,-3.4321737E-2,-2.8201729E-2,-3.7520967E-2,-4.358232E-2,-5.500446E-2,-4.3791007E-2,-6.172312E-2,-6.235054E-2,-7.589444E-2,-2.8575197E-2,-7.7166627E-3,-3.3115994E-2,3.2604297E-3,-3.695375E-2,-5.5322338E-2,-4.312757E-2,-5.8657475E-2,-5.1484276E-2,-6.1392874E-2,-6.412291E-2,-7.224515E-2,-7.52111E-2,-4.49077E-2,-8.5528076E-2,-9.5561035E-2,-3.834648E-2,-5.9483886E-2,-9.869511E-2,-7.299777E-2,-7.911072E-2,-9.0032764E-2,-8.518379E-2,-1.0261983E-1,-8.651707E-2,-5.542017E-2,-1.01214305E-1,-1.1101184E-1,-9.4551645E-2,-1.1725556E-1,-1.0440192E-1,-1.1874153E-1],"categories":[],"categories_nodes":[],"categories_segments":[],"categories_sizes":[],"default_left":[0,0,0,0,0,0,0,0,0,0,0,0,0,0,0,0,0,0,0,0,0,0,0,0,0,0,0,0,0,0,0,0,0,0,0,0,0,0,0,0,0,0,0,0,0,0,0,0,0,0,0,0,0,0,0,0,0,0,0,0,0,0,0,0,0,0,0,0,0,0,0,0,0,0,0,0,0,0,0,0,0,0,0,0,0,0,0,0,0,0,0,0,0,0,0,0,0,0,0,0,0,0,0,0,0,0,0,0,0,0,0,0,0,0,0,0,0,0,0,0,0,0,0,0,0,0,0,0,0,0,0,0,0,0,0,0,0,0,0,0,0,0,0,0,0,0,0,0,0,0,0,0,0,0,0,0,0,0,0,0,0,0,0,0,0,0,0,0,0,0,0,0,0,0,0,0,0,0,0,0,0,0,0,0,0,0,0,0,0,0,0,0,0,0,0,0,0,0,0,0,0,0,0,0,0,0,0,0,0,0,0,0,0,0,0,0,0,0,0,0,0,0,0,0,0,0,0,0,0,0,0,0,0,0,0,0,0,0,0,0,0,0,0,0,0,0,0,0,0,0,0,0,0,0,0],"id":3,"left_children":[1,3,5,7,9,11,13,15,17,19,21,23,25,27,29,31,33,35,37,39,41,43,45,47,49,51,53,55,57,59,61,63,65,67,69,71,73,75,77,79,81,83,85,87,89,91,93,95,97,99,101,103,105,107,109,111,113,115,117,119,121,123,125,127,129,131,133,135,137,139,141,143,145,147,149,151,153,155,157,159,161,163,165,167,169,171,173,175,177,179,181,183,185,187,189,191,193,195,197,199,201,203,205,207,209,211,213,215,217,219,221,223,225,227,229,231,233,235,237,239,241,243,245,247,249,251,253,-1,-1,-1,-1,-1,-1,-1,-1,-1,-1,-1,-1,-1,-1,-1,-1,-1,-1,-1,-1,-1,-1,-1,-1,-1,-1,-1,-1,-1,-1,-1,-1,-1,-1,-1,-1,-1,-1,-1,-1,-1,-1,-1,-1,-1,-1,-1,-1,-1,-1,-1,-1,-1,-1,-1,-1,-1,-1,-1,-1,-1,-1,-1,-1,-1,-1,-1,-1,-1,-1,-1,-1,-1,-1,-1,-1,-1,-1,-1,-1,-1,-1,-1,-1,-1,-1,-1,-1,-1,-1,-1,-1,-1,-1,-1,-1,-1,-1,-1,-1,-1,-1,-1,-1,-1,-1,-1,-1,-1,-1,-1,-1,-1,-1,-1,-1,-1,-1,-1,-1,-1,-1,-1,-1,-1,-1,-1,-1],"loss_changes":[2.882465E5,5.1565453E4,1.01344016E5,1.6171828E4,2.4060771E4,1.5135758E4,1.7814594E4,2.126414E3,5.039328E3,3.5524902E3,4.5805034E3,4.900119E3,8.603184E3,2.9871328E3,3.2222188E3,3.597578E2,8.503711E2,5.525703E2,1.1979473E3,3.7767188E2,9.030215E2,7.639058E2,2.08794E3,7.479364E2,9.824817E2,1.1584727E3,1.2032031E3,4.2869336E2,1.7293125E3,7.8973047E2,3.7154688E2,1.0286328E2,1.8680078E2,1.6183984E2,2.1164062E2,1.5117969E2,3.579961E2,2.1500488E2,2.233332E3,6.435254E1,1.3005566E2,2.2243604E2,4.8438892E2,1.569659E3,1.6483154E2,3.977914E3,3.2881714E1,2.2959961E2,4.498329E2,2.6119046E2,2.9979858E2,2.7029785E2,3.7816064E2,3.5283398E2,4.5257812E2,7.895239E1,1.6526855E2,2.204375E2,1.2789844E2,1.04944824E2,1.4864062E2,1.5188281E2,3.58125E1,2.6811523E1,6.932031E1,3.6780273E1,2.270996E1,4.2725586E1,9.9958984E1,5.8810547E1,4.5683594E1,2.8472656E1,2.723037E2,9.0959375E2,4.2432617E1,4.2476562E1,7.305029E1,1.01708203E3,2.0544043E2,2.5465576E1,3.8240723E1,2.0498535E1,7.7385254E1,5.9898438E1,5.2500122E1,4.673413E1,5.8379517E1,2.2546027E2,2.646822E2,3.4294067E1,3.8352783E1,6.100475E2,3.3290137E2,2.6611088E1,3.4423122E1,7.569214E1,9.428967E1,6.2306824E1,1.2890544E2,3.3261116E1,6.748419E1,8.121118E1,6.6403076E1,4.0771515E1,1.1467853E2,5.6886566E1,1.294082E2,5.2636963E1,1.7207715E2,9.059717E1,1.8326953E2,2.6427265E1,5.408667E1,1.0378711E2,3.7016113E1,7.3296875E1,5.0058594E1,2.6904297E1,8.137305E1,3.4304688E1,3.3376953E1,4.1140625E1,5.109961E1,3.5642456E1,3.817578E1,1.3521484E2,1.8484375E1,0E0,0E0,0E0,0E0,0E0,0E0,0E0,0E0,0E0,0E0,0E0,0E0,0E0,0E0,0E0,0E0,0E0,0E0,0E0,0E0,0E0,0E0,0E0,0E0,0E0,0E0,0E0,0E0,0E0,0E0,0E0,0E0,0E0,0E0,0E0,0E0,0E0,0E0,0E0,0E0,0E0,0E0,0E0,0E0,0E0,0E0,0E0,0E0,0E0,0E0,0E0,0E0,0E0,0E0,0E0,0E0,0E0,0E0,0E0,0E0,0E0,0E0,0E0,0E0,0E0,0E0,0E0,0E0,0E0,0E0,0E0,0E0,0E0,0E0,0E0,0E0,0E0,0E0,0E0,0E0,0E0,0E0,0E0,0E0,0E0,0E0,0E0,0E0,0E0,0E0,0E0,0E0,0E0,0E0,0E0,0E0,0E0,0E0,0E0,0E0,0E0,0E0,0E0,0E0,0E0,0E0,0E0,0E0,0E0,0E0,0E0,0E0,0E0,0E0,0E0,0E0,0E0,0E0,0E0,0E0,0E0,0E0,0E0,0E0,0E0,0E0,0E0,0E0],"parents":[2147483647,0,0,1,1,2,2,3,3,4,4,5,5,6,6,7,7,8,8,9,9,10,10,11,11,12,12,13,13,14,14,15,15,16,16,17,17,18,18,19,19,20,20,21,21,22,22,23,23,24,24,25,25,26,26,27,27,28,28,29,29,30,30,31,31,32,32,33,33,34,34,35,35,36,36,37,37,38,38,39,39,40,40,41,41,42,42,43,43,44,44,45,45,46,46,47,47,48,48,49,49,50,50,51,51,52,52,53,53,54,54,55,55,56,56,57,57,58,58,59,59,60,60,61,61,62,62,63,63,64,64,65,65,66,66,67,67,68,68,69,69,70,70,71,71,72,72,73,73,74,74,75,75,76,76,77,77,78,78,79,79,80,80,81,81,82,82,83,83,84,84,85,85,86,86,87,87,88,88,89,89,90,90,91,91,92,92,93,93,94,94,95,95,96,96,97,97,98,98,99,99,100,100,101,101,102,102,103,103,104,104,105,105,106,106,107,107,108,108,109,109,110,110,111,111,112,112,113,113,114,114,115,115,116,116,117,117,118,118,119,119,120,120,121,121,122,122,123,123,124,124,125,125,126,126],"right_children":[2,4,6,8,10,12,14,16,18,20,22,24,26,28,30,32,34,36,38,40,42,44,46,48,50,52,54,56,58,60,62,64,66,68,70,72,74,76,78,80,82,84,86,88,90,92,94,96,98,100,102,104,106,108,110,112,114,116,118,120,122,124,126,128,130,132,134,136,138,140,142,144,146,148,150,152,154,156,158,160,162,164,166,168,170,172,174,176,178,180,182,184,186,188,190,192,194,196,198,200,202,204,206,208,210,212,214,216,218,220,222,224,226,228,230,232,234,236,238,240,242,244,246,248,250,252,254,-1,-1,-1,-1,-1,-1,-1,-1,-1,-1,-1,-1,-1,-1,-1,-1,-1,-1,-1,-1,-1,-1,-1,-1,-1,-1,-1,-1,-1,-1,-1,-1,-1,-1,-1,-1,-1,-1,-1,-1,-1,-1,-1,-1,-1,-1,-1,-1,-1,-1,-1,-1,-1,-1,-1,-1,-1,-1,-1,-1,-1,-1,-1,-1,-1,-1,-1,-1,-1,-1,-1,-1,-1,-1,-1,-1,-1,-1,-1,-1,-1,-1,-1,-1,-1,-1,-1,-1,-1,-1,-1,-1,-1,-1,-1,-1,-1,-1,-1,-1,-1,-1,-1,-1,-1,-1,-1,-1,-1,-1,-1,-1,-1,-1,-1,-1,-1,-1,-1,-1,-1,-1,-1,-1,-1,-1,-1,-1],"split_conditions":[6.788204E2,4.919029E4,5.216768E4,5.986114E2,6.041915E2,7.249062E2,7.1900653E2,5.461707E2,2.615932E4,5.4259186E2,6.881396E4,3.1531734E4,3.0970662E4,6.712935E4,6.2992508E4,5.1804944E2,2.9569523E4,1.4589854E4,6.2898004E2,5.0168295E2,6.5016957E4,6.783939E2,6.783939E2,1.835386E4,7.014243E2,1.9403809E4,4.3156125E4,6.92638E2,7.023122E2,7.364606E2,7.279595E2,2.615932E4,2.815918E4,1.6069035E4,5.7687494E2,6.3617175E2,6.783939E2,3.49566E4,6.783939E2,4.7006815E2,6.712935E4,5.825633E2,5.7279364E2,6.458364E2,5.878144E4,6.48645E2,4.785386E3,6.9788E2,6.96998E2,4.094073E4,4.41313E4,9.852995E3,3E0,7.4449896E2,7.409863E2,5.469483E4,5.923122E4,6.900226E2,7.237094E4,5.878144E4,5.747045E4,6.939388E4,7.1141586E4,4.7006815E2,4.7006815E2,1.1410854E4,3.849074E4,5.7882074E2,5.7882074E2,5.584535E2,4.3477137E4,-1.5001013E2,6.783939E2,6.504779E2,1.6856117E4,6.094148E2,6.094148E2,6.559383E2,4.188159E4,7.1753875E4,3.099311E3,5.576679E4,5.241547E2,5.660958E4,5.956656E2,5.584535E2,5.860708E2,6.167408E2,6.6304944E2,3.8129246E3,6.362625E4,6.2358356E2,6.6481366E2,1.3169677E4,2.1738923E3,9.727179E3,9.852995E3,2.5871498E4,2.5871498E4,3.582889E4,6.8830676E2,7.068357E2,7.132811E2,1.2679158E-1,7.4449896E2,2.5871498E4,2.615932E4,7.3320685E2,3.849074E4,4.919029E4,4.846762E4,8.900875E-2,5.1826674E-1,7.1143945E2,1.3122777E4,6.3606646E3,6.96998E2,8E0,7.095921E2,2.5518614E1,1.5062084E4,7.5193317E2,7.4330457E2,2.977482E3,7.229157E2,7.364606E2,1E-1,9.516861E-2,8.490403E-2,8.6513005E-2,7.413366E-2,8.465856E-2,7.324926E-2,6.5691605E-2,5.9796065E-2,7.37077E-2,6.499923E-2,6.35904E-2,5.546468E-2,5.8340717E-2,5.092712E-2,4.6472616E-2,4.013389E-2,5.8804877E-2,4.402849E-2,4.1874375E-2,5.727939E-2,4.4381723E-2,2.747411E-2,5.371048E-2,4.6411168E-2,4.583692E-2,3.865474E-2,3.630468E-2,2.9155707E-2,2.2813505E-2,8.511102E-3,3.7194636E-2,2.8316382E-2,7.813763E-2,6.587603E-2,6.678075E-2,5.520165E-2,5.8408577E-2,5.0900042E-2,4.8521455E-2,3.7635755E-2,4.4766072E-2,3.5600524E-2,3.1297226E-2,2.1688936E-2,3.0694488E-2,2.3870803E-2,1.6946904E-2,1.07666E-2,1.932645E-2,6.4861923E-3,-5.9065614E-3,-1.9266782E-2,1.8074805E-2,2.8975546E-2,1.2553095E-2,4.1968194E-3,-1.4526377E-3,-1.6311344E-2,-3.3334162E-2,-4.6150725E-2,-1.7919807E-1,-1.5523802E-2,5.4008896E-3,-3.2499854E-3,3.646422E-2,2.3642857E-2,2.231708E-2,1.0010733E-2,1.6508099E-2,8.400067E-3,3.0658436E-3,-7.0291692E-3,2.0361764E-3,-4.3833586E-3,-8.6794505E-3,-1.668993E-2,-1.0732542E-2,-2.1528052E-2,-2.7860431E-2,-3.7408266E-2,-1.0258688E-2,4.824936E-3,-3.927464E-3,-1.4814898E-2,-8.633507E-3,-1.9326234E-2,-2.5298545E-2,-3.4321737E-2,-2.8201729E-2,-3.7520967E-2,-4.358232E-2,-5.500446E-2,-4.3791007E-2,-6.172312E-2,-6.235054E-2,-7.589444E-2,-2.8575197E-2,-7.7166627E-3,-3.3115994E-2,3.2604297E-3,-3.695375E-2,-5.5322338E-2,-4.312757E-2,-5.8657475E-2,-5.1484276E-2,-6.1392874E-2,-6.412291E-2,-7.224515E-2,-7.52111E-2,-4.49077E-2,-8.5528076E-2,-9.5561035E-2,-3.834648E-2,-5.9483886E-2,-9.869511E-2,-7.299777E-2,-7.911072E-2,-9.0032764E-2,-8.518379E-2,-1.0261983E-1,-8.651707E-2,-5.542017E-2,-1.01214305E-1,-1.1101184E-1,-9.4551645E-2,-1.1725556E-1,-1.0440192E-1,-1.1874153E-1],"split_indices":[5,3,3,5,5,5,5,5,3,5,3,3,3,3,3,5,3,26,5,5,3,5,5,3,5,3,3,5,5,5,5,3,3,26,5,5,5,3,5,5,3,5,5,5,3,5,33,5,5,3,3,3,34,5,5,26,3,5,3,3,3,3,3,5,5,3,3,5,5,5,3,27,5,5,3,5,5,5,3,3,27,3,5,3,5,5,5,5,5,4,26,5,5,29,27,26,3,3,3,3,5,5,5,37,5,3,3,5,3,3,3,31,24,5,33,27,5,42,5,0,33,5,5,4,5,5,2,0,0,0,0,0,0,0,0,0,0,0,0,0,0,0,0,0,0,0,0,0,0,0,0,0,0,0,0,0,0,0,0,0,0,0,0,0,0,0,0,0,0,0,0,0,0,0,0,0,0,0,0,0,0,0,0,0,0,0,0,0,0,0,0,0,0,0,0,0,0,0,0,0,0,0,0,0,0,0,0,0,0,0,0,0,0,0,0,0,0,0,0,0,0,0,0,0,0,0,0,0,0,0,0,0,0,0,0,0,0,0,0,0,0,0,0,0,0,0,0,0,0,0,0,0,0,0,0],"split_type":[0,0,0,0,0,0,0,0,0,0,0,0,0,0,0,0,0,0,0,0,0,0,0,0,0,0,0,0,0,0,0,0,0,0,0,0,0,0,0,0,0,0,0,0,0,0,0,0,0,0,0,0,0,0,0,0,0,0,0,0,0,0,0,0,0,0,0,0,0,0,0,0,0,0,0,0,0,0,0,0,0,0,0,0,0,0,0,0,0,0,0,0,0,0,0,0,0,0,0,0,0,0,0,0,0,0,0,0,0,0,0,0,0,0,0,0,0,0,0,0,0,0,0,0,0,0,0,0,0,0,0,0,0,0,0,0,0,0,0,0,0,0,0,0,0,0,0,0,0,0,0,0,0,0,0,0,0,0,0,0,0,0,0,0,0,0,0,0,0,0,0,0,0,0,0,0,0,0,0,0,0,0,0,0,0,0,0,0,0,0,0,0,0,0,0,0,0,0,0,0,0,0,0,0,0,0,0,0,0,0,0,0,0,0,0,0,0,0,0,0,0,0,0,0,0,0,0,0,0,0,0,0,0,0,0,0,0,0,0,0,0,0,0,0,0,0,0,0,0,0,0,0,0,0,0],"sum_hessian":[2.5348568E6,1.6109996E6,9.238571E5,9.384812E5,6.725185E5,5.864095E5,3.3744762E5,2.7016947E5,6.683117E5,2.1918892E5,4.533296E5,2.8458016E5,3.0182934E5,1.4743573E5,1.9001189E5,8.978395E4,1.803855E5,2.5454948E5,4.1376225E5,6.1474113E4,1.577148E5,1.784031E5,2.749265E5,1.4273011E5,1.4185005E5,1.4882908E5,1.5300027E5,4.7711945E4,9.972379E4,4.6654234E4,1.4335766E5,4.2551477E4,4.7232477E4,8.397961E4,9.640589E4,7.0421664E4,1.8412781E5,1.0245117E5,3.1131106E5,1.9815803E4,4.165831E4,5.2064695E4,1.0565011E5,1.280358E5,5.036729E4,1.9623066E5,7.869585E4,5.3021203E4,8.97089E4,7.523281E4,6.661723E4,6.369716E4,8.5131914E4,8.229068E4,7.070959E4,1.7815643E4,2.9896303E4,6.221606E4,3.750773E4,1.2444977E4,3.4209258E4,1.949458E4,1.2386308E5,1.5879934E4,2.6671543E4,2.0418133E4,2.6814344E4,2.2914162E4,6.1065445E4,4.7648562E4,4.875733E4,2.2137184E4,4.828448E4,1.3492502E5,4.9202805E4,3.7499848E4,6.4951324E4,2.000021E5,1.1130898E5,7.0577656E3,1.2758037E4,1.5114791E4,2.6543518E4,2.8670426E4,2.3394268E4,4.0453895E4,6.5196215E4,6.849201E4,5.954379E4,2.8019152E4,2.2348137E4,1.1433417E5,8.189648E4,1.7769801E3,7.691887E4,2.3748559E4,2.9272645E4,3.841864E4,5.129026E4,3.2359223E4,4.287359E4,3.734259E4,2.9274639E4,1.7307408E4,4.6389754E4,2.0102707E4,6.5029203E4,2.4506707E4,5.778397E4,1.7792582E4,5.2917016E4,2.884045E3,1.4931598E4,1.5901319E4,1.3994983E4,3.0809098E4,3.140696E4,4.561548E3,3.2946184E4,8.1358027E3,4.3091743E3,1.8349098E4,1.5860162E4,2.9260637E3,1.6568516E4,2.1856402E4,1.0200668E5,3.3030583E3,1.2576875E4,5.8399346E3,2.083161E4,3.451972E3,1.6966162E4,1.2161383E4,1.4652961E4,1.2302135E4,1.0612027E4,3.26514E4,2.8414047E4,1.6388871E4,3.1259691E4,3.051239E4,1.8244938E4,2.0729113E4,1.4080704E3,2.9468783E4,1.8815697E4,8.350742E4,5.1417586E4,1.0065966E4,3.913684E4,1.2303233E4,2.5196613E4,2.1292398E4,4.3658926E4,1.0747068E5,9.253141E4,6.961001E4,4.1698973E4,3.0141755E3,4.0435903E3,4.3846377E3,8.373399E3,6.3819873E3,8.732804E3,1.1719972E4,1.4823547E4,1.5064366E4,1.3606061E4,1.3596614E4,9.797653E3,1.8650355E4,2.1803537E4,2.4479648E4,4.071657E4,1.8878174E4,4.9613836E4,3.161594E4,2.792785E4,2.4749094E4,3.2700576E3,9.723557E3,1.2624581E4,4.6732723E4,6.760145E4,4.4986133E4,3.6910348E4,8.999798E0,1.7679803E3,4.9126904E3,7.200618E4,6.2566772E3,1.749188E4,8.983728E3,2.0288918E4,2.139973E4,1.701891E4,2.8632645E4,2.265762E4,1.5390986E4,1.6968236E4,1.8513332E4,2.4360258E4,9.273922E3,2.8068668E4,1.5466874E4,1.3807765E4,2.0291891E3,1.5278219E4,1.3751525E4,3.2638227E4,1.104533E4,9.057377E3,3.730588E4,2.7723328E4,1.110678E4,1.3399927E4,3.7355484E4,2.0428486E4,1.4272427E4,3.5201553E3,3.950249E4,1.3414526E4,8.693199E2,2.0147251E3,1.4511186E4,4.20412E2,1.1722579E4,4.1787397E3,1.7716343E3,1.222335E4,1.792218E4,1.2886918E4,1.817872E4,1.322824E4,4.2411084E3,3.2043945E2,1.4945698E4,1.8000484E4,8.666424E2,7.26916E3,5.959911E2,3.7131833E3,4.7323677E3,1.36167295E4,1.9539891E3,1.3906173E4,2.484738E3,4.4132547E2,7.3988345E3,9.169681E3,3.0823162E3,1.8774086E4,9.748505E2,1.0103183E5],"tree_param":{"num_deleted":"0","num_feature":"47","num_nodes":"255","size_leaf_vector":"1"}},{"base_weights":[5.411929E-4,2.3177795E-1,-4.0485922E-1,3.5071567E-1,9.821213E-3,-1.6614717E-1,-7.9284865E-1,5.61604E-1,2.8033704E-1,2.611911E-1,-1.1191032E-1,-1.8113283E-2,-3.0575436E-1,-5.493555E-1,-9.850678E-1,6.8679404E-1,5.127318E-1,3.6558163E-1,1.8671073E-1,4.082361E-1,1.7017357E-1,-1.5987843E-1,8.136791E-3,8.728537E-2,-1.4111894E-1,-1.62645E-1,-4.6309662E-1,-3.6145082E-1,-6.546494E-1,-7.5472546E-1,-1.068949E0,7.2943264E-1,6.19262E-1,5.8065915E-1,4.450784E-1,4.1870347E-1,3.1326625E-1,2.8633502E-1,1.5206845E-1,5.0057447E-1,3.32036E-1,2.1656883E-1,1.1313825E-1,-2.3008725E-2,-2.6434663E-1,1.2053314E-1,-1.6228678E-2,1.408884E-1,8.552258E-3,-6.986728E-2,-2.2155629E-1,-5.089616E-2,-2.2489156E-1,-3.8220686E-1,-5.29155E-1,-2.7020755E-1,-4.401822E-1,-5.466993E-1,-7.803942E-1,-5.7680225E-1,-8.197582E-1,-9.278772E-1,-1.0859002E0,7.962584E-1,6.8602717E-1,7.098656E-1,5.860739E-1,6.281565E-1,5.423662E-1,4.99656E-1,4.0773878E-1,4.974511E-1,3.9786214E-1,3.994046E-1,2.8047684E-1,3.0872396E-1,2.0143302E-1,9.522453E-2,2.6004362E-1,6.151677E-1,4.7490978E-1,3.9965504E-1,3.067705E-1,2.927018E-1,1.8258354E-1,2.3699263E-1,9.488188E-2,6.1767127E-2,-5.9460744E-2,-1.3713685E-1,-3.2639453E-1,1.2423317E-1,-4.291957E-1,-2.3186088E-2,5.1702943E-2,2.0789044E-1,8.672523E-2,7.730438E-2,-6.33624E-2,2.3480922E-3,-9.894054E-2,-1.6623506E-1,-2.7529296E-1,3.270864E-2,-8.983989E-2,-1.3593249E-1,-2.6256466E-1,-3.0840188E-1,-4.157783E-1,-4.1700026E-1,-5.669068E-1,-2.0447795E-1,-3.2710928E-1,-3.6695215E-1,-5.0386333E-1,-5.018144E-1,-5.982883E-1,-7.1997696E-1,-8.441965E-1,-5.1484543E-1,-6.7716765E-1,-7.6631033E-1,-9.2342836E-1,-7.3498863E-1,-9.714608E-1,-1.0198257E0,-1.0966043E0,8.578068E-2,7.631673E-2,8.7646134E-2,6.7877986E-2,7.400086E-2,6.306981E-2,6.201435E-2,5.4971214E-2,6.903281E-2,6.070016E-2,5.786652E-2,5.0717678E-2,5.1764894E-2,4.4256423E-2,4.4254374E-2,3.860372E-2,5.8461424E-2,4.7196593E-2,3.5956156E-2,4.7897127E-2,4.246334E-2,3.643286E-2,2.3323901E-2,3.679311E-2,3.432406E-2,2.7515033E-2,2.2526942E-2,1.1449578E-2,1.6754527E-2,1.9443032E-3,2.8601933E-2,1.801543E-2,-7.000173E-2,6.178605E-2,5.7491023E-2,4.5787383E-2,2.8957829E-2,4.2065307E-2,3.0523991E-2,8.337908E-2,2.9612247E-2,-7.5168135E-3,2.285323E-2,1.56124085E-2,-1.235307E-1,2.4064235E-2,2.7953894E-3,1.0357765E-2,1.2220575E-2,2.9874055E-3,1.6433724E-3,-9.391727E-3,-8.157862E-3,-2.3734896E-2,-2.8482515E-2,-4.5435462E-2,2.1223271E-2,1.0567117E-2,-1.9168852E-1,-2.4201185E-2,-2.7702486E-3,7.3537165E-3,1.5045175E-2,1.501433E-3,2.5684506E-2,1.5841654E-2,1.624446E-2,4.9485546E-3,7.916923E-3,-4.7925547E-2,-2.9488741E-3,-1.3002604E-2,-3.4543242E-2,7.1536977E-4,-5.4421704E-3,-1.40390415E-2,-8.59225E-3,-1.9306129E-2,-2.3657177E-2,-3.1855024E-2,1.8259118E-3,2.019897E-2,1.0438618E-3,-1.1245378E-2,-8.616831E-3,-1.8553551E-2,-2.1666147E-2,-3.1783342E-2,-2.7709914E-2,-3.7001517E-2,-3.9724406E-2,-4.8215546E-2,-3.7148856E-2,-4.6602335E-2,-5.531469E-2,-6.71573E-2,-1.2921936E-2,-2.5742633E-2,-2.7789364E-2,-3.782616E-2,-3.7134632E-2,5.3237714E-2,-4.4232108E-2,-5.55876E-2,-4.2681E-2,-5.2748542E-2,-4.5871522E-2,-6.1538238E-2,-6.700291E-2,-7.529416E-2,-7.201003E-2,-8.633773E-2,-3.7497398E-2,-5.5047195E-2,-7.413725E-2,-5.8975663E-2,-7.159587E-2,-8.183726E-2,-8.3116904E-2,-9.5544145E-2,-8.294466E-2,-5.5969097E-2,-9.754374E-2,-2.0877983E-2,-8.0079876E-2,-1.06648706E-1,-1.0887374E-1,-1.12417854E-1],"categories":[],"categories_nodes":[],"categories_segments":[],"categories_sizes":[],"default_left":[0,0,0,0,0,0,0,0,0,0,0,0,0,0,0,0,0,0,0,0,0,0,0,0,0,0,0,0,0,0,0,0,0,0,0,0,0,0,0,0,0,0,0,0,0,0,0,0,0,0,0,0,0,0,0,0,0,0,0,0,0,0,0,0,0,0,0,0,0,0,0,0,0,0,0,0,0,0,0,0,0,0,0,0,0,0,0,0,0,0,0,0,0,0,0,0,0,0,0,0,0,0,0,0,0,0,0,0,0,0,0,0,0,0,0,0,0,0,0,0,0,0,0,0,0,0,0,0,0,0,0,0,0,0,0,0,0,0,0,0,0,0,0,0,0,0,0,0,0,0,0,0,0,0,0,0,0,0,0,0,0,0,0,0,0,0,0,0,0,0,0,0,0,0,0,0,0,0,0,0,0,0,0,0,0,0,0,0,0,0,0,0,0,0,0,0,0,0,0,0,0,0,0,0,0,0,0,0,0,0,0,0,0,0,0,0,0,0,0,0,0,0,0,0,0,0,0,0,0,0,0,0,0,0,0,0,0,0,0,0,0,0,0,0,0,0,0,0,0,0,0,0,0,0,0],"id":4,"left_children":[1,3,5,7,9,11,13,15,17,19,21,23,25,27,29,31,33,35,37,39,41,43,45,47,49,51,53,55,57,59,61,63,65,67,69,71,73,75,77,79,81,83,85,87,89,91,93,95,97,99,101,103,105,107,109,111,113,115,117,119,121,123,125,127,129,131,133,135,137,139,141,143,145,147,149,151,153,155,157,159,161,163,165,167,169,171,173,175,177,179,181,183,185,187,189,191,193,195,197,199,201,203,205,207,209,211,213,215,217,219,221,223,225,227,229,231,233,235,237,239,241,243,245,247,249,251,253,-1,-1,-1,-1,-1,-1,-1,-1,-1,-1,-1,-1,-1,-1,-1,-1,-1,-1,-1,-1,-1,-1,-1,-1,-1,-1,-1,-1,-1,-1,-1,-1,-1,-1,-1,-1,-1,-1,-1,-1,-1,-1,-1,-1,-1,-1,-1,-1,-1,-1,-1,-1,-1,-1,-1,-1,-1,-1,-1,-1,-1,-1,-1,-1,-1,-1,-1,-1,-1,-1,-1,-1,-1,-1,-1,-1,-1,-1,-1,-1,-1,-1,-1,-1,-1,-1,-1,-1,-1,-1,-1,-1,-1,-1,-1,-1,-1,-1,-1,-1,-1,-1,-1,-1,-1,-1,-1,-1,-1,-1,-1,-1,-1,-1,-1,-1,-1,-1,-1,-1,-1,-1,-1,-1,-1,-1,-1,-1],"loss_changes":[2.3657661E5,4.242393E4,8.4896375E4,1.5529602E4,1.7156965E4,1.1728014E4,1.6340984E4,1.6015078E3,6.2613203E3,2.44829E3,2.1752793E3,3.5708857E3,6.5761875E3,3.0473281E3,3.7690781E3,2.1120703E2,8.6510547E2,1.1410859E3,1.2903057E3,4.919502E2,2.989839E2,3.8592632E3,2.953576E2,6.260121E2,7.2843335E2,1.063885E3,7.4312695E2,3.9727393E2,1.3395469E3,6.0224414E2,3.4103125E2,1.3013086E2,8.5149414E1,1.7055469E2,1.9207031E2,3.341914E2,5.8424805E2,1.8330518E2,1.7026997E3,9.270117E1,6.534766E1,1.6116602E2,1.145907E2,3.610559E2,1.208167E3,3.9136017E1,4.1893047E1,3.2024573E2,2.9707498E2,1.4150876E2,1.7743286E2,1.7815778E2,3.2916943E2,1.548252E2,3.239746E2,9.577698E1,1.382876E2,1.2270117E2,1.751543E2,8.6373535E1,2.1064453E2,1.2832617E2,8.91875E1,3.5464844E1,3.711133E1,1.772705E1,2.5466797E1,5.4734375E1,6.6163086E1,3.9137695E1,4.2146484E1,9.443164E1,5.0033203E2,5.032129E1,6.189912E2,8.836377E1,4.169464E1,9.960502E2,1.9849658E2,2.0911621E1,4.375537E1,2.3964478E1,2.2253174E1,2.4218506E1,5.2342285E1,3.5284393E1,2.5708466E1,6.771562E1,2.1366501E2,2.7939734E2,5.4714746E2,3.115503E1,3.5371567E1,3.5124947E1,2.9832245E1,9.5503174E1,1.3760321E2,3.191986E1,6.631078E1,3.2337082E1,8.866623E1,6.3367126E1,5.0647705E1,4.253053E1,8.465335E1,7.212598E1,1.7499902E2,3.76156E1,5.2688965E1,4.285962E1,8.213281E1,4.735916E1,3.446924E1,5.4792236E1,5.0584717E1,5.4479004E1,5.866797E1,3.8067383E1,5.215332E1,4.278418E1,2.9419434E1,6.540723E1,3.751465E1,4.6447754E1,3.775879E1,1.812168E2,2.259375E1,0E0,0E0,0E0,0E0,0E0,0E0,0E0,0E0,0E0,0E0,0E0,0E0,0E0,0E0,0E0,0E0,0E0,0E0,0E0,0E0,0E0,0E0,0E0,0E0,0E0,0E0,0E0,0E0,0E0,0E0,0E0,0E0,0E0,0E0,0E0,0E0,0E0,0E0,0E0,0E0,0E0,0E0,0E0,0E0,0E0,0E0,0E0,0E0,0E0,0E0,0E0,0E0,0E0,0E0,0E0,0E0,0E0,0E0,0E0,0E0,0E0,0E0,0E0,0E0,0E0,0E0,0E0,0E0,0E0,0E0,0E0,0E0,0E0,0E0,0E0,0E0,0E0,0E0,0E0,0E0,0E0,0E0,0E0,0E0,0E0,0E0,0E0,0E0,0E0,0E0,0E0,0E0,0E0,0E0,0E0,0E0,0E0,0E0,0E0,0E0,0E0,0E0,0E0,0E0,0E0,0E0,0E0,0E0,0E0,0E0,0E0,0E0,0E0,0E0,0E0,0E0,0E0,0E0,0E0,0E0,0E0,0E0,0E0,0E0,0E0,0E0,0E0,0E0],"parents":[2147483647,0,0,1,1,2,2,3,3,4,4,5,5,6,6,7,7,8,8,9,9,10,10,11,11,12,12,13,13,14,14,15,15,16,16,17,17,18,18,19,19,20,20,21,21,22,22,23,23,24,24,25,25,26,26,27,27,28,28,29,29,30,30,31,31,32,32,33,33,34,34,35,35,36,36,37,37,38,38,39,39,40,40,41,41,42,42,43,43,44,44,45,45,46,46,47,47,48,48,49,49,50,50,51,51,52,52,53,53,54,54,55,55,56,56,57,57,58,58,59,59,60,60,61,61,62,62,63,63,64,64,65,65,66,66,67,67,68,68,69,69,70,70,71,71,72,72,73,73,74,74,75,75,76,76,77,77,78,78,79,79,80,80,81,81,82,82,83,83,84,84,85,85,86,86,87,87,88,88,89,89,90,90,91,91,92,92,93,93,94,94,95,95,96,96,97,97,98,98,99,99,100,100,101,101,102,102,103,103,104,104,105,105,106,106,107,107,108,108,109,109,110,110,111,111,112,112,113,113,114,114,115,115,116,116,117,117,118,118,119,119,120,120,121,121,122,122,123,123,124,124,125,125,126,126],"right_children":[2,4,6,8,10,12,14,16,18,20,22,24,26,28,30,32,34,36,38,40,42,44,46,48,50,52,54,56,58,60,62,64,66,68,70,72,74,76,78,80,82,84,86,88,90,92,94,96,98,100,102,104,106,108,110,112,114,116,118,120,122,124,126,128,130,132,134,136,138,140,142,144,146,148,150,152,154,156,158,160,162,164,166,168,170,172,174,176,178,180,182,184,186,188,190,192,194,196,198,200,202,204,206,208,210,212,214,216,218,220,222,224,226,228,230,232,234,236,238,240,242,244,246,248,250,252,254,-1,-1,-1,-1,-1,-1,-1,-1,-1,-1,-1,-1,-1,-1,-1,-1,-1,-1,-1,-1,-1,-1,-1,-1,-1,-1,-1,-1,-1,-1,-1,-1,-1,-1,-1,-1,-1,-1,-1,-1,-1,-1,-1,-1,-1,-1,-1,-1,-1,-1,-1,-1,-1,-1,-1,-1,-1,-1,-1,-1,-1,-1,-1,-1,-1,-1,-1,-1,-1,-1,-1,-1,-1,-1,-1,-1,-1,-1,-1,-1,-1,-1,-1,-1,-1,-1,-1,-1,-1,-1,-1,-1,-1,-1,-1,-1,-1,-1,-1,-1,-1,-1,-1,-1,-1,-1,-1,-1,-1,-1,-1,-1,-1,-1,-1,-1,-1,-1,-1,-1,-1,-1,-1,-1,-1,-1,-1,-1],"split_conditions":[6.788204E2,5.618038E4,5.0288895E4,5.9102124E2,6.041915E2,7.249062E2,7.1900653E2,5.343433E2,3.409386E4,5.556682E2,6.783939E2,3.2382447E4,3.1531734E4,6.712935E4,6.2022473E4,3.849074E4,3.3237965E4,2.26078E4,6.2577606E2,5.241547E2,5.860708E2,6.381445E2,6.5086402E4,2.3816611E4,7.014243E2,1.7999662E4,4.0632848E4,6.961267E2,6.987744E2,7.364606E2,7.259112E2,5.0168295E2,4.8943213E2,2.2079574E4,5.6366376E2,6.2019464E2,6.2790186E2,4.9551938E4,6.783939E2,4.7006815E2,6.881396E4,7.1141586E4,6.1540793E4,7.055315E4,7.1753875E4,2.9568884E5,1.4732153E3,6.9788E2,7.0054755E2,3.788802E4,4.2196605E4,9.852995E3,7.4449896E2,7.456933E2,7.409863E2,5.7037477E4,5.7037477E4,6.89168E2,7.08667E2,5.7037477E4,5.747045E4,6.996433E4,6.823965E4,4.7006815E2,5.72445E3,5.9E0,5.1804944E2,1.06736045E4,5.6836383E2,4.846762E4,4.357767E4,3.5111887E3,6.783939E2,2.9285965E4,6.783939E2,6.094148E2,6.190791E2,6.532158E2,4.846762E4,2.1369123E4,6.250784E4,2E0,6.942093E-1,2.3456108E5,5.6836383E2,9.903661E-4,7.532477E4,6.167408E2,6.1555206E2,6.6393317E2,6.6833777E2,9.53017E-1,4.6921242E-2,2.402E1,1.7360543E3,1.6856117E4,1.3756389E4,9.568123E5,7.1611694E2,3.2495637E4,1.79942E3,7.068357E2,7.132811E2,7.554281E-1,7.364606E2,2.49935E4,2.5579596E4,1.716E1,3.849074E4,9.03E2,4.846762E4,6.857058E2,6.874285E2,5.6109375E5,2.1238363E4,6.813938E2,7.1753875E4,6E1,7.2999805E4,1.0904093E3,7.917016E-2,7.7065295E2,7.5193317E2,5E0,6.0754496E-1,7.364606E2,1.39E3,8.578068E-2,7.631673E-2,8.7646134E-2,6.7877986E-2,7.400086E-2,6.306981E-2,6.201435E-2,5.4971214E-2,6.903281E-2,6.070016E-2,5.786652E-2,5.0717678E-2,5.1764894E-2,4.4256423E-2,4.4254374E-2,3.860372E-2,5.8461424E-2,4.7196593E-2,3.5956156E-2,4.7897127E-2,4.246334E-2,3.643286E-2,2.3323901E-2,3.679311E-2,3.432406E-2,2.7515033E-2,2.2526942E-2,1.1449578E-2,1.6754527E-2,1.9443032E-3,2.8601933E-2,1.801543E-2,-7.000173E-2,6.178605E-2,5.7491023E-2,4.5787383E-2,2.8957829E-2,4.2065307E-2,3.0523991E-2,8.337908E-2,2.9612247E-2,-7.5168135E-3,2.285323E-2,1.56124085E-2,-1.235307E-1,2.4064235E-2,2.7953894E-3,1.0357765E-2,1.2220575E-2,2.9874055E-3,1.6433724E-3,-9.391727E-3,-8.157862E-3,-2.3734896E-2,-2.8482515E-2,-4.5435462E-2,2.1223271E-2,1.0567117E-2,-1.9168852E-1,-2.4201185E-2,-2.7702486E-3,7.3537165E-3,1.5045175E-2,1.501433E-3,2.5684506E-2,1.5841654E-2,1.624446E-2,4.9485546E-3,7.916923E-3,-4.7925547E-2,-2.9488741E-3,-1.3002604E-2,-3.4543242E-2,7.1536977E-4,-5.4421704E-3,-1.40390415E-2,-8.59225E-3,-1.9306129E-2,-2.3657177E-2,-3.1855024E-2,1.8259118E-3,2.019897E-2,1.0438618E-3,-1.1245378E-2,-8.616831E-3,-1.8553551E-2,-2.1666147E-2,-3.1783342E-2,-2.7709914E-2,-3.7001517E-2,-3.9724406E-2,-4.8215546E-2,-3.7148856E-2,-4.6602335E-2,-5.531469E-2,-6.71573E-2,-1.2921936E-2,-2.5742633E-2,-2.7789364E-2,-3.782616E-2,-3.7134632E-2,5.3237714E-2,-4.4232108E-2,-5.55876E-2,-4.2681E-2,-5.2748542E-2,-4.5871522E-2,-6.1538238E-2,-6.700291E-2,-7.529416E-2,-7.201003E-2,-8.633773E-2,-3.7497398E-2,-5.5047195E-2,-7.413725E-2,-5.8975663E-2,-7.159587E-2,-8.183726E-2,-8.3116904E-2,-9.5544145E-2,-8.294466E-2,-5.5969097E-2,-9.754374E-2,-2.0877983E-2,-8.0079876E-2,-1.06648706E-1,-1.0887374E-1,-1.12417854E-1],"split_indices":[5,3,3,5,5,5,5,5,3,5,5,3,3,3,3,3,3,3,5,5,5,5,26,3,5,3,3,5,5,5,5,5,5,26,5,5,5,3,5,5,3,3,3,3,3,12,14,5,5,3,3,3,5,5,5,3,3,5,5,3,3,3,3,5,26,2,5,3,5,3,26,29,5,3,5,5,5,5,3,16,3,46,24,12,5,31,16,5,5,5,5,32,28,11,15,3,3,33,5,26,13,5,5,28,5,3,3,11,3,22,3,5,5,15,29,5,3,23,3,13,24,5,5,42,24,5,22,0,0,0,0,0,0,0,0,0,0,0,0,0,0,0,0,0,0,0,0,0,0,0,0,0,0,0,0,0,0,0,0,0,0,0,0,0,0,0,0,0,0,0,0,0,0,0,0,0,0,0,0,0,0,0,0,0,0,0,0,0,0,0,0,0,0,0,0,0,0,0,0,0,0,0,0,0,0,0,0,0,0,0,0,0,0,0,0,0,0,0,0,0,0,0,0,0,0,0,0,0,0,0,0,0,0,0,0,0,0,0,0,0,0,0,0,0,0,0,0,0,0,0,0,0,0,0,0],"split_type":[0,0,0,0,0,0,0,0,0,0,0,0,0,0,0,0,0,0,0,0,0,0,0,0,0,0,0,0,0,0,0,0,0,0,0,0,0,0,0,0,0,0,0,0,0,0,0,0,0,0,0,0,0,0,0,0,0,0,0,0,0,0,0,0,0,0,0,0,0,0,0,0,0,0,0,0,0,0,0,0,0,0,0,0,0,0,0,0,0,0,0,0,0,0,0,0,0,0,0,0,0,0,0,0,0,0,0,0,0,0,0,0,0,0,0,0,0,0,0,0,0,0,0,0,0,0,0,0,0,0,0,0,0,0,0,0,0,0,0,0,0,0,0,0,0,0,0,0,0,0,0,0,0,0,0,0,0,0,0,0,0,0,0,0,0,0,0,0,0,0,0,0,0,0,0,0,0,0,0,0,0,0,0,0,0,0,0,0,0,0,0,0,0,0,0,0,0,0,0,0,0,0,0,0,0,0,0,0,0,0,0,0,0,0,0,0,0,0,0,0,0,0,0,0,0,0,0,0,0,0,0,0,0,0,0,0,0,0,0,0,0,0,0,0,0,0,0,0,0,0,0,0,0,0,0],"sum_hessian":[2.5236572E6,1.6070251E6,9.1663225E5,1.0463354E6,5.6068975E5,5.6748575E5,3.491465E5,2.6181227E5,7.845231E5,1.8293547E5,3.7775425E5,2.7543094E5,2.920548E5,1.5403144E5,1.9511506E5,7.350649E4,1.8830577E5,4.1064106E5,3.7388206E5,6.993968E4,1.1299579E5,2.6990572E5,1.0784855E5,1.483317E5,1.2709924E5,1.5294602E5,1.3910878E5,5.5317574E4,9.871386E4,5.2088145E4,1.4302692E5,4.505176E4,2.8454734E4,9.395888E4,9.434689E4,2.037466E5,2.0689445E5,9.64639E4,2.7741816E5,3.1618799E4,3.832088E4,6.2308383E4,5.068741E4,1.168349E5,1.5307081E5,1.9213582E4,8.863497E4,8.824917E4,6.008253E4,6.739893E4,5.9700312E4,5.4716824E4,9.8229195E4,6.253735E4,7.657142E4,2.5624861E4,2.969271E4,5.3118117E4,4.5595746E4,1.394522E4,3.814292E4,1.5348573E4,1.2767834E5,1.773309E4,2.7318672E4,7.623146E3,2.0831588E4,4.1932152E4,5.202673E4,3.8321613E4,5.6025273E4,4.263399E4,1.6111261E5,5.703948E4,1.4985497E5,7.63322E4,2.0131697E4,1.8174156E5,9.567661E4,5.781472E3,2.5837326E4,1.0419616E4,2.7901262E4,1.9227602E4,4.308078E4,6.510062E3,4.4177348E4,3.5130887E4,8.1704016E4,5.0185137E4,1.0288568E5,1.9085895E4,1.2768633E2,8.040112E4,8.23385E3,3.9447797E4,4.8801375E4,3.0716629E4,2.9365902E4,1.9346027E4,4.8052902E4,2.9418473E4,3.028184E4,1.7388078E4,3.7328746E4,2.9224588E4,6.900461E4,1.955562E4,4.2981734E4,1.9286432E4,5.7284992E4,1.1892237E4,1.3732625E4,1.3814038E4,1.5878674E4,2.8410428E4,2.4707688E4,2.342544E4,2.2170309E4,8.626251E3,5.3189688E3,2.5173146E4,1.2969777E4,2.8321526E3,1.2516421E4,1.7813791E4,1.09864555E5,6.191733E3,1.1541356E4,9.9715155E2,2.632152E4,5.5149736E3,2.1081724E3,1.0746483E4,1.00851045E4,1.0637681E4,3.1294473E4,2.5602008E4,2.6424723E4,2.9132268E4,9.189345E3,2.150933E4,3.4515945E4,9.640411E3,3.299358E4,1.0943954E5,5.167307E4,3.317026E4,2.3869219E4,9.730173E4,5.2553242E4,3.7632973E4,3.869923E4,1.5798485E4,4.3332114E3,9.299358E4,8.874798E4,7.219885E4,2.3477756E4,1.1284208E1,5.770188E3,3.7561516E3,2.2081176E4,1.6715796E3,8.748036E3,2.782204E4,7.922274E1,1.9050654E4,1.7694756E2,1.5739814E4,2.7340965E4,1.5263571E1,6.4947983E3,5.080316E3,3.909703E4,1.213388E4,2.2997006E4,2.5511816E4,5.6192195E4,3.2286896E4,1.7898242E4,7.7660086E4,2.5225592E4,3.322764E3,1.5763131E4,1.3237491E1,1.14448845E2,7.681502E4,3.5860886E3,2.2296257E3,6.0042236E3,1.9825848E4,1.962195E4,1.6087446E4,3.2713928E4,3.0614906E4,1.0172302E2,1.9472717E4,9.893187E3,2.6271243E2,1.9083316E4,2.3169861E4,2.4883043E4,7.367072E3,2.20514E4,1.5982111E4,1.4299729E4,1.6021611E4,1.3664675E3,6.8691025E3,3.0459645E4,1.4589959E4,1.463463E4,3.7698895E4,3.1305713E4,1.2971118E4,6.584502E3,3.3605242E4,9.376491E3,1.0005846E4,9.280585E3,5.063461E4,6.650383E3,4.9128115E3,6.9794253E3,7.0020815E3,6.7305435E3,1.3747454E4,6.658384E1,7.2774116E3,8.601263E3,7.248799E3,2.1161629E4,2.6989165E3,2.2008771E4,9.322019E3,1.4103421E4,2.973145E3,1.9197164E4,1.7534908E3,6.8727603E3,3.06223E3,2.2567388E3,1.2804297E4,1.2368849E4,3.3480093E3,9.621769E3,1.8380177E3,9.94135E2,1.2451224E4,6.519736E1,3.1317249E3,1.4682065E4,8.550906E4,2.4355496E4],"tree_param":{"num_deleted":"0","num_feature":"47","num_nodes":"255","size_leaf_vector":"1"}},{"base_weights":[8.1695593E-4,2.3388048E-1,-2.1312511E-1,3.4853035E-1,5.0321393E-2,-4.2065643E-2,-5.3427476E-1,5.39856E-1,2.7842897E-1,3.144523E-1,-5.1368687E-2,6.6174634E-2,-3.2704413E-1,-3.7595913E-1,-9.810812E-1,5.994995E-1,4.8679432E-1,3.4669647E-1,1.9216599E-1,3.9119083E-1,2.8069574E-1,3.8300034E-2,-1.028617E-1,1.5550573E-1,-4.026167E-2,-1.7000145E-1,-4.7389537E-1,-2.3509833E-1,-4.3277425E-1,-7.992235E-1,-1.0170367E0,6.5942985E-1,5.794628E-1,5.1403433E-1,4.6364257E-1,3.921444E-1,2.9580596E-1,2.3773289E-1,1.6641426E-1,4.317266E-1,3.6919802E-1,2.8201225E-1,9.49444E-2,8.034962E-2,-1.6398653E-2,-4.4583045E-2,-1.0730952E-1,2.1333863E-1,9.1580555E-2,-1.7358426E-2,-1.3472563E-1,-4.445633E-2,-2.1785052E-1,-3.8095012E-1,-5.5070597E-1,-2.1013746E-1,-3.0093417E-1,-3.505769E-1,-4.4255897E-1,-8.000691E-1,7.9347156E-2,-9.462711E-1,-1.0222235E0,7.1789664E-1,6.454627E-1,6.012363E-1,5.5864406E-1,4.094466E-1,5.18232E-1,4.763607E-1,4.2448357E-1,4.7033972E-1,3.715195E-1,2.894797E-1,3.3573925E-1,2.1913825E-1,2.585635E-1,1.7925078E-1,1.266911E-1,3.8826278E-1,4.7865373E-1,3.7063062E-1,-1.3590173E-1,5.292205E-1,2.8104824E-1,9.484926E-1,1.6835887E-2,8.1225194E-2,-5.322992E-1,1.1361559E-2,-3.7343368E-2,-7.613576E-2,1.3760588E-2,-1.1396063E-1,-7.896449E-2,2.978374E-1,1.9348136E-1,1.3197775E-1,7.857055E-2,2.0328786E-2,-4.5125037E-2,-2.2754051E-1,-1.2665595E-1,4.8454557E-2,-6.564803E-2,-1.7056203E-1,-2.6186937E-1,-3.5473648E-1,-4.2384052E-1,-5.152429E-1,-6.659799E-1,-1.7164102E-1,-2.3154496E-1,-7.812673E-1,-2.9778442E-1,-1.3445649E-2,-3.5388288E-1,-3.9544877E-1,-4.4526228E-1,-7.956005E-1,-1.1063848E0,-9.873624E-1,-8.457876E-1,-8.470495E-1,-1.0239006E0,7.603007E-2,6.285871E-2,6.3986614E-2,8.160185E-2,6.0435124E-2,3.4598656E-2,5.7777323E-2,5.3111263E-2,5.5848803E-2,3.2394033E-2,4.9102698E-2,5.3427394E-2,4.5911696E-2,5.015076E-2,4.2556047E-2,-9.957655E-2,4.788808E-2,4.0635042E-2,3.630973E-2,4.081052E-2,2.8386742E-2,3.483666E-2,3.9577127E-2,3.165728E-2,2.5428975E-2,2.0160548E-2,-1.3897727E-3,2.6134659E-2,1.6409678E-2,2.0141378E-2,1.0567111E-2,1.7623149E-2,5.800699E-2,3.7348468E-2,4.521219E-2,5.891027E-2,3.6988456E-2,1.3309526E-1,-7.371631E-2,6.299151E-2,8.626432E-2,3.4938022E-2,2.978921E-2,2.6760114E-2,3.8714316E-3,1.1800232E-1,-8.409299E-2,9.8486645E-3,7.957255E-3,5.0165553E-2,-8.996497E-2,4.327711E-2,7.826538E-3,-1.8134523E-3,-3.168991E-2,-3.2299221E-3,-2.888899E-2,-6.5060765E-3,-1.1263976E-1,2.09892E-3,-1.1293245E-2,-3.4149453E-2,-8.0803055E-3,4.0360525E-2,3.457048E-2,2.606686E-2,2.191161E-2,1.753486E-2,1.9518368E-2,1.1236749E-2,7.1697235E-3,1.0433126E-2,2.0723399E-3,-6.520567E-2,-6.9175074E-3,-8.046433E-4,2.1073064E-2,-2.4415782E-2,-8.175389E-3,-1.4312181E-2,-2.0804271E-4,1.725698E-2,3.0627728E-3,-7.919973E-3,-2.0031901E-2,-1.3268108E-2,-2.535795E-2,-3.667708E-2,-3.849908E-2,-3.137874E-2,-4.8360918E-2,-3.888422E-2,-4.6548754E-2,-5.3689487E-2,-6.721702E-2,-3.0184984E-2,-1.6668875E-2,-4.4594504E-2,-1.5678378E-2,-2.4836749E-2,-1.774464E-1,-5.826908E-2,-3.0113567E-2,7.0682997E-3,1.2244239E-2,-9.584819E-2,-4.847274E-2,-3.4534734E-2,-1.05586015E-1,-3.9114457E-2,-4.5363896E-2,-4.300494E-2,-8.169564E-2,-7.3602095E-2,-1.1965223E-1,-3.194773E-2,-1.0722146E-1,-9.2293024E-2,-9.339419E-2,-6.5832555E-2,-9.656587E-2,-5.237922E-2,-9.970819E-2,-1.0323645E-1],"categories":[],"categories_nodes":[],"categories_segments":[],"categories_sizes":[],"default_left":[0,0,0,0,0,0,0,0,0,0,0,0,0,0,0,0,0,0,0,0,0,0,0,0,0,0,0,0,0,0,0,0,0,0,0,0,0,0,0,0,0,0,0,0,0,0,0,0,0,0,0,0,0,0,0,0,0,0,0,0,0,0,0,0,0,0,0,0,0,0,0,0,0,0,0,0,0,0,0,0,0,0,0,0,0,0,0,0,0,0,0,0,0,0,0,0,0,0,0,0,0,0,0,0,0,0,0,0,0,0,0,0,0,0,0,0,0,0,0,0,0,0,0,0,0,0,0,0,0,0,0,0,0,0,0,0,0,0,0,0,0,0,0,0,0,0,0,0,0,0,0,0,0,0,0,0,0,0,0,0,0,0,0,0,0,0,0,0,0,0,0,0,0,0,0,0,0,0,0,0,0,0,0,0,0,0,0,0,0,0,0,0,0,0,0,0,0,0,0,0,0,0,0,0,0,0,0,0,0,0,0,0,0,0,0,0,0,0,0,0,0,0,0,0,0,0,0,0,0,0,0,0,0,0,0,0,0,0,0,0,0,0,0,0,0,0,0,0,0],"id":5,"left_children":[1,3,5,7,9,11,13,15,17,19,21,23,25,27,29,31,33,35,37,39,41,43,45,47,49,51,53,55,57,59,61,63,65,67,69,71,73,75,77,79,81,83,85,87,89,91,93,95,97,99,101,103,105,107,109,111,113,115,117,119,-1,121,123,125,127,129,131,133,135,137,139,141,143,145,147,149,151,153,155,157,159,161,163,165,167,169,171,173,175,177,179,181,183,185,187,189,191,193,195,197,199,201,203,205,207,209,211,213,215,217,219,221,223,225,227,229,231,233,235,237,239,241,243,245,247,-1,-1,-1,-1,-1,-1,-1,-1,-1,-1,-1,-1,-1,-1,-1,-1,-1,-1,-1,-1,-1,-1,-1,-1,-1,-1,-1,-1,-1,-1,-1,-1,-1,-1,-1,-1,-1,-1,-1,-1,-1,-1,-1,-1,-1,-1,-1,-1,-1,-1,-1,-1,-1,-1,-1,-1,-1,-1,-1,-1,-1,-1,-1,-1,-1,-1,-1,-1,-1,-1,-1,-1,-1,-1,-1,-1,-1,-1,-1,-1,-1,-1,-1,-1,-1,-1,-1,-1,-1,-1,-1,-1,-1,-1,-1,-1,-1,-1,-1,-1,-1,-1,-1,-1,-1,-1,-1,-1,-1,-1,-1,-1,-1,-1,-1,-1,-1,-1,-1,-1,-1,-1,-1,-1],"loss_changes":[1.2517074E5,2.528511E4,7.190317E4,9.918914E3,1.2407034E4,2.6342281E4,3.2175797E4,6.273125E2,3.1873125E3,3.3251074E2,1.5399678E3,5.8846875E3,5.421205E3,2.6878672E3,7.7733594E2,1.1172656E2,6.594922E1,6.986836E2,2.805381E2,3.481006E1,2.178125E1,2.79831E2,5.4911865E1,1.243999E3,6.1102E2,6.8239453E2,8.670508E2,1.5857617E2,1.9233203E2,2.7100586E1,3.5492188E1,1.8631836E1,3.1384766E1,2.0953125E1,2.8057617E1,2.572246E2,3.5913086E1,3.3384766E1,7.7879395E1,2.7941895E1,1.845581E1,2.0953613E1,4.192659E1,3.6940582E1,3.0745659E1,2.765909E1,3.7099365E1,2.9637305E2,8.399182E1,2.3786694E2,4.1248962E1,6.172762E1,1.7116455E2,6.1652832E1,2.7154883E2,5.764868E1,3.9914795E1,2.837622E1,2.70625E1,2.6001953E1,0E0,2.7236328E1,2.6335938E1,1.656543E1,1.7504883E1,2.6976562E1,1.8539062E1,2.3586212E1,1.996289E1,1.8338867E1,2.1714355E1,1.800879E1,3.8765625E1,4.0569336E1,2.2295898E1,2.8065918E1,3.087622E1,3.874536E1,3.8839478E1,2.0092285E1,1.9152832E1,1.768042E1,3.3925785E1,2.0256058E1,1.9899902E1,1.1060535E1,4.0521416E1,4.7685455E1,3.523725E1,4.4877197E1,4.248988E1,2.2957035E1,4.3492237E1,3.7258057E1,3.3226196E1,5.9716553E1,6.6456055E1,4.8235535E1,2.1399048E1,2.5599098E1,1.1671121E2,3.214778E1,3.74776E1,3.652242E1,3.3307785E1,4.467334E1,3.6948975E1,4.2154785E1,4.3419434E1,5.454785E1,3.506006E1,3.3913086E1,5.6533936E1,3.2940147E1,3.2577637E1,3.2006523E1,2.7995605E1,3.2604736E1,2.5578125E1,2.4033203E1,1.9465973E1,2.5359375E1,3.2109497E1,3.3370667E1,1.9773438E1,0E0,0E0,0E0,0E0,0E0,0E0,0E0,0E0,0E0,0E0,0E0,0E0,0E0,0E0,0E0,0E0,0E0,0E0,0E0,0E0,0E0,0E0,0E0,0E0,0E0,0E0,0E0,0E0,0E0,0E0,0E0,0E0,0E0,0E0,0E0,0E0,0E0,0E0,0E0,0E0,0E0,0E0,0E0,0E0,0E0,0E0,0E0,0E0,0E0,0E0,0E0,0E0,0E0,0E0,0E0,0E0,0E0,0E0,0E0,0E0,0E0,0E0,0E0,0E0,0E0,0E0,0E0,0E0,0E0,0E0,0E0,0E0,0E0,0E0,0E0,0E0,0E0,0E0,0E0,0E0,0E0,0E0,0E0,0E0,0E0,0E0,0E0,0E0,0E0,0E0,0E0,0E0,0E0,0E0,0E0,0E0,0E0,0E0,0E0,0E0,0E0,0E0,0E0,0E0,0E0,0E0,0E0,0E0,0E0,0E0,0E0,0E0,0E0,0E0,0E0,0E0,0E0,0E0,0E0,0E0,0E0,0E0,0E0,0E0],"parents":[2147483647,0,0,1,1,2,2,3,3,4,4,5,5,6,6,7,7,8,8,9,9,10,10,11,11,12,12,13,13,14,14,15,15,16,16,17,17,18,18,19,19,20,20,21,21,22,22,23,23,24,24,25,25,26,26,27,27,28,28,29,29,30,30,31,31,32,32,33,33,34,34,35,35,36,36,37,37,38,38,39,39,40,40,41,41,42,42,43,43,44,44,45,45,46,46,47,47,48,48,49,49,50,50,51,51,52,52,53,53,54,54,55,55,56,56,57,57,58,58,59,59,61,61,62,62,63,63,64,64,65,65,66,66,67,67,68,68,69,69,70,70,71,71,72,72,73,73,74,74,75,75,76,76,77,77,78,78,79,79,80,80,81,81,82,82,83,83,84,84,85,85,86,86,87,87,88,88,89,89,90,90,91,91,92,92,93,93,94,94,95,95,96,96,97,97,98,98,99,99,100,100,101,101,102,102,103,103,104,104,105,105,106,106,107,107,108,108,109,109,110,110,111,111,112,112,113,113,114,114,115,115,116,116,117,117,118,118,119,119,120,120,121,121,122,122,123,123,124,124],"right_children":[2,4,6,8,10,12,14,16,18,20,22,24,26,28,30,32,34,36,38,40,42,44,46,48,50,52,54,56,58,60,62,64,66,68,70,72,74,76,78,80,82,84,86,88,90,92,94,96,98,100,102,104,106,108,110,112,114,116,118,120,-1,122,124,126,128,130,132,134,136,138,140,142,144,146,148,150,152,154,156,158,160,162,164,166,168,170,172,174,176,178,180,182,184,186,188,190,192,194,196,198,200,202,204,206,208,210,212,214,216,218,220,222,224,226,228,230,232,234,236,238,240,242,244,246,248,-1,-1,-1,-1,-1,-1,-1,-1,-1,-1,-1,-1,-1,-1,-1,-1,-1,-1,-1,-1,-1,-1,-1,-1,-1,-1,-1,-1,-1,-1,-1,-1,-1,-1,-1,-1,-1,-1,-1,-1,-1,-1,-1,-1,-1,-1,-1,-1,-1,-1,-1,-1,-1,-1,-1,-1,-1,-1,-1,-1,-1,-1,-1,-1,-1,-1,-1,-1,-1,-1,-1,-1,-1,-1,-1,-1,-1,-1,-1,-1,-1,-1,-1,-1,-1,-1,-1,-1,-1,-1,-1,-1,-1,-1,-1,-1,-1,-1,-1,-1,-1,-1,-1,-1,-1,-1,-1,-1,-1,-1,-1,-1,-1,-1,-1,-1,-1,-1,-1,-1,-1,-1,-1,-1],"split_conditions":[2E0,5.2557723E4,5.412725E4,1E0,1E0,3E0,3E0,3.0970662E4,3.438051E4,6.712935E4,7.055315E4,3.409386E4,3.0970662E4,6.712935E4,6.107257E4,1.5183078E4,4.1570004E4,2.3513576E4,4.1570004E4,5.7037477E4,2.4E1,6.1540793E4,7.363116E4,2.3213846E4,4.846762E4,1.5621258E4,4.1570004E4,6.2992508E4,7.1753875E4,1.8029673E0,6.3985336E4,5.72445E3,2.3513576E4,1E0,4.846762E4,1.06736045E4,7E0,3.101054E2,4.846762E4,1.81777E3,5.6109375E5,1.2027595E4,3.3652287E-2,4.524366E3,3E0,3.379353E1,2.072E1,9.852995E3,2.5871498E4,4.125467E4,4.3231668E2,5.72445E3,2.3513576E4,3.7298367E4,4.9551938E4,5.7037477E4,6.659673E1,-2.6606047E3,6.7619147E0,6.3667915E1,7.9347156E-2,1.4E1,1E-1,3.4001617E1,1.1677258E4,4.0909657E0,1.555E1,1.4355255E3,1E0,4.811038E4,1.6097547E0,5.177934E1,4.4080143E1,6.021285E4,8.1891943E3,4.317816E3,1.9334974E1,4.811038E4,1.6E1,1E0,5E0,1.16009414E5,1E0,1.2157347E5,3.817337E1,7.6017275E3,8.065905E4,4.3931357E3,9.141718E-1,2.5067084E-2,6.175075E4,4.330364E3,1.8914398E1,2.063E1,3.2317605E0,4.8076206E3,1.6856117E4,2.7356218E3,1.6E1,8.7962414E4,4.811038E4,6.90406E-2,9.06E0,1.2752192E4,2.2925427E3,1.6321003E-1,2.8750123E4,1.3817903E-1,1E0,1.8915773E1,6.660612E4,6.2578083E1,1E0,7.72E0,2.568925E0,4.6082867E1,5.5522688E4,1.9808849E3,4E0,1.5871575E-1,4.9107207E3,4.4031383E4,1.0978489E4,1.4574428E4,3.1537342E1,7.603007E-2,6.285871E-2,6.3986614E-2,8.160185E-2,6.0435124E-2,3.4598656E-2,5.7777323E-2,5.3111263E-2,5.5848803E-2,3.2394033E-2,4.9102698E-2,5.3427394E-2,4.5911696E-2,5.015076E-2,4.2556047E-2,-9.957655E-2,4.788808E-2,4.0635042E-2,3.630973E-2,4.081052E-2,2.8386742E-2,3.483666E-2,3.9577127E-2,3.165728E-2,2.5428975E-2,2.0160548E-2,-1.3897727E-3,2.6134659E-2,1.6409678E-2,2.0141378E-2,1.0567111E-2,1.7623149E-2,5.800699E-2,3.7348468E-2,4.521219E-2,5.891027E-2,3.6988456E-2,1.3309526E-1,-7.371631E-2,6.299151E-2,8.626432E-2,3.4938022E-2,2.978921E-2,2.6760114E-2,3.8714316E-3,1.1800232E-1,-8.409299E-2,9.8486645E-3,7.957255E-3,5.0165553E-2,-8.996497E-2,4.327711E-2,7.826538E-3,-1.8134523E-3,-3.168991E-2,-3.2299221E-3,-2.888899E-2,-6.5060765E-3,-1.1263976E-1,2.09892E-3,-1.1293245E-2,-3.4149453E-2,-8.0803055E-3,4.0360525E-2,3.457048E-2,2.606686E-2,2.191161E-2,1.753486E-2,1.9518368E-2,1.1236749E-2,7.1697235E-3,1.0433126E-2,2.0723399E-3,-6.520567E-2,-6.9175074E-3,-8.046433E-4,2.1073064E-2,-2.4415782E-2,-8.175389E-3,-1.4312181E-2,-2.0804271E-4,1.725698E-2,3.0627728E-3,-7.919973E-3,-2.0031901E-2,-1.3268108E-2,-2.535795E-2,-3.667708E-2,-3.849908E-2,-3.137874E-2,-4.8360918E-2,-3.888422E-2,-4.6548754E-2,-5.3689487E-2,-6.721702E-2,-3.0184984E-2,-1.6668875E-2,-4.4594504E-2,-1.5678378E-2,-2.4836749E-2,-1.774464E-1,-5.826908E-2,-3.0113567E-2,7.0682997E-3,1.2244239E-2,-9.584819E-2,-4.847274E-2,-3.4534734E-2,-1.05586015E-1,-3.9114457E-2,-4.5363896E-2,-4.300494E-2,-8.169564E-2,-7.3602095E-2,-1.1965223E-1,-3.194773E-2,-1.0722146E-1,-9.2293024E-2,-9.339419E-2,-6.5832555E-2,-9.656587E-2,-5.237922E-2,-9.970819E-2,-1.0323645E-1],"split_indices":[34,3,3,34,34,34,34,3,3,3,3,3,3,3,3,3,3,3,3,3,2,3,3,3,3,3,3,3,3,24,3,26,3,45,3,3,42,14,3,13,15,29,25,27,8,9,11,3,3,3,15,26,3,3,3,3,15,27,9,0,0,46,2,9,4,37,11,13,43,3,24,0,9,12,29,12,0,3,45,42,8,26,17,16,0,27,16,27,31,37,26,10,0,11,25,3,3,12,46,26,3,25,11,15,29,28,29,24,43,9,26,0,40,11,28,9,16,10,8,37,4,33,15,15,0,0,0,0,0,0,0,0,0,0,0,0,0,0,0,0,0,0,0,0,0,0,0,0,0,0,0,0,0,0,0,0,0,0,0,0,0,0,0,0,0,0,0,0,0,0,0,0,0,0,0,0,0,0,0,0,0,0,0,0,0,0,0,0,0,0,0,0,0,0,0,0,0,0,0,0,0,0,0,0,0,0,0,0,0,0,0,0,0,0,0,0,0,0,0,0,0,0,0,0,0,0,0,0,0,0,0,0,0,0,0,0,0,0,0,0,0,0,0,0,0,0,0,0,0],"split_type":[0,0,0,0,0,0,0,0,0,0,0,0,0,0,0,0,0,0,0,0,0,0,0,0,0,0,0,0,0,0,0,0,0,0,0,0,0,0,0,0,0,0,0,0,0,0,0,0,0,0,0,0,0,0,0,0,0,0,0,0,0,0,0,0,0,0,0,0,0,0,0,0,0,0,0,0,0,0,0,0,0,0,0,0,0,0,0,0,0,0,0,0,0,0,0,0,0,0,0,0,0,0,0,0,0,0,0,0,0,0,0,0,0,0,0,0,0,0,0,0,0,0,0,0,0,0,0,0,0,0,0,0,0,0,0,0,0,0,0,0,0,0,0,0,0,0,0,0,0,0,0,0,0,0,0,0,0,0,0,0,0,0,0,0,0,0,0,0,0,0,0,0,0,0,0,0,0,0,0,0,0,0,0,0,0,0,0,0,0,0,0,0,0,0,0,0,0,0,0,0,0,0,0,0,0,0,0,0,0,0,0,0,0,0,0,0,0,0,0,0,0,0,0,0,0,0,0,0,0,0,0,0,0,0,0,0,0,0,0,0,0,0,0,0,0,0,0,0,0],"sum_hessian":[2.5103368E6,1.2014764E6,1.3088605E6,7.395543E5,4.61922E5,8.539875E5,4.5487297E5,1.9830889E5,5.4124544E5,1.2840344E5,3.3351856E5,6.189132E5,2.350743E5,3.3586775E5,1.19005195E5,9.335914E4,1.0494976E5,3.0213575E5,2.3910967E5,3.922436E4,8.9179086E4,1.2166108E5,2.1185748E5,3.3649516E5,2.8241803E5,1.1359644E5,1.2147786E5,9.6535055E4,2.393327E5,1.9648625E4,9.935657E4,2.3384232E4,6.997491E4,4.820788E4,5.674188E4,1.5959877E5,1.42537E5,8.6334734E4,1.5277495E5,1.3789593E4,2.5434764E4,8.855097E4,6.281128E2,6.878341E4,5.287767E4,1.5023194E4,1.9683428E5,1.766648E5,1.5983038E5,2.2730742E5,5.5110605E4,3.1348084E4,8.224835E4,5.4968605E4,6.650925E4,6.999969E4,2.6535363E4,2.5463273E4,2.1386944E5,1.9638695E4,9.929464E0,6.7975747E3,9.2559E4,4.499374E3,1.888486E4,3.4189586E4,3.578532E4,1.8639729E3,4.6343906E4,4.2822695E4,1.3919184E4,3.3305566E4,1.26293195E5,1.2305137E5,1.948563E4,4.5621664E4,4.0713066E4,1.1546046E5,3.7314484E4,7.163781E3,6.6258125E3,2.5363094E4,7.16702E1,3.4183667E2,8.820913E4,5.172568E1,5.7638715E2,6.868611E4,9.7296295E1,2.273933E4,3.0138342E4,9.750006E3,5.273189E3,1.5942295E5,3.7411336E4,3.361379E4,1.43051E5,3.8932473E4,1.208979E5,9.6427734E4,1.3087968E5,4.406081E3,5.0704527E4,5.8218823E3,2.5526203E4,3.9653906E4,4.2594445E4,3.4122793E4,2.084581E4,5.086617E4,1.5643082E4,2.5018574E4,4.4981113E4,1.7126022E2,2.6364104E4,2.47321E2,2.5215953E4,1.1614435E4,2.02255E5,1.9359865E4,2.7882938E2,4.818354E3,1.9792207E3,8.825506E2,9.1676445E4,3.0457466E3,1.4536274E3,1.8289469E4,5.953904E2,3.3776035E4,4.1354846E2,2.1102836E4,1.4682486E4,6.775099E2,1.186463E3,1.7202428E4,2.9141479E4,2.5414627E4,1.7408068E4,1.3909337E4,9.846441E0,2.9377836E4,3.9277314E3,1.02669266E5,2.3623934E4,1.12349586E5,1.0701776E4,4.710872E3,1.4774758E4,1.5177903E4,3.0443762E4,4.1162106E2,4.0301445E4,6.857834E4,4.688212E4,2.6200672E4,1.1113812E4,5.0972592E2,6.6540547E3,5.346566E3,1.2792467E3,2.534479E4,1.8305393E1,4.0169537E1,3.1500664E1,1.18444534E2,2.2339214E2,3.9149426E4,4.9059707E4,1.073007E1,4.0995613E1,4.9289288E1,5.2709784E2,6.841835E4,2.6775235E2,7.052065E1,2.677564E1,6.95719E3,1.5782141E4,5.330657E2,2.9605275E4,4.811863E2,9.268819E3,3.224602E1,5.240943E3,1.5870728E5,7.1567126E2,3.7270168E4,1.4116489E2,1.4688752E4,1.8925037E4,5.9261082E4,8.378992E4,9.216806E3,2.9715668E4,9.543759E4,2.5460307E4,9.637215E4,5.559009E1,7.938674E4,5.1492934E4,1.6052977E2,4.2455513E3,1.360633E4,3.7098195E4,4.1380215E3,1.6838608E3,3.1495442E3,2.2376658E4,2.220596E4,1.7447945E4,3.947809E4,3.1163533E3,1.9619197E4,1.4503598E4,7.6938154E3,1.3151994E4,1.5430359E4,3.5435812E4,1.5380761E4,2.6232178E2,2.4576479E4,4.420957E2,8.264242E3,3.671687E4,2.7213547E1,1.4404668E2,2.6126662E4,2.374411E2,2.1699013E2,3.033087E1,1.5407942E3,2.3675158E4,7.362507E1,1.154081E4,1.30415516E5,7.1839484E4,1.4242152E4,5.117713E3,2.4970593E2,2.9123447E1,2.072882E3,2.7454722E3,1.3434697E3,6.3575104E2,6.4419574E2,2.3835486E2,2.2020543E4,6.965591E4],"tree_param":{"num_deleted":"0","num_feature":"47","num_nodes":"249","size_leaf_vector":"1"}},{"base_weights":[-4.8415444E-4,1.833491E-1,-3.6578816E-1,2.8388518E-1,1.1558353E-2,-1.7413187E-1,-7.333457E-1,4.4667798E-1,2.1610169E-1,2.1862951E-1,-9.251131E-2,-4.9171656E-2,-2.822008E-1,-5.212971E-1,-8.770297E-1,5.4760504E-1,3.9663485E-1,2.8497985E-1,1.399337E-1,3.9960057E-1,1.6279455E-1,-8.275621E-3,-1.3773915E-1,7.771702E-2,-1.22881785E-1,-1.5264305E-1,-4.0707302E-1,-3.5185513E-1,-5.89452E-1,-6.7455053E-1,-9.2673177E-1,6.079687E-1,5.015071E-1,4.5524296E-1,3.455286E-1,3.4033477E-1,2.4782704E-1,2.031199E-1,1.1118046E-1,5.182955E-1,3.624249E-1,2.3324762E-1,1.2634932E-1,4.3542576E-3,-2.1566728E-1,-1.837471E-1,-4.7272205E-2,1.433795E-1,4.2224236E-2,-4.1153744E-2,-1.7740302E-1,-8.007491E-2,-2.0424032E-1,-3.3513403E-1,-4.9200103E-1,-2.8248754E-1,-4.3369156E-1,-5.04951E-1,-6.933467E-1,-5.307224E-1,-7.2445995E-1,-9.3703055E-1,-6.931294E-1,6.424235E-1,5.365893E-1,5.573392E-1,4.4190258E-1,5.2714556E-1,4.3522337E-1,3.9588413E-1,3.268975E-1,4.084337E-1,3.2126912E-1,3.041411E-1,2.2451775E-1,2.4611382E-1,1.7388397E-1,4.1996878E-2,1.9158988E-1,5.056087E-1,7.7605546E-1,3.9685607E-1,3.138311E-1,3.0956653E-1,2.1177435E-1,1.891166E-1,9.215534E-2,-4.1839488E-2,1.16176166E-1,-9.528301E-2,-2.7031645E-1,-8.677215E-2,-3.0915907E-1,2.067137E-2,-3.8367763E-1,2.2329041E-1,1.2365596E-1,8.977887E-2,1.0355187E-2,-5.742559E-3,-9.363594E-2,-9.061402E-2,-2.09618E-1,-3.2936726E-2,-1.3677429E-1,-1.1578836E-1,-2.4622002E-1,-3.0147555E-1,-3.8212496E-1,-4.428928E-1,-5.419876E-1,-3.040556E-1,-8.542127E-2,-4.1228512E-1,-5.6820345E-1,-5.096261E-1,-1.3983242E-1,-7.072617E-1,-5.37529E-1,-5.7016677E-1,-3.8119522E-1,-7.7774155E-1,-5.7270634E-1,-8.3163E-1,-9.499792E-1,-5.126319E-1,-9.187823E-1,7.222821E-2,6.2071115E-2,6.26077E-2,5.1233083E-2,6.0175836E-2,5.2665632E-2,5.5676617E-2,4.3491464E-2,5.5553462E-2,4.7561668E-2,4.5580328E-2,3.9880592E-2,4.372042E-2,3.7837174E-2,3.6518596E-2,3.1085728E-2,4.2978857E-2,3.7964735E-2,2.8037462E-2,3.8098514E-2,3.826319E-2,2.9820336E-2,1.7105488E-2,2.9018795E-2,2.843225E-2,2.2494627E-2,2.0703647E-2,1.3638275E-2,1.067401E-2,3.743592E-4,2.3991898E-2,-3.0389295E-3,5.540019E-2,4.6282444E-2,9.020781E-2,5.6022365E-2,4.5797102E-2,3.7098035E-2,2.9514572E-2,4.7211856E-2,-3.2867685E-2,3.1348504E-2,1.9929683E-2,2.9351015E-2,2.294151E-2,1.4264499E-2,1.1311553E-2,5.815973E-3,2.363678E-3,-1.5094998E-2,9.893396E-3,2.4106469E-2,-5.665263E-3,-5.5420663E-2,7.109662E-3,-2.9664198E-2,-1.0923442E-3,-1.2916249E-2,-2.5819099E-2,-3.529493E-2,8.10242E-3,9.79446E-4,-3.9439324E-2,-6.3970448E-3,2.3569794E-2,-9.269492E-3,9.249157E-3,1.6940156E-2,4.534438E-3,1.191578E-2,3.5945852E-3,-3.7188698E-3,6.128219E-3,-2.6254198E-3,-3.7910675E-3,-1.3048003E-2,7.21625E-3,-1.0594309E-2,-1.4193631E-2,-2.3402838E-2,-1.5676729E-3,-1.0226727E-2,-1.4285539E-2,1.9131944E-2,-4.400419E-2,-1.0868424E-2,-2.0158095E-2,-2.8417716E-2,-3.194941E-2,-2.2998694E-2,-3.864085E-2,1.8318845E-2,-3.5612624E-2,-4.6949398E-2,-5.9409972E-2,-4.616762E-2,-2.1621244E-2,-3.2987032E-2,-2.2121508E-2,7.936264E-3,-4.3369252E-2,-3.0135646E-2,-5.8601297E-2,3.7927613E-2,-4.6528004E-2,-5.4747123E-2,8.065899E-4,-6.25394E-2,-6.647391E-2,-7.428136E-2,-2.606433E-2,-6.173432E-2,-5.5303544E-2,-8.235983E-2,-8.08125E-2,-3.304338E-2,-7.052797E-2,-8.32861E-2,-5.943134E-2,-2.4796175E-2,-6.794035E-2,-8.7676756E-2,-8.763608E-2,-9.596069E-2,-7.889655E-2,-4.509602E-2,-6.252438E-2,-9.628143E-2],"categories":[],"categories_nodes":[],"categories_segments":[],"categories_sizes":[],"default_left":[0,0,0,0,0,0,0,0,0,0,0,0,0,0,0,0,0,0,0,0,0,0,0,0,0,0,0,0,0,0,0,0,0,0,0,0,0,0,0,0,0,0,0,0,0,0,0,0,0,0,0,0,0,0,0,0,0,0,0,0,0,0,0,0,0,0,0,0,0,0,0,0,0,0,0,0,0,0,0,0,0,0,0,0,0,0,0,0,0,0,0,0,0,0,0,0,0,0,0,0,0,0,0,0,0,0,0,0,0,0,0,0,0,0,0,0,0,0,0,0,0,0,0,0,0,0,0,0,0,0,0,0,0,0,0,0,0,0,0,0,0,0,0,0,0,0,0,0,0,0,0,0,0,0,0,0,0,0,0,0,0,0,0,0,0,0,0,0,0,0,0,0,0,0,0,0,0,0,0,0,0,0,0,0,0,0,0,0,0,0,0,0,0,0,0,0,0,0,0,0,0,0,0,0,0,0,0,0,0,0,0,0,0,0,0,0,0,0,0,0,0,0,0,0,0,0,0,0,0,0,0,0,0,0,0,0,0,0,0,0,0,0,0,0,0,0,0,0,0,0,0,0,0,0,0],"id":6,"left_children":[1,3,5,7,9,11,13,15,17,19,21,23,25,27,29,31,33,35,37,39,41,43,45,47,49,51,53,55,57,59,61,63,65,67,69,71,73,