{"learner":{"attributes":{"best_iteration":"107","best_score":"0.6810423506002476"},"feature_names":["applicant_age","dependents","years_at_current_job","annual_income","other_income","credit_score","num_existing_loans","num_defaults_last_5y","num_credit_inquiries","credit_utilization_pct","loan_amount","interest_rate","bank_balance","monthly_expenses","existing_emi","savings_balance","property_value","has_co_applicant","app_year","app_month","app_day_of_week","app_quarter","app_days_since_ref","loan_term_months","debt_to_income","loan_to_income","total_income","monthly_surplus","loan_to_value","income_per_dependent","has_other_income","savings_to_loan","balance_to_expenses","total_debt_exposure","credit_score_bin","age_bin","payment_per_month","payment_burden","education_ordinal","gender_encoded","marital_status_encoded","employment_type_encoded","loan_purpose_encoded","property_type_encoded","application_channel_encoded","city_encoded","state_encoded"],"feature_types":["float","int","float","float","float","float","int","int","int","float","float","float","float","float","float","float","float","int","int","int","int","int","int","int","float","float","float","float","float","float","int","float","float","float","int","int","float","float","int","int","int","int","int","int","int","int","int"],"gradient_booster":{"model":{"cats":{"enc":[],"feature_segments":[],"sorted_idx":[]},"gbtree_model_param":{"num_parallel_tree":"1","num_trees":"128"},"iteration_indptr":[0,1,2,3,4,5,6,7,8,9,10,11,12,13,14,15,16,17,18,19,20,21,22,23,24,25,26,27,28,29,30,31,32,33,34,35,36,37,38,39,40,41,42,43,44,45,46,47,48,49,50,51,52,53,54,55,56,57,58,59,60,61,62,63,64,65,66,67,68,69,70,71,72,73,74,75,76,77,78,79,80,81,82,83,84,85,86,87,88,89,90,91,92,93,94,95,96,97,98,99,100,101,102,103,104,105,106,107,108,109,110,111,112,113,114,115,116,117,118,119,120,121,122,123,124,125,126,127,128],"tree_info":[0,0,0,0,0,0,0,0,0,0,0,0,0,0,0,0,0,0,0,0,0,0,0,0,0,0,0,0,0,0,0,0,0,0,0,0,0,0,0,0,0,0,0,0,0,0,0,0,0,0,0,0,0,0,0,0,0,0,0,0,0,0,0,0,0,0,0,0,0,0,0,0,0,0,0,0,0,0,0,0,0,0,0,0,0,0,0,0,0,0,0,0,0,0,0,0,0,0,0,0,0,0,0,0,0,0,0,0,0,0,0,0,0,0,0,0,0,0,0,0,0,0,0,0,0,0,0,0],"trees":[{"base_weights":[4.997531E-5,3.4292758E-1,-6.131464E-1,5.38486E-1,4.0860377E-2,-2.7421123E-1,-1.1879774E0,8.0780035E-1,4.1865638E-1,4.2088118E-1,-1.4051189E-1,-6.073487E-2,-4.954783E-1,-8.3592016E-1,-1.4146996E0,1.1126869E-1,8.274991E-2,6.364974E-2,3.4727264E-2,8.112945E-2,3.6235925E-2,5.555084E-3,-2.6255663E-2,1.4098066E-2,-2.7739419E-2,-2.9991703E-2,-8.422813E-2,-6.555678E-2,-1.11986905E-1,-1.3060418E-1,-1.7462663E-1],"categories":[],"categories_nodes":[],"categories_segments":[],"categories_sizes":[],"default_left":[0,0,0,0,0,0,0,0,0,0,0,0,0,0,0,0,0,0,0,0,0,0,0,0,0,0,0,0,0,0,0],"id":0,"left_children":[1,3,5,7,9,11,13,15,17,19,21,23,25,27,29,-1,-1,-1,-1,-1,-1,-1,-1,-1,-1,-1,-1,-1,-1,-1,-1],"loss_changes":[6.654896E5,1.1991972E5,2.2115981E5,3.976778E4,5.4987465E4,3.3730457E4,3.3606562E4,5.435078E3,1.3193469E4,7.792953E3,8.69295E3,1.178077E4,1.909779E4,5.733242E3,6.5719688E3,0E0,0E0,0E0,0E0,0E0,0E0,0E0,0E0,0E0,0E0,0E0,0E0,0E0,0E0,0E0,0E0],"parents":[2147483647,0,0,1,1,2,2,3,3,4,4,5,5,6,6,7,7,8,8,9,9,10,10,11,11,12,12,13,13,14,14],"right_children":[2,4,6,8,10,12,14,16,18,20,22,24,26,28,30,-1,-1,-1,-1,-1,-1,-1,-1,-1,-1,-1,-1,-1,-1,-1,-1],"split_conditions":[6.805374E2,5.1405945E4,5.216958E4,6.028125E2,6.041984E2,7.289804E2,7.1611993E2,5.5565576E2,3.0692695E4,5.4255975E2,6.6062516E4,3.1253086E4,3.0971848E4,6.712919E4,6.2504875E4,1.1126869E-1,8.274991E-2,6.364974E-2,3.4727264E-2,8.112945E-2,3.6235925E-2,5.555084E-3,-2.6255663E-2,1.4098066E-2,-2.7739419E-2,-2.9991703E-2,-8.422813E-2,-6.555678E-2,-1.11986905E-1,-1.3060418E-1,-1.7462663E-1],"split_indices":[5,3,3,5,5,5,5,5,3,5,3,3,3,3,3,0,0,0,0,0,0,0,0,0,0,0,0,0,0,0,0],"split_type":[0,0,0,0,0,0,0,0,0,0,0,0,0,0,0,0,0,0,0,0,0,0,0,0,0,0,0,0,0,0,0],"sum_hessian":[3.165208E6,2.0300672E6,1.1351409E6,1.2322849E6,7.977824E5,7.1409406E5,4.2104684E5,3.7945728E5,8.5282756E5,2.5774338E5,5.40039E5,3.6344603E5,3.50648E5,1.649363E5,2.5611055E5,1.4772364E5,2.3173362E5,4.1025978E5,4.4256778E5,7.27011E4,1.8504228E5,1.6858789E5,3.714511E5,1.7967583E5,1.8377022E5,1.7237566E5,1.7827234E5,5.281551E4,1.1212078E5,5.9708832E4,1.9640172E5],"tree_param":{"num_deleted":"0","num_feature":"47","num_nodes":"31","size_leaf_vector":"1"}},{"base_weights":[-1.2974293E-4,3.3949062E-1,-3.0880672E-1,4.9334133E-1,5.1458508E-2,-3.2511823E-2,-7.2158337E-1,7.738834E-1,3.8812625E-1,4.5359945E-1,-1.0514437E-1,1.2735957E-1,-4.4845217E-1,-5.0390345E-1,-1.2979602E0,1.0079556E-1,8.1045784E-2,5.7882022E-2,3.062424E-2,6.477997E-2,4.868863E-2,4.0299688E-3,-1.827527E-2,3.3792797E-2,1.8752114E-3,-2.3323378E-2,-7.035865E-2,-3.1853303E-2,-7.1752585E-2,-1.2319712E-1,-1.6025874E-1],"categories":[],"categories_nodes":[],"categories_segments":[],"categories_sizes":[],"default_left":[0,0,0,0,0,0,0,0,0,0,0,0,0,0,0,0,0,0,0,0,0,0,0,0,0,0,0,0,0,0,0],"id":1,"left_children":[1,3,5,7,9,11,13,15,17,19,21,23,25,27,29,-1,-1,-1,-1,-1,-1,-1,-1,-1,-1,-1,-1,-1,-1,-1,-1],"loss_changes":[3.3136788E5,6.6693375E4,1.8885131E5,2.8956594E4,3.300003E4,6.596073E4,8.330322E4,1.9121719E3,9.779961E3,5.270371E2,2.750335E3,1.302956E4,1.0719418E4,1.2586547E4,3.518875E3,0E0,0E0,0E0,0E0,0E0,0E0,0E0,0E0,0E0,0E0,0E0,0E0,0E0,0E0,0E0,0E0],"parents":[2147483647,0,0,1,1,2,2,3,3,4,4,5,5,6,6,7,7,8,8,9,9,10,10,11,11,12,12,13,13,14,14],"right_children":[2,4,6,8,10,12,14,16,18,20,22,24,26,28,30,-1,-1,-1,-1,-1,-1,-1,-1,-1,-1,-1,-1,-1,-1,-1,-1],"split_conditions":[2E0,5.61836E4,4.955106E4,1E0,1E0,3E0,3E0,3.0971848E4,3.4378656E4,6.768076E4,6.880426E4,2.7021758E4,2.6160365E4,6.50145E4,6.1071867E4,1.0079556E-1,8.1045784E-2,5.7882022E-2,3.062424E-2,6.477997E-2,4.868863E-2,4.0299688E-3,-1.827527E-2,3.3792797E-2,1.8752114E-3,-2.3323378E-2,-7.035865E-2,-3.1853303E-2,-7.1752585E-2,-1.2319712E-1,-1.6025874E-1],"split_indices":[34,3,3,34,34,34,34,3,3,3,3,3,3,3,3,0,0,0,0,0,0,0,0,0,0,0,0,0,0,0,0],"split_type":[0,0,0,0,0,0,0,0,0,0,0,0,0,0,0,0,0,0,0,0,0,0,0,0,0,0,0,0,0,0,0],"sum_hessian":[3.1609105E6,1.5050196E6,1.6558909E6,9.810153E5,5.2400434E5,9.9193406E5,6.6395675E5,2.6756966E5,7.134456E5,1.4686567E5,3.7713866E5,7.1652875E5,2.7540525E5,4.8194338E5,1.820134E5,1.2011519E5,1.4745448E5,3.7872078E5,3.3472488E5,3.661262E4,1.1025305E5,1.02451055E5,2.746876E5,2.9008512E5,4.2644366E5,1.06896086E5,1.6850917E5,1.5953583E5,3.2240753E5,4.6452504E4,1.355609E5],"tree_param":{"num_deleted":"0","num_feature":"47","num_nodes":"31","size_leaf_vector":"1"}},{"base_weights":[-2.1575479E-4,2.676655E-1,-5.2204674E-1,4.11255E-1,1.1236558E-2,-2.2298229E-1,-9.604106E-1,6.2028426E-1,3.0700645E-1,2.8676617E-1,-1.5524147E-1,-1.9441873E-2,-3.4165713E-1,-6.9475615E-1,-1.1306645E0,9.1414765E-2,6.462288E-2,4.7226813E-2,2.2409355E-2,5.7376944E-2,2.0835739E-2,-2.8012196E-2,-7.986811E-5,1.3523177E-2,-1.786345E-2,-2.1659821E-2,-6.06678E-2,-5.400789E-2,-9.755542E-2,-1.0092893E-1,-1.4325878E-1],"categories":[],"categories_nodes":[],"categories_segments":[],"categories_sizes":[],"default_left":[0,0,0,0,0,0,0,0,0,0,0,0,0,0,0,0,0,0,0,0,0,0,0,0,0,0,0,0,0,0,0],"id":2,"left_children":[1,3,5,7,9,11,13,15,17,19,21,23,25,27,29,-1,-1,-1,-1,-1,-1,-1,-1,-1,-1,-1,-1,-1,-1,-1,-1],"loss_changes":[4.405962E5,7.668655E4,1.401654E5,2.9093156E4,3.4292453E4,1.5352076E4,1.9610312E4,4.7397344E3,1.01138125E4,6.26424E3,6.1843936E3,4.27076E3,1.124993E4,5.641883E3,7.0858125E3,0E0,0E0,0E0,0E0,0E0,0E0,0E0,0E0,0E0,0E0,0E0,0E0,0E0,0E0,0E0,0E0],"parents":[2147483647,0,0,1,1,2,2,3,3,4,4,5,5,6,6,7,7,8,8,9,9,10,10,11,11,12,12,13,13,14,14],"right_children":[2,4,6,8,10,12,14,16,18,20,22,24,26,28,30,-1,-1,-1,-1,-1,-1,-1,-1,-1,-1,-1,-1,-1,-1,-1,-1],"split_conditions":[6.848361E2,5.493348E4,4.8467E4,6.0942426E2,6.1555927E2,7.170705E2,7.190006E2,5.46182E2,3.4093004E4,5.5845966E2,6.783939E2,3.0129898E4,3.1533684E4,6.712919E4,6.1071867E4,9.1414765E-2,6.462288E-2,4.7226813E-2,2.2409355E-2,5.7376944E-2,2.0835739E-2,-2.8012196E-2,-7.986811E-5,1.3523177E-2,-1.786345E-2,-2.1659821E-2,-6.06678E-2,-5.400789E-2,-9.755542E-2,-1.0092893E-1,-1.4325878E-1],"split_indices":[5,3,3,5,5,5,5,5,3,5,5,3,3,3,3,0,0,0,0,0,0,0,0,0,0,0,0,0,0,0,0],"split_type":[0,0,0,0,0,0,0,0,0,0,0,0,0,0,0,0,0,0,0,0,0,0,0,0,0,0,0,0,0,0,0],"sum_hessian":[3.1518698E6,2.0827125E6,1.0691574E6,1.3351075E6,7.4760506E5,6.3556094E5,4.3359644E5,4.4427825E5,8.908292E5,2.8157816E5,4.660269E5,2.3408338E5,4.0147753E5,1.6935289E5,2.6424353E5,1.2343011E5,3.2084816E5,4.7595366E5,4.1487556E5,9.6179055E4,1.8539911E5,2.995891E5,1.6643781E5,1.163804E5,1.1770298E5,2.1586E5,1.8561755E5,6.5477938E4,1.0387495E5,7.425634E4,1.8998719E5],"tree_param":{"num_deleted":"0","num_feature":"47","num_nodes":"31","size_leaf_vector":"1"}},{"base_weights":[-1.1285767E-4,2.5282046E-1,-4.418477E-1,3.977267E-1,5.6973632E-2,-2.0915519E-1,-8.8925815E-1,5.9490156E-1,3.18232E-1,3.3873802E-1,-5.3223595E-2,-9.308244E-2,-4.184389E-1,-5.8033633E-1,-1.0473115E0,8.72914E-2,6.317343E-2,5.1408704E-2,2.9747766E-2,6.5293476E-2,3.1487923E-2,-1.385187E-2,1.489214E-2,7.7962386E-3,-2.4835708E-2,-2.6250852E-2,-7.009327E-2,-4.909377E-2,-7.7088766E-2,-9.827501E-2,-1.2815571E-1],"categories":[],"categories_nodes":[],"categories_segments":[],"categories_sizes":[],"default_left":[0,0,0,0,0,0,0,0,0,0,0,0,0,0,0,0,0,0,0,0,0,0,0,0,0,0,0,0,0,0,0],"id":3,"left_children":[1,3,5,7,9,11,13,15,17,19,21,23,25,27,29,-1,-1,-1,-1,-1,-1,-1,-1,-1,-1,-1,-1,-1,-1,-1,-1],"loss_changes":[3.506104E5,5.662978E4,1.1895253E5,1.7976406E4,2.6347926E4,1.8259242E4,1.9086688E4,2.63675E3,6.315547E3,3.6065625E3,7.3034243E3,9.346727E3,9.542207E3,1.7361562E3,2.9029375E3,0E0,0E0,0E0,0E0,0E0,0E0,0E0,0E0,0E0,0E0,0E0,0E0,0E0,0E0,0E0,0E0],"parents":[2147483647,0,0,1,1,2,2,3,3,4,4,5,5,6,6,7,7,8,8,9,9,10,10,11,11,12,12,13,13,14,14],"right_children":[2,4,6,8,10,12,14,16,18,20,22,24,26,28,30,-1,-1,-1,-1,-1,-1,-1,-1,-1,-1,-1,-1,-1,-1,-1,-1],"split_conditions":[6.7882544E2,4.8467E4,5.4525055E4,5.986117E2,5.9566846E2,3.8489484E4,7.086786E2,5.34396E2,2.411095E4,5.2957275E2,6.783939E2,7.190006E2,7.249082E2,7.1154914E4,6.398305E4,8.72914E-2,6.317343E-2,5.1408704E-2,2.9747766E-2,6.5293476E-2,3.1487923E-2,-1.385187E-2,1.489214E-2,7.7962386E-3,-2.4835708E-2,-2.6250852E-2,-7.009327E-2,-4.909377E-2,-7.7088766E-2,-9.827501E-2,-1.2815571E-1],"split_indices":[5,3,3,5,5,3,5,5,3,5,5,5,5,3,3,0,0,0,0,0,0,0,0,0,0,0,0,0,0,0,0],"split_type":[0,0,0,0,0,0,0,0,0,0,0,0,0,0,0,0,0,0,0,0,0,0,0,0,0,0,0,0,0,0,0],"sum_hessian":[3.1380282E6,1.9954515E6,1.1425768E6,1.1468792E6,8.4857225E5,7.5165294E5,3.9092375E5,3.2952778E5,8.1735144E5,2.3856948E5,6.100028E5,4.8349747E5,2.6815547E5,1.3231447E5,2.586093E5,8.121004E4,2.4831775E5,2.7263875E5,5.447127E5,5.552117E4,1.8304831E5,4.4726925E5,1.6273353E5,2.0774677E5,2.7575072E5,1.313669E5,1.3678858E5,4.567574E4,8.6638734E4,5.605149E4,2.025578E5],"tree_param":{"num_deleted":"0","num_feature":"47","num_nodes":"31","size_leaf_vector":"1"}},{"base_weights":[-2.8103683E-4,2.0142795E-1,-4.39524E-1,3.105192E-1,-2.4172598E-2,-2.0292257E-1,-8.296842E-1,4.7404018E-1,2.134701E-1,1.9675687E-1,-1.7798626E-1,1.0555162E-3,-2.971457E-1,-6.248866E-1,-9.691197E-1,7.004221E-2,4.813341E-2,3.430665E-2,1.2578957E-2,4.51438E-2,1.4032271E-2,-1.6700812E-2,-5.168942E-2,1.1477099E-2,-1.0170516E-2,-1.971081E-2,-4.877196E-2,-4.9115293E-2,-8.590842E-2,-8.702237E-2,-1.2113037E-1],"categories":[],"categories_nodes":[],"categories_segments":[],"categories_sizes":[],"default_left":[0,0,0,0,0,0,0,0,0,0,0,0,0,0,0,0,0,0,0,0,0,0,0,0,0,0,0,0,0,0,0],"id":4,"left_children":[1,3,5,7,9,11,13,15,17,19,21,23,25,27,29,-1,-1,-1,-1,-1,-1,-1,-1,-1,-1,-1,-1,-1,-1,-1,-1],"loss_changes":[2.7657397E5,5.2649055E4,9.068606E4,2.2883297E4,2.3694916E4,1.17534E4,1.0589344E4,4.1335547E3,7.7882344E3,4.170714E3,3.7568496E3,1.6730369E3,6.5404766E3,3.4777383E3,3.5667812E3,0E0,0E0,0E0,0E0,0E0,0E0,0E0,0E0,0E0,0E0,0E0,0E0,0E0,0E0,0E0,0E0],"parents":[2147483647,0,0,1,1,2,2,3,3,4,4,5,5,6,6,7,7,8,8,9,9,10,10,11,11,12,12,13,13,14,14],"right_children":[2,4,6,8,10,12,14,16,18,20,22,24,26,28,30,-1,-1,-1,-1,-1,-1,-1,-1,-1,-1,-1,-1,-1,-1,-1,-1],"split_conditions":[6.9002686E2,5.878144E4,5.0289445E4,6.1906213E2,6.2358124E2,2.3516404E4,7.239133E2,5.5845966E2,3.671156E4,5.5565576E2,6.7882544E2,7.3212775E2,7.332033E2,6.712919E4,6.1071867E4,7.004221E-2,4.813341E-2,3.430665E-2,1.2578957E-2,4.51438E-2,1.4032271E-2,-1.6700812E-2,-5.168942E-2,1.1477099E-2,-1.0170516E-2,-1.971081E-2,-4.877196E-2,-4.9115293E-2,-8.590842E-2,-8.702237E-2,-1.2113037E-1],"split_indices":[5,3,3,5,5,3,5,5,3,5,5,5,5,3,3,0,0,0,0,0,0,0,0,0,0,0,0,0,0,0,0],"split_type":[0,0,0,0,0,0,0,0,0,0,0,0,0,0,0,0,0,0,0,0,0,0,0,0,0,0,0,0,0,0,0],"sum_hessian":[3.1216268E6,2.1392442E6,9.8238244E5,1.4419674E6,6.9727694E5,6.1153575E5,3.7084672E5,5.370579E5,9.0490944E5,2.8619784E5,4.110791E5,1.9322827E5,4.1830747E5,1.5021786E5,2.2062884E5,1.701678E5,3.668901E5,5.090437E5,3.9586578E5,8.120397E4,2.0499389E5,3.643414E5,4.6737703E4,9.1877375E4,1.0135088E5,2.0509767E5,2.132098E5,5.433225E4,9.588562E4,5.521317E4,1.6541567E5],"tree_param":{"num_deleted":"0","num_feature":"47","num_nodes":"31","size_leaf_vector":"1"}},{"base_weights":[-2.333738E-4,8.40359E-2,-5.165377E-1,1.9783673E-1,-1.4156128E-1,-2.795449E-1,-8.905951E-1,4.989697E-1,1.4584666E-1,2.4300043E-2,-3.6187452E-1,-1.0906921E-1,-3.859872E-1,-6.641128E-1,-9.538162E-1,6.786893E-2,5.012604E-2,3.177461E-2,9.35662E-3,3.2803867E-2,-8.719119E-3,-2.7678143E-2,-4.82397E-2,4.176831E-3,-2.1182766E-2,-3.527262E-2,-5.694275E-2,-7.064398E-2,-7.984479E-2,-1.00677535E-1,-1.1264553E-1],"categories":[],"categories_nodes":[],"categories_segments":[],"categories_sizes":[],"default_left":[0,0,0,0,0,0,0,0,0,0,0,0,0,0,0,0,0,0,0,0,0,0,0,0,0,0,0,0,0,0,0],"id":5,"left_children":[1,3,5,7,9,11,13,15,17,19,21,23,25,27,29,-1,-1,-1,-1,-1,-1,-1,-1,-1,-1,-1,-1,-1,-1,-1,-1],"loss_changes":[1.350317E5,6.8498266E4,3.860418E4,2.7765297E4,3.2690566E4,4.8372695E3,2.4177188E3,1.5017734E3,1.2608045E4,1.3084166E4,2.5335781E3,1.0885627E3,1.4077754E3,4.7368164E1,1.8051562E2,0E0,0E0,0E0,0E0,0E0,0E0,0E0,0E0,0E0,0E0,0E0,0E0,0E0,0E0,0E0,0E0],"parents":[2147483647,0,0,1,1,2,2,3,3,4,4,5,5,6,6,7,7,8,8,9,9,10,10,11,11,12,12,13,13,14,14],"right_children":[2,4,6,8,10,12,14,16,18,20,22,24,26,28,30,-1,-1,-1,-1,-1,-1,-1,-1,-1,-1,-1,-1,-1,-1,-1,-1],"split_conditions":[3E0,5.7039695E4,4.8467E4,1E0,2E0,2.557775E4,5.7467613E4,3.0971848E4,2.6160365E4,1E0,7.1154914E4,1.4726525E4,3.909578E4,1.9E0,6.398305E4,6.786893E-2,5.012604E-2,3.177461E-2,9.35662E-3,3.2803867E-2,-8.719119E-3,-2.7678143E-2,-4.82397E-2,4.176831E-3,-2.1182766E-2,-3.527262E-2,-5.694275E-2,-7.064398E-2,-7.984479E-2,-1.00677535E-1,-1.1264553E-1],"split_indices":[34,3,3,34,34,3,3,3,3,34,3,3,3,2,3,0,0,0,0,0,0,0,0,0,0,0,0,0,0,0,0],"split_type":[0,0,0,0,0,0,0,0,0,0,0,0,0,0,0,0,0,0,0,0,0,0,0,0,0,0,0,0,0,0,0],"sum_hessian":[3.1035622E6,2.6680878E6,4.3547453E5,1.7734726E6,8.94615E5,2.6657894E5,1.688956E5,2.611059E5,1.5123668E6,5.1037984E5,3.8423516E5,1.0246895E5,1.6410998E5,3.6860094E4,1.320355E5,1.1545484E5,1.4565106E5,5.1192028E5,1.0004465E6,1.4187255E5,3.685073E5,1.1578788E5,2.6844725E5,3.4389184E4,6.807977E4,9.16187E4,7.249127E4,1.0769473E4,2.6090623E4,2.0179953E4,1.1185554E5],"tree_param":{"num_deleted":"0","num_feature":"47","num_nodes":"31","size_leaf_vector":"1"}},{"base_weights":[-2.7052645E-4,1.8696812E-1,-3.3291644E-1,2.6821017E-1,6.2242984E-3,-1.5937519E-1,-6.6805696E-1,3.873862E-1,1.9153447E-1,1.6917254E-1,-1.04691565E-1,-5.2644327E-2,-2.8679726E-1,-4.031661E-1,-7.9945606E-1,6.917758E-2,4.1925E-2,1.4096338E-2,3.981736E-2,4.8931144E-2,1.4928752E-2,-2.4868157E-2,1.4490186E-2,9.261827E-3,-1.3999383E-2,-1.15225E-2,-4.3550797E-2,-3.134606E-2,-5.3045508E-2,-7.459984E-2,-1.00530736E-1],"categories":[],"categories_nodes":[],"categories_segments":[],"categories_sizes":[],"default_left":[0,0,0,0,0,0,0,0,0,0,0,0,0,0,0,0,0,0,0,0,0,0,0,0,0,0,0,0,0,0,0],"id":6,"left_children":[1,3,5,7,9,11,13,15,17,19,21,23,25,27,29,-1,-1,-1,-1,-1,-1,-1,-1,-1,-1,-1,-1,-1,-1,-1,-1],"loss_changes":[1.9234475E5,2.9014977E4,6.468746E4,1.2456828E4,1.1074539E4,9.965676E3,1.3206766E4,2.9456328E3,8.804109E3,2.5437485E3,9.146104E3,3.5812402E3,5.5178516E3,8.959531E2,2.6266562E3,0E0,0E0,0E0,0E0,0E0,0E0,0E0,0E0,0E0,0E0,0E0,0E0,0E0,0E0,0E0,0E0],"parents":[2147483647,0,0,1,1,2,2,3,3,4,4,5,5,6,6,7,7,8,8,9,9,10,10,11,11,12,12,13,13,14,14],"right_children":[2,4,6,8,10,12,14,16,18,20,22,24,26,28,30,-1,-1,-1,-1,-1,-1,-1,-1,-1,-1,-1,-1,-1,-1,-1,-1],"split_conditions":[6.7882544E2,6.2680453E4,5.5066043E4,6.1790076E2,6.1790076E2,3.4794156E4,7.068349E2,5.1807776E2,6.783939E2,5.2415063E2,6.783939E2,7.095927E2,7.068349E2,6.7645734E4,6.8183234E4,6.917758E-2,4.1925E-2,1.4096338E-2,3.981736E-2,4.8931144E-2,1.4928752E-2,-2.4868157E-2,1.4490186E-2,9.261827E-3,-1.3999383E-2,-1.15225E-2,-4.3550797E-2,-3.134606E-2,-5.3045508E-2,-7.459984E-2,-1.00530736E-1],"split_indices":[5,26,26,5,5,26,5,5,5,5,5,5,5,26,26,0,0,0,0,0,0,0,0,0,0,0,0,0,0,0,0],"split_type":[0,0,0,0,0,0,0,0,0,0,0,0,0,0,0,0,0,0,0,0,0,0,0,0,0,0,0,0,0,0,0],"sum_hessian":[3.0881782E6,1.975958E6,1.1122202E6,1.3632114E6,6.127466E5,7.327775E5,3.7944275E5,5.3369375E5,8.2951756E5,2.4816419E5,3.6458244E5,3.9876594E5,3.340116E5,1.2581433E5,2.536284E5,6.036611E4,4.7332766E5,5.6646075E5,2.630568E5,3.4492605E4,2.136716E5,2.468961E5,1.1768634E5,1.3513808E5,2.6362784E5,1.0668414E5,2.2732745E5,3.5975656E4,8.983868E4,7.480387E4,1.7882455E5],"tree_param":{"num_deleted":"0","num_feature":"47","num_nodes":"31","size_leaf_vector":"1"}},{"base_weights":[-5.3923886E-4,1.6571003E-1,-2.978645E-1,2.923305E-1,6.617929E-2,-1.2165297E-1,-5.7903385E-1,3.8818488E-1,2.1784922E-1,1.8426906E-1,-3.2524336E-2,6.3911095E-2,-1.754124E-1,-3.53524E-1,-7.139999E-1,6.5362476E-2,4.2396042E-2,1.7238501E-2,4.0749803E-2,4.406606E-2,1.7181287E-2,-1.5966509E-2,1.8480008E-2,2.1602131E-2,2.117253E-3,-4.440053E-3,-2.8726554E-2,-2.6312191E-2,-5.0423443E-2,-6.258026E-2,-9.394533E-2],"categories":[],"categories_nodes":[],"categories_segments":[],"categories_sizes":[],"default_left":[0,0,0,0,0,0,0,0,0,0,0,0,0,0,0,0,0,0,0,0,0,0,0,0,0,0,0,0,0,0,0],"id":7,"left_children":[1,3,5,7,9,11,13,15,17,19,21,23,25,27,29,-1,-1,-1,-1,-1,-1,-1,-1,-1,-1,-1,-1,-1,-1,-1,-1],"loss_changes":[1.5173681E5,2.4812617E4,5.4543305E4,6.1861875E3,1.2848803E4,6.7511777E3,1.2908531E4,1.5378828E3,4.501879E3,3.5613555E3,1.2067704E4,8.474877E2,5.1718955E3,1.6235801E3,4.4011562E3,0E0,0E0,0E0,0E0,0E0,0E0,0E0,0E0,0E0,0E0,0E0,0E0,0E0,0E0,0E0,0E0],"parents":[2147483647,0,0,1,1,2,2,3,3,4,4,5,5,6,6,7,7,8,8,9,9,10,10,11,11,12,12,13,13,14,14],"right_children":[2,4,6,8,10,12,14,16,18,20,22,24,26,28,30,-1,-1,-1,-1,-1,-1,-1,-1,-1,-1,-1,-1,-1,-1,-1,-1],"split_conditions":[6.7882544E2,4.156986E4,4.8467E4,6.257728E2,6.2684485E2,1.9406188E4,7.105147E2,5.2415063E2,6.783939E2,5.34396E2,6.783939E2,7.032094E2,7.095927E2,6.659121E4,6.398305E4,6.5362476E-2,4.2396042E-2,1.7238501E-2,4.0749803E-2,4.406606E-2,1.7181287E-2,-1.5966509E-2,1.8480008E-2,2.1602131E-2,2.117253E-3,-4.440053E-3,-2.8726554E-2,-2.6312191E-2,-5.0423443E-2,-6.258026E-2,-9.394533E-2],"split_indices":[5,3,3,5,5,3,5,5,5,5,5,5,5,3,3,0,0,0,0,0,0,0,0,0,0,0,0,0,0,0,0],"split_type":[0,0,0,0,0,0,0,0,0,0,0,0,0,0,0,0,0,0,0,0,0,0,0,0,0,0,0,0,0,0,0],"sum_hessian":[3.0697225E6,1.9688445E6,1.100878E6,8.6650156E5,1.1023429E6,6.767523E5,4.2412572E5,3.7888612E5,4.8761544E5,5.0188406E5,6.004588E5,1.5201938E5,5.2473294E5,1.5879866E5,2.653271E5,4.461295E4,3.3427316E5,3.2020962E5,1.6740583E5,7.8919805E4,4.2296428E5,3.880069E5,2.1245189E5,4.1412707E4,1.1060668E5,1.8033739E5,3.4439553E5,6.158128E4,9.721737E4,9.297645E4,1.7235062E5],"tree_param":{"num_deleted":"0","num_feature":"47","num_nodes":"31","size_leaf_vector":"1"}},{"base_weights":[-4.018369E-4,1.2676755E-1,-3.1105703E-1,2.1617465E-1,4.8032785E-3,-1.6816452E-1,-6.5664005E-1,3.1725952E-1,1.4334708E-1,1.3294584E-1,-1.0177614E-1,-8.0957375E-2,-3.1651837E-1,-5.028212E-1,-7.5782067E-1,4.7683954E-2,3.196319E-2,3.2687385E-2,1.2828888E-2,2.8952785E-2,9.398218E-3,-2.2535287E-2,-4.115333E-4,9.089742E-3,-1.3787903E-2,-2.4904164E-2,-4.6122324E-2,-4.4104975E-2,-6.552609E-2,-7.4032225E-2,-9.09301E-2],"categories":[],"categories_nodes":[],"categories_segments":[],"categories_sizes":[],"default_left":[0,0,0,0,0,0,0,0,0,0,0,0,0,0,0,0,0,0,0,0,0,0,0,0,0,0,0,0,0,0,0],"id":8,"left_children":[1,3,5,7,9,11,13,15,17,19,21,23,25,27,29,-1,-1,-1,-1,-1,-1,-1,-1,-1,-1,-1,-1,-1,-1,-1,-1],"loss_changes":[1.2056801E5,2.3613152E4,4.3773773E4,9.198469E3,1.2509584E4,8.1135938E3,4.0353906E3,2.0544648E3,3.3000078E3,2.5168486E3,4.528461E3,2.3714966E3,1.9084746E3,7.7523047E2,4.678672E2,0E0,0E0,0E0,0E0,0E0,0E0,0E0,0E0,0E0,0E0,0E0,0E0,0E0,0E0,0E0,0E0],"parents":[2147483647,0,0,1,1,2,2,3,3,4,4,5,5,6,6,7,7,8,8,9,9,10,10,11,11,12,12,13,13,14,14],"right_children":[2,4,6,8,10,12,14,16,18,20,22,24,26,28,30,-1,-1,-1,-1,-1,-1,-1,-1,-1,-1,-1,-1,-1,-1,-1,-1],"split_conditions":[6.943588E2,4.8829348E4,5.7039695E4,6.300402E2,6.3313354E2,3.8489484E4,7.249082E2,2.3516404E4,1.835429E4,5.660578E2,6.783939E2,1.5183947E4,7.300218E2,7.23781E4,6.398305E4,4.7683954E-2,3.196319E-2,3.2687385E-2,1.2828888E-2,2.8952785E-2,9.398218E-3,-2.2535287E-2,-4.115333E-4,9.089742E-3,-1.3787903E-2,-2.4904164E-2,-4.6122324E-2,-4.4104975E-2,-6.552609E-2,-7.4032225E-2,-9.09301E-2],"split_indices":[5,3,3,5,5,3,5,3,3,5,5,3,5,3,3,0,0,0,0,0,0,0,0,0,0,0,0,0,0,0,0],"split_type":[0,0,0,0,0,0,0,0,0,0,0,0,0,0,0,0,0,0,0,0,0,0,0,0,0,0,0,0,0,0,0],"sum_hessian":[3.051902E6,2.165455E6,8.8644706E5,1.2494976E6,9.1595725E5,6.2713794E5,2.593091E5,5.232382E5,7.262595E5,4.159055E5,5.0005175E5,3.9496588E5,2.3217206E5,1.0289302E5,1.5641606E5,1.629837E5,3.6025447E5,1.3990711E5,5.863524E5,1.28629664E5,2.8727584E5,2.5796423E5,2.420875E5,7.56525E4,3.1931338E5,1.0229198E5,1.29880086E5,3.4139082E4,6.8753945E4,2.6703018E4,1.2971305E5],"tree_param":{"num_deleted":"0","num_feature":"47","num_nodes":"31","size_leaf_vector":"1"}},{"base_weights":[-5.7617575E-4,1.3246539E-1,-2.4163806E-1,1.9306152E-1,-1.0979122E-2,-1.20886534E-1,-5.3371507E-1,3.1733134E-1,1.51423E-1,8.3287925E-2,-1.108184E-1,-5.246565E-2,-2.5312412E-1,-3.6595246E-1,-6.8929154E-1,5.871649E-2,3.4293354E-2,1.3322168E-2,2.9837009E-2,3.0644264E-2,5.7508457E-3,-2.8007964E-2,1.0034856E-2,2.3635894E-3,-1.3802476E-2,-1.7396217E-2,-4.162363E-2,-3.307204E-2,-5.546543E-2,-6.869414E-2,-8.440186E-2],"categories":[],"categories_nodes":[],"categories_segments":[],"categories_sizes":[],"default_left":[0,0,0,0,0,0,0,0,0,0,0,0,0,0,0,0,0,0,0,0,0,0,0,0,0,0,0,0,0,0,0],"id":9,"left_children":[1,3,5,7,9,11,13,15,17,19,21,23,25,27,29,-1,-1,-1,-1,-1,-1,-1,-1,-1,-1,-1,-1,-1,-1,-1,-1],"loss_changes":[9.733065E4,1.6998066E4,3.806436E4,7.113707E3,5.465898E3,6.9087656E3,8.239055E3,1.4379531E3,3.9890488E3,1.8215898E3,7.244048E3,2.4304082E3,2.830213E3,1.3760664E3,5.963281E2,0E0,0E0,0E0,0E0,0E0,0E0,0E0,0E0,0E0,0E0,0E0,0E0,0E0,0E0,0E0,0E0],"parents":[2147483647,0,0,1,1,2,2,3,3,4,4,5,5,6,6,7,7,8,8,9,9,10,10,11,11,12,12,13,13,14,14],"right_children":[2,4,6,8,10,12,14,16,18,20,22,24,26,28,30,-1,-1,-1,-1,-1,-1,-1,-1,-1,-1,-1,-1,-1,-1,-1,-1],"split_conditions":[6.7882544E2,6.2992188E4,5.7039695E4,5.925855E2,6.351573E2,4.0007707E4,7.199782E2,5.01677E2,6.783939E2,5.386909E2,6.783939E2,7.239133E2,7.249082E2,7.005418E2,6.938385E4,5.871649E-2,3.4293354E-2,1.3322168E-2,2.9837009E-2,3.0644264E-2,5.7508457E-3,-2.8007964E-2,1.0034856E-2,2.3635894E-3,-1.3802476E-2,-1.7396217E-2,-4.162363E-2,-3.307204E-2,-5.546543E-2,-6.869414E-2,-8.440186E-2],"split_indices":[5,3,3,5,5,3,5,5,5,5,5,5,5,5,3,0,0,0,0,0,0,0,0,0,0,0,0,0,0,0,0],"split_type":[0,0,0,0,0,0,0,0,0,0,0,0,0,0,0,0,0,0,0,0,0,0,0,0,0,0,0,0,0,0,0],"sum_hessian":[3.0348235E6,1.9555564E6,1.079267E6,1.3747936E6,5.807627E5,7.6358456E5,3.156825E5,3.450343E5,1.0297593E6,2.9871744E5,2.8204525E5,5.0321706E5,2.603675E5,1.518941E5,1.6378842E5,3.6377473E4,3.0865684E5,7.634738E5,2.662855E5,4.7107824E4,2.5160962E5,1.6985253E5,1.1219273E5,2.3989948E5,2.6331756E5,1.312728E5,1.2909471E5,8.78282E4,6.4065883E4,4.502912E4,1.187593E5],"tree_param":{"num_deleted":"0","num_feature":"47","num_nodes":"31","size_leaf_vector":"1"}},{"base_weights":[-5.125153E-4,4.793869E-2,-3.15122E-1,1.0948581E-1,-1.003618E-1,-1.6257155E-1,-5.9640634E-1,2.9640758E-1,7.842785E-2,-5.2252873E-3,-2.3279004E-1,-2.732878E-2,-2.2366513E-1,-4.326543E-1,-6.5314156E-1,4.323497E-2,2.858346E-2,2.1543976E-2,4.4161063E-3,1.7279884E-2,-7.407227E-3,-1.7306428E-2,-2.9933052E-2,1.46625545E-2,-7.711913E-3,-2.1556275E-2,-3.595367E-2,-4.6192642E-2,-5.433666E-2,-6.669139E-2,-7.68713E-2],"categories":[],"categories_nodes":[],"categories_segments":[],"categories_sizes":[],"default_left":[0,0,0,0,0,0,0,0,0,0,0,0,0,0,0,0,0,0,0,0,0,0,0,0,0,0,0,0,0,0,0],"id":10,"left_children":[1,3,5,7,9,11,13,15,17,19,21,23,25,27,29,-1,-1,-1,-1,-1,-1,-1,-1,-1,-1,-1,-1,-1,-1,-1,-1],"loss_changes":[4.600327E4,2.3870164E4,1.7282008E4,1.0729398E4,9.663549E3,2.1575923E3,1.3154453E3,1.00458984E3,6.854248E3,4.0221343E3,6.6790234E2,4.8715927E2,5.8833105E2,4.4581543E1,7.034375E1,0E0,0E0,0E0,0E0,0E0,0E0,0E0,0E0,0E0,0E0,0E0,0E0,0E0,0E0,0E0,0E0],"parents":[2147483647,0,0,1,1,2,2,3,3,4,4,5,5,6,6,7,7,8,8,9,9,10,10,11,11,12,12,13,13,14,14],"right_children":[2,4,6,8,10,12,14,16,18,20,22,24,26,28,30,-1,-1,-1,-1,-1,-1,-1,-1,-1,-1,-1,-1,-1,-1,-1,-1],"split_conditions":[3E0,6.2021387E4,4.8467E4,1E0,2E0,2.2607062E4,5.834062E4,3.0411281E4,2.411095E4,1E0,7.23781E4,9.849214E3,4.156986E4,5.294469E4,6.2021387E4,4.323497E-2,2.858346E-2,2.1543976E-2,4.4161063E-3,1.7279884E-2,-7.407227E-3,-1.7306428E-2,-2.9933052E-2,1.46625545E-2,-7.711913E-3,-2.1556275E-2,-3.595367E-2,-4.6192642E-2,-5.433666E-2,-6.669139E-2,-7.68713E-2],"split_indices":[34,3,3,34,34,3,3,3,3,34,3,3,3,3,3,0,0,0,0,0,0,0,0,0,0,0,0,0,0,0,0],"split_type":[0,0,0,0,0,0,0,0,0,0,0,0,0,0,0,0,0,0,0,0,0,0,0,0,0,0,0,0,0,0,0],"sum_hessian":[3.0179498E6,2.6151988E6,4.0275094E5,1.848176E6,7.670229E5,2.611316E5,1.4161934E5,2.6332866E5,1.5848472E6,4.4635922E5,3.2066366E5,8.125624E4,1.7987534E5,3.6443363E4,1.0517598E5,1.052109E5,1.5811775E5,4.3450938E5,1.1503379E6,1.2295054E5,3.234087E5,7.331498E4,2.4734867E5,1.6475531E4,6.478071E4,1.2453346E5,5.5341887E4,1.821717E4,1.8226193E4,1.0208287E4,9.496769E4],"tree_param":{"num_deleted":"0","num_feature":"47","num_nodes":"31","size_leaf_vector":"1"}},{"base_weights":[-6.720842E-4,1.1017831E-1,-2.0368847E-1,1.6393857E-1,2.1819303E-2,-1.1741256E-1,-4.2682487E-1,2.2560754E-1,1.03070356E-1,9.0965845E-2,-5.6343444E-2,-1.3058754E-2,-1.6757743E-1,-2.7962378E-1,-5.4846245E-1,4.407203E-2,2.4203403E-2,2.9103663E-3,2.6420167E-2,3.609799E-2,8.677031E-3,-2.0650156E-2,1.350995E-2,1.2364324E-2,-5.1904847E-3,-6.7604184E-3,-2.5074983E-2,-2.5593434E-2,-4.3994553E-2,-5.0275143E-2,-7.1498364E-2],"categories":[],"categories_nodes":[],"categories_segments":[],"categories_sizes":[],"default_left":[0,0,0,0,0,0,0,0,0,0,0,0,0,0,0,0,0,0,0,0,0,0,0,0,0,0,0,0,0,0,0],"id":11,"left_children":[1,3,5,7,9,11,13,15,17,19,21,23,25,27,29,-1,-1,-1,-1,-1,-1,-1,-1,-1,-1,-1,-1,-1,-1,-1,-1],"loss_changes":[6.762675E4,9.233109E3,2.0431527E4,4.536166E3,3.9738906E3,4.00667E3,5.298586E3,1.5950527E3,5.8995923E3,1.3957329E3,7.232556E3,9.386537E2,2.727959E3,7.868369E2,1.2549648E3,0E0,0E0,0E0,0E0,0E0,0E0,0E0,0E0,0E0,0E0,0E0,0E0,0E0,0E0,0E0,0E0],"parents":[2147483647,0,0,1,1,2,2,3,3,4,4,5,5,6,6,7,7,8,8,9,9,10,10,11,11,12,12,13,13,14,14],"right_children":[2,4,6,8,10,12,14,16,18,20,22,24,26,28,30,-1,-1,-1,-1,-1,-1,-1,-1,-1,-1,-1,-1,-1,-1,-1,-1],"split_conditions":[6.7882544E2,2.2296355E3,2.6204172E3,6.351573E2,6.3814233E2,9.197735E3,7.1611993E2,5.2415063E2,6.783939E2,5.1077505E2,6.783939E2,3.7433552E3,7.050202E2,7.005418E2,3.9117053E3,4.407203E-2,2.4203403E-2,2.9103663E-3,2.6420167E-2,3.609799E-2,8.677031E-3,-2.0650156E-2,1.350995E-2,1.2364324E-2,-5.1904847E-3,-6.7604184E-3,-2.5074983E-2,-2.5593434E-2,-4.3994553E-2,-5.0275143E-2,-7.1498364E-2],"split_indices":[5,27,27,5,5,29,5,5,5,5,5,29,5,5,27,0,0,0,0,0,0,0,0,0,0,0,0,0,0,0,0],"split_type":[0,0,0,0,0,0,0,0,0,0,0,0,0,0,0,0,0,0,0,0,0,0,0,0,0,0,0,0,0,0,0],"sum_hessian":[3.0050375E6,1.943729E6,1.0613085E6,1.208463E6,7.3526594E5,7.653765E5,2.9593206E5,6.0028156E5,6.0818144E5,3.901342E5,3.4513172E5,2.4848181E5,5.1689466E5,1.3389761E5,1.6203444E5,6.0674906E4,5.396067E5,3.736863E5,2.3449512E5,2.6912322E4,3.6322188E5,2.0263388E5,1.4249786E5,5.199343E4,1.9648839E5,1.5820125E5,3.586934E5,8.37342E4,5.016341E4,5.9373758E4,1.0266067E5],"tree_param":{"num_deleted":"0","num_feature":"47","num_nodes":"31","size_leaf_vector":"1"}},{"base_weights":[-4.624707E-4,9.7809695E-2,-1.8135157E-1,1.861559E-1,3.9031744E-2,-8.4457114E-2,-4.0525085E-1,2.4544412E-1,1.3597867E-1,9.663634E-2,-2.8644266E-2,-2.2926051E-2,-1.6720687E-1,-2.7604973E-1,-5.4733235E-1,4.0425997E-2,2.5883347E-2,9.4293235E-3,2.7200716E-2,3.2231525E-2,9.343838E-3,-1.5780466E-2,1.37204835E-2,1.11165615E-2,-5.6446795E-3,-9.384611E-3,-2.5964616E-2,-2.2973595E-2,-4.1645512E-2,-4.9330506E-2,-6.810562E-2],"categories":[],"categories_nodes":[],"categories_segments":[],"categories_sizes":[],"default_left":[0,0,0,0,0,0,0,0,0,0,0,0,0,0,0,0,0,0,0,0,0,0,0,0,0,0,0,0,0,0,0],"id":12,"left_children":[1,3,5,7,9,11,13,15,17,19,21,23,25,27,29,-1,-1,-1,-1,-1,-1,-1,-1,-1,-1,-1,-1,-1,-1,-1,-1],"loss_changes":[5.3179598E4,1.0066104E4,2.284696E4,2.303875E3,4.53791E3,3.7425332E3,5.8390625E3,8.246113E2,2.2566528E3,1.8430151E3,8.417736E3,1.2829435E3,1.5246387E3,1.0749668E3,7.223281E2,0E0,0E0,0E0,0E0,0E0,0E0,0E0,0E0,0E0,0E0,0E0,0E0,0E0,0E0,0E0,0E0],"parents":[2147483647,0,0,1,1,2,2,3,3,4,4,5,5,6,6,7,7,8,8,9,9,10,10,11,11,12,12,13,13,14,14],"right_children":[2,4,6,8,10,12,14,16,18,20,22,24,26,28,30,-1,-1,-1,-1,-1,-1,-1,-1,-1,-1,-1,-1,-1,-1,-1,-1],"split_conditions":[6.7882544E2,3.8788715E4,5.4525055E4,6.300402E2,6.400877E2,3.49555E4,7.2291266E2,1.5183947E4,6.783939E2,5.1807776E2,6.783939E2,1.3750646E4,7.132842E2,6.987716E2,6.398305E4,4.0425997E-2,2.5883347E-2,9.4293235E-3,2.7200716E-2,3.2231525E-2,9.343838E-3,-1.5780466E-2,1.37204835E-2,1.11165615E-2,-5.6446795E-3,-9.384611E-3,-2.5964616E-2,-2.2973595E-2,-4.1645512E-2,-4.9330506E-2,-6.810562E-2],"split_indices":[5,3,3,5,5,3,5,3,5,5,5,3,5,5,3,0,0,0,0,0,0,0,0,0,0,0,0,0,0,0,0],"split_type":[0,0,0,0,0,0,0,0,0,0,0,0,0,0,0,0,0,0,0,0,0,0,0,0,0,0,0,0,0,0,0],"sum_hessian":[2.9915882E6,1.9384702E6,1.0531181E6,7.744424E5,1.1640279E6,7.3502894E5,3.1808916E5,3.5499038E5,4.19452E5,6.288023E5,5.3522556E5,4.215638E5,3.1346516E5,1.665975E5,1.5149164E5,6.427135E4,2.9071903E5,2.691261E5,1.5032589E5,5.1749016E4,5.7705325E5,3.0930434E5,2.2592122E5,7.4976586E4,3.4658722E5,1.2361043E5,1.8985472E5,8.541767E4,8.117983E4,3.6432848E4,1.150588E5],"tree_param":{"num_deleted":"0","num_feature":"47","num_nodes":"31","size_leaf_vector":"1"}},{"base_weights":[-3.6674648E-4,3.4579664E-2,-2.3431954E-1,7.781036E-2,-9.009302E-2,-1.2646204E-1,-4.774318E-1,1.3088548E-1,1.3817382E-2,9.4903015E-2,-1.256126E-1,-1.3844585E-2,-1.701187E-1,-3.5387832E-1,-5.113818E-1,2.5231063E-2,1.1728977E-2,7.033145E-3,-6.397267E-3,1.0563484E-2,2.4411049E-2,-7.8861425E-3,-2.1531528E-2,1.790053E-2,-3.6958975E-3,-1.573253E-2,-2.9717246E-2,-4.41753E-2,-2.1433337E-2,-6.1352544E-2,-4.9085222E-2],"categories":[],"categories_nodes":[],"categories_segments":[],"categories_sizes":[],"default_left":[0,0,0,0,0,0,0,0,0,0,0,0,0,0,0,0,0,0,0,0,0,0,0,0,0,0,0,0,0,0,0],"id":13,"left_children":[1,3,5,7,9,11,13,15,17,19,21,23,25,27,29,-1,-1,-1,-1,-1,-1,-1,-1,-1,-1,-1,-1,-1,-1,-1,-1],"loss_changes":[2.434479E4,1.3962967E4,1.0147119E4,6.533547E3,4.3830703E3,1.3179019E3,4.9866016E2,2.7156875E3,2.806406E3,4.9268555E1,1.9291758E3,2.25924E2,5.742754E2,1.1433862E2,1.3816406E2,0E0,0E0,0E0,0E0,0E0,0E0,0E0,0E0,0E0,0E0,0E0,0E0,0E0,0E0,0E0,0E0],"parents":[2147483647,0,0,1,1,2,2,3,3,4,4,5,5,6,6,7,7,8,8,9,9,10,10,11,11,12,12,13,13,14,14],"right_children":[2,4,6,8,10,12,14,16,18,20,22,24,26,28,30,-1,-1,-1,-1,-1,-1,-1,-1,-1,-1,-1,-1,-1,-1,-1,-1],"split_conditions":[3E0,6.872703E4,5.2894406E4,2E0,1E0,2.272779E4,6.040557E4,1E0,4.199083E4,1.3394641E4,2E0,5.7223E3,4.454991E4,5.771037E3,3.5539097E3,2.5231063E-2,1.1728977E-2,7.033145E-3,-6.397267E-3,1.0563484E-2,2.4411049E-2,-7.8861425E-3,-2.1531528E-2,1.790053E-2,-3.6958975E-3,-1.573253E-2,-2.9717246E-2,-4.41753E-2,-2.1433337E-2,-6.1352544E-2,-4.9085222E-2],"split_indices":[34,26,26,34,34,26,26,34,26,4,34,26,26,4,4,0,0,0,0,0,0,0,0,0,0,0,0,0,0,0,0],"split_type":[0,0,0,0,0,0,0,0,0,0,0,0,0,0,0,0,0,0,0,0,0,0,0,0,0,0,0,0,0,0,0],"sum_hessian":[2.9776588E6,2.59068E6,3.8697875E5,1.9236484E6,6.6703156E5,2.6805628E5,1.1892248E5,1.0515241E6,8.7212425E5,1.0744193E5,5.595896E5,7.488444E4,1.9317184E5,2.56363E4,9.328617E4,2.7083528E5,7.806888E5,5.1966175E5,3.524625E5,1.03854195E5,3.5877341E3,2.845037E5,2.7508597E5,7.2371895E3,6.764724E4,1.3747447E5,5.569738E4,2.218501E4,3.451291E3,7.853917E4,1.4747004E4],"tree_param":{"num_deleted":"0","num_feature":"47","num_nodes":"31","size_leaf_vector":"1"}},{"base_weights":[-5.8133225E-4,3.0472303E-2,-2.1062183E-1,1.02971025E-1,-3.0249162E-2,-1.129706E-1,-4.3696505E-1,2.2568901E-1,8.359033E-2,2.4335392E-2,-1.03267185E-1,-1.1644499E-2,-1.5245873E-1,-2.88798E-1,-4.6395603E-1,3.5217658E-2,2.2530502E-2,1.8403716E-2,6.405174E-3,1.32822385E-2,-9.850133E-4,-6.267178E-3,-1.9982068E-2,1.0302921E-2,-4.0656016E-3,-1.4017712E-2,-2.6506014E-2,-3.625354E-2,-1.6647775E-2,-5.5891942E-2,-4.3572795E-2],"categories":[],"categories_nodes":[],"categories_segments":[],"categories_sizes":[],"default_left":[0,0,0,0,0,0,0,0,0,0,0,0,0,0,0,0,0,0,0,0,0,0,0,0,0,0,0,0,0,0,0],"id":14,"left_children":[1,3,5,7,9,11,13,15,17,19,21,23,25,27,29,-1,-1,-1,-1,-1,-1,-1,-1,-1,-1,-1,-1,-1,-1,-1,-1],"loss_changes":[1.9349223E4,1.1377247E4,8.445328E3,2.8016328E3,5.6056377E3,1.0680544E3,4.6041992E2,3.9513477E2,2.166044E3,2.3764346E3,2.0393301E3,1.7534822E2,4.623413E2,5.997583E1,1.4805078E2,0E0,0E0,0E0,0E0,0E0,0E0,0E0,0E0,0E0,0E0,0E0,0E0,0E0,0E0,0E0,0E0],"parents":[2147483647,0,0,1,1,2,2,3,3,4,4,5,5,6,6,7,7,8,8,9,9,10,10,11,11,12,12,13,13,14,14],"right_children":[2,4,6,8,10,12,14,16,18,20,22,24,26,28,30,-1,-1,-1,-1,-1,-1,-1,-1,-1,-1,-1,-1,-1,-1,-1,-1],"split_conditions":[3E0,4.3573586E4,5.2894406E4,1E0,2E0,2.272779E4,5.7849277E4,2.107608E4,2.0388541E4,1E0,7.214004E4,9.724907E3,4.4221387E4,5.771037E3,3.5539097E3,3.5217658E-2,2.2530502E-2,1.8403716E-2,6.405174E-3,1.32822385E-2,-9.850133E-4,-6.267178E-3,-1.9982068E-2,1.0302921E-2,-4.0656016E-3,-1.4017712E-2,-2.6506014E-2,-3.625354E-2,-1.6647775E-2,-5.5891942E-2,-4.3572795E-2],"split_indices":[34,26,26,34,34,26,26,26,26,34,26,26,26,4,4,0,0,0,0,0,0,0,0,0,0,0,0,0,0,0,0],"split_type":[0,0,0,0,0,0,0,0,0,0,0,0,0,0,0,0,0,0,0,0,0,0,0,0,0,0,0,0,0,0,0],"sum_hessian":[2.9665232E6,2.584427E6,3.820962E5,1.1779758E6,1.4064512E6,2.6693428E5,1.1516192E5,1.6066147E5,1.0173143E6,8.04814E5,6.0163725E5,7.485598E4,1.920783E5,1.7747686E4,9.741424E4,4.6734098E4,1.1392737E5,2.8035328E5,7.3696106E5,2.1505469E5,5.897593E5,3.502469E5,2.5139038E5,1.4131932E4,6.0724047E4,1.3524262E5,5.683567E4,1.5302451E4,2.4452341E3,8.168891E4,1.5725333E4],"tree_param":{"num_deleted":"0","num_feature":"47","num_nodes":"31","size_leaf_vector":"1"}},{"base_weights":[-3.2054438E-4,6.385043E-2,-1.703481E-1,9.474817E-2,-3.113846E-2,-9.356107E-2,-3.9279082E-1,1.4447087E-1,4.8126172E-2,4.08422E-2,-7.904618E-2,-5.3202957E-2,-1.783176E-1,-2.9034242E-1,-4.527988E-1,2.363441E-2,1.3095697E-2,-2.067819E-3,1.19873285E-2,2.9206088E-2,3.0734008E-3,-1.7994147E-2,1.7504565E-3,2.3369808E-3,-9.277607E-3,-1.7065639E-2,-2.5898648E-2,-2.3367736E-2,-3.9182816E-2,-4.3993004E-2,-5.6076083E-2],"categories":[],"categories_nodes":[],"categories_segments":[],"categories_sizes":[],"default_left":[0,0,0,0,0,0,0,0,0,0,0,0,0,0,0,0,0,0,0,0,0,0,0,0,0,0,0,0,0,0,0],"id":15,"left_children":[1,3,5,7,9,11,13,15,17,19,21,23,25,27,29,-1,-1,-1,-1,-1,-1,-1,-1,-1,-1,-1,-1,-1,-1,-1,-1],"loss_changes":[3.2266377E4,6.301256E3,1.3840496E4,3.7554805E3,1.817177E3,2.060455E3,1.2782012E3,1.4675469E3,3.034253E3,6.379166E2,2.2579395E3,7.9733777E2,2.7232373E2,3.2137305E2,2.9007812E2,0E0,0E0,0E0,0E0,0E0,0E0,0E0,0E0,0E0,0E0,0E0,0E0,0E0,0E0,0E0,0E0],"parents":[2147483647,0,0,1,1,2,2,3,3,4,4,5,5,6,6,7,7,8,8,9,9,10,10,11,11,12,12,13,13,14,14],"right_children":[2,4,6,8,10,12,14,16,18,20,22,24,26,28,30,-1,-1,-1,-1,-1,-1,-1,-1,-1,-1,-1,-1,-1,-1,-1,-1],"split_conditions":[6.961242E2,7.055259E4,5.7467613E4,6.420161E2,6.2358124E2,4.0628965E4,7.209502E2,2.9569492E4,6.783939E2,5.01677E2,6.783939E2,1.835429E4,7.4567816E2,7.299453E4,6.9968375E4,2.363441E-2,1.3095697E-2,-2.067819E-3,1.19873285E-2,2.9206088E-2,3.0734008E-3,-1.7994147E-2,1.7504565E-3,2.3369808E-3,-9.277607E-3,-1.7065639E-2,-2.5898648E-2,-2.3367736E-2,-3.9182816E-2,-4.3993004E-2,-5.6076083E-2],"split_indices":[5,3,3,5,5,3,5,3,5,5,5,3,5,3,3,0,0,0,0,0,0,0,0,0,0,0,0,0,0,0,0],"split_type":[0,0,0,0,0,0,0,0,0,0,0,0,0,0,0,0,0,0,0,0,0,0,0,0,0,0,0,0,0,0,0],"sum_hessian":[2.9572768E6,2.146976E6,8.103007E5,1.6200201E6,5.269559E5,6.02366E5,2.0793473E5,7.839401E5,8.3608E5,2.1057306E5,3.163828E5,4.0806247E5,1.9430352E5,7.680888E4,1.3112586E5,2.7443666E5,5.095035E5,3.8046416E5,4.556158E5,1.3469766E4,1.971033E5,1.7520781E5,1.4117498E5,1.08785414E5,2.9927703E5,1.1397539E5,8.032812E4,2.6470695E4,5.0338184E4,3.764524E4,9.3480625E4],"tree_param":{"num_deleted":"0","num_feature":"47","num_nodes":"31","size_leaf_vector":"1"}},{"base_weights":[-5.527971E-4,6.83325E-2,-1.2951604E-1,1.2797536E-1,2.8376725E-2,-6.874581E-2,-3.113128E-1,2.1204641E-1,1.0679064E-1,6.193652E-3,1.2009614E-1,-1.1998473E-2,-1.15643375E-1,-1.690582E-1,-3.888223E-1,3.0339379E-2,2.0879017E-2,2.8011087E-2,1.1077255E-2,6.67656E-3,-1.7239511E-2,1.5216736E-2,1.1508083E-2,1.2142166E-2,-3.2127616E-3,-5.923329E-3,-1.7176552E-2,-1.6630841E-2,-2.3794988E-2,-3.6483698E-2,-4.970039E-2],"categories":[],"categories_nodes":[],"categories_segments":[],"categories_sizes":[],"default_left":[0,0,0,0,0,0,0,0,0,0,0,0,0,0,0,0,0,0,0,0,0,0,0,0,0,0,0,0,0,0,0],"id":16,"left_children":[1,3,5,7,9,11,13,15,17,19,21,23,25,27,29,-1,-1,-1,-1,-1,-1,-1,-1,-1,-1,-1,-1,-1,-1,-1,-1],"loss_changes":[2.6172857E4,4.576457E3,1.1332572E4,1.372083E3,2.3398076E3,2.0459883E3,2.8334941E3,2.4609424E2,9.4603076E2,7.3392476E3,5.125E1,6.344488E2,8.76313E2,8.393848E1,4.8459375E2,0E0,0E0,0E0,0E0,0E0,0E0,0E0,0E0,0E0,0E0,0E0,0E0,0E0,0E0,0E0,0E0],"parents":[2147483647,0,0,1,1,2,2,3,3,4,4,5,5,6,6,7,7,8,8,9,9,10,10,11,11,12,12,13,13,14,14],"right_children":[2,4,6,8,10,12,14,16,18,20,22,24,26,28,30,-1,-1,-1,-1,-1,-1,-1,-1,-1,-1,-1,-1,-1,-1,-1,-1],"split_conditions":[6.7882544E2,3.909578E4,5.9228723E4,1.6051044E4,6.783939E2,3.0692695E4,7.041037E2,9.849214E3,5.4255975E2,6.4956323E2,4.204679E3,9.849214E3,7.068349E2,6.926486E2,7.2591046E2,3.0339379E-2,2.0879017E-2,2.8011087E-2,1.1077255E-2,6.67656E-3,-1.7239511E-2,1.5216736E-2,1.1508083E-2,1.2142166E-2,-3.2127616E-3,-5.923329E-3,-1.7176552E-2,-1.6630841E-2,-2.3794988E-2,-3.6483698E-2,-4.970039E-2],"split_indices":[5,3,3,3,5,3,5,3,5,5,27,3,5,5,5,0,0,0,0,0,0,0,0,0,0,0,0,0,0,0,0],"split_type":[0,0,0,0,0,0,0,0,0,0,0,0,0,0,0,0,0,0,0,0,0,0,0,0,0,0,0,0,0,0,0],"sum_hessian":[2.946174E6,1.9203994E6,1.0257746E6,7.704017E5,1.1499976E6,7.6878875E5,2.5698592E5,1.5505611E5,6.1534556E5,9.260308E5,2.2396686E5,3.4786447E5,4.2092425E5,9.063852E4,1.6634739E5,6.1577266E4,9.347885E4,4.8328023E4,5.6701756E5,6.953775E5,2.3065328E5,1.4765319E5,7.631367E4,4.1202805E4,3.0666166E5,1.3992344E5,2.810008E5,5.25493E4,3.8089223E4,5.6966613E4,1.0938078E5],"tree_param":{"num_deleted":"0","num_feature":"47","num_nodes":"31","size_leaf_vector":"1"}},{"base_weights":[-3.058572E-4,6.0707796E-2,-1.15000844E-1,8.70807E-2,-1.43011175E-2,-4.5183767E-2,-2.4606983E-1,1.6849577E-1,7.001865E-2,-4.083079E-2,9.53897E-2,2.7937822E-2,-6.672845E-2,-1.5262797E-1,-3.256423E-1,2.6770081E-2,1.6857203E-2,2.1786235E-2,6.950133E-3,1.2732248E-3,-2.5591472E-2,1.1558196E-2,1.9004656E-3,1.1092231E-2,3.0921106E-4,-7.922316E-4,-1.0247607E-2,-1.2040813E-2,-2.3109695E-2,-2.7298592E-2,-4.616772E-2],"categories":[],"categories_nodes":[],"categories_segments":[],"categories_sizes":[],"default_left":[0,0,0,0,0,0,0,0,0,0,0,0,0,0,0,0,0,0,0,0,0,0,0,0,0,0,0,0,0,0,0],"id":17,"left_children":[1,3,5,7,9,11,13,15,17,19,21,23,25,27,29,-1,-1,-1,-1,-1,-1,-1,-1,-1,-1,-1,-1,-1,-1,-1,-1],"loss_changes":[2.0547064E4,3.7914087E3,9.329822E3,1.9697734E3,1.4508806E3,1.047972E3,2.6346309E3,3.5598926E2,1.4047402E3,3.7309043E3,3.1408508E1,2.5843384E2,6.610298E2,3.6948413E2,1.244668E3,0E0,0E0,0E0,0E0,0E0,0E0,0E0,0E0,0E0,0E0,0E0,0E0,0E0,0E0,0E0,0E0],"parents":[2147483647,0,0,1,1,2,2,3,3,4,4,5,5,6,6,7,7,8,8,9,9,10,10,11,11,12,12,13,13,14,14],"right_children":[2,4,6,8,10,12,14,16,18,20,22,24,26,28,30,-1,-1,-1,-1,-1,-1,-1,-1,-1,-1,-1,-1,-1,-1,-1,-1],"split_conditions":[6.7882544E2,6.880426E4,4.8467E4,2.0077664E4,6.783939E2,1.9406188E4,7.142346E2,6.0003796E2,5.4255975E2,6.51392E2,9.0911164E4,9.849214E3,7.0142584E2,7.23781E4,6.712919E4,2.6770081E-2,1.6857203E-2,2.1786235E-2,6.950133E-3,1.2732248E-3,-2.5591472E-2,1.1558196E-2,1.9004656E-3,1.1092231E-2,3.0921106E-4,-7.922316E-4,-1.0247607E-2,-1.2040813E-2,-2.3109695E-2,-2.7298592E-2,-4.616772E-2],"split_indices":[5,3,3,3,5,3,5,5,5,5,12,3,5,3,3,0,0,0,0,0,0,0,0,0,0,0,0,0,0,0,0],"split_type":[0,0,0,0,0,0,0,0,0,0,0,0,0,0,0,0,0,0,0,0,0,0,0,0,0,0,0,0,0,0,0],"sum_hessian":[2.9361485E6,1.9165909E6,1.0195577E6,1.4180194E6,4.985715E5,6.652157E5,3.5434197E5,2.4568319E5,1.1723361E6,4.0147253E5,9.709898E4,1.5139348E5,5.1382222E5,1.6296972E5,1.9137227E5,6.7389125E4,1.7829406E5,9.362347E4,1.0787128E6,3.1155278E5,8.991975E4,9.2317625E4,4.781353E3,4.123029E4,1.1016319E5,1.355778E5,3.7824444E5,7.91674E4,8.380232E4,8.452247E4,1.0684979E5],"tree_param":{"num_deleted":"0","num_feature":"47","num_nodes":"31","size_leaf_vector":"1"}},{"base_weights":[-6.9041096E-4,4.3080494E-2,-1.2767032E-1,8.9407876E-2,7.730241E-3,-7.0125565E-2,-2.9636434E-1,1.3026825E-1,5.5397507E-2,4.9804896E-2,-3.268061E-2,-4.368181E-2,-1.3824485E-1,-2.2660807E-1,-3.426724E-1,3.444467E-2,1.4200753E-2,1.1543741E-4,1.15921395E-2,2.655568E-2,4.7402573E-3,-1.2205175E-2,2.7674488E-3,3.591723E-3,-6.6414187E-3,-1.3128908E-2,-1.974816E-2,-1.4540271E-2,-3.2586597E-2,-4.8333533E-2,-3.700025E-2],"categories":[],"categories_nodes":[],"categories_segments":[],"categories_sizes":[],"default_left":[0,0,0,0,0,0,0,0,0,0,0,0,0,0,0,0,0,0,0,0,0,0,0,0,0,0,0,0,0,0,0],"id":18,"left_children":[1,3,5,7,9,11,13,15,17,19,21,23,25,27,29,-1,-1,-1,-1,-1,-1,-1,-1,-1,-1,-1,-1,-1,-1,-1,-1],"loss_changes":[1.626476E4,3.5639333E3,7.2820576E3,1.3088804E3,2.0987136E3,1.0075676E3,6.1627344E2,5.717261E2,1.2410016E3,9.7344055E2,2.574498E3,4.0522443E2,1.2526318E2,4.1605322E2,2.0345312E2,0E0,0E0,0E0,0E0,0E0,0E0,0E0,0E0,0E0,0E0,0E0,0E0,0E0,0E0,0E0,0E0],"parents":[2147483647,0,0,1,1,2,2,3,3,4,4,5,5,6,6,7,7,8,8,9,9,10,10,11,11,12,12,13,13,14,14],"right_children":[2,4,6,8,10,12,14,16,18,20,22,24,26,28,30,-1,-1,-1,-1,-1,-1,-1,-1,-1,-1,-1,-1,-1,-1,-1,-1],"split_conditions":[6.99659E2,4.2620883E4,5.7849277E4,6.400877E2,6.420161E2,4.3573586E4,7.2591046E2,5.01677E2,6.783939E2,5.01677E2,6.783939E2,1.5107857E4,7.4448395E2,7.2734484E4,3E0,3.444467E-2,1.4200753E-2,1.1543741E-4,1.15921395E-2,2.655568E-2,4.7402573E-3,-1.2205175E-2,2.7674488E-3,3.591723E-3,-6.6414187E-3,-1.3128908E-2,-1.974816E-2,-1.4540271E-2,-3.2586597E-2,-4.8333533E-2,-3.700025E-2],"split_indices":[5,26,26,5,5,26,5,5,5,5,5,26,5,26,34,0,0,0,0,0,0,0,0,0,0,0,0,0,0,0,0],"split_type":[0,0,0,0,0,0,0,0,0,0,0,0,0,0,0,0,0,0,0,0,0,0,0,0,0,0,0,0,0,0,0],"sum_hessian":[2.9263538E6,2.1762018E6,7.5015206E5,9.41864E5,1.2343378E6,5.5934894E5,1.9080314E5,4.2784466E5,5.1401934E5,6.047199E5,6.296178E5,4.029329E5,1.56416E5,7.613016E4,1.1467299E5,1.9742031E4,4.0810262E5,2.3092306E5,2.8309628E5,2.8999904E4,5.7572E5,2.7604E5,3.535778E5,6.167483E4,3.412581E5,8.711552E4,6.930048E4,2.6403705E4,4.972645E4,2.8452848E4,8.622014E4],"tree_param":{"num_deleted":"0","num_feature":"47","num_nodes":"31","size_leaf_vector":"1"}},{"base_weights":[-2.733498E-4,4.90443E-2,-9.3623325E-2,7.048167E-2,-1.52647905E-2,-4.87171E-2,-2.342085E-1,1.4065023E-1,5.6111794E-2,-3.8874928E-2,8.1973895E-2,-1.8721035E-2,-9.821977E-2,-1.5755317E-1,-3.2021865E-1,2.384278E-2,1.3908259E-2,2.7574554E-2,5.984298E-3,2.6324243E-4,-2.2798816E-2,9.027101E-3,2.0148847E-2,9.138153E-3,-3.2456005E-3,-6.723921E-3,-1.4658503E-2,-1.4293947E-2,-2.5751797E-2,-2.9771069E-2,-3.97336E-2],"categories":[],"categories_nodes":[],"categories_segments":[],"categories_sizes":[],"default_left":[0,0,0,0,0,0,0,0,0,0,0,0,0,0,0,0,0,0,0,0,0,0,0,0,0,0,0,0,0,0,0],"id":19,"left_children":[1,3,5,7,9,11,13,15,17,19,21,23,25,27,29,-1,-1,-1,-1,-1,-1,-1,-1,-1,-1,-1,-1,-1,-1,-1,-1],"loss_changes":[1.3434672E4,2.6323486E3,6.3684346E3,1.443939E3,1.0959589E3,1.1352617E3,1.610081E3,3.2909033E2,9.91782E2,2.486629E3,3.646112E1,4.2714807E2,3.2527173E2,2.857146E2,1.6021973E2,0E0,0E0,0E0,0E0,0E0,0E0,0E0,0E0,0E0,0E0,0E0,0E0,0E0,0E0,0E0,0E0],"parents":[2147483647,0,0,1,1,2,2,3,3,4,4,5,5,6,6,7,7,8,8,9,9,10,10,11,11,12,12,13,13,14,14],"right_children":[2,4,6,8,10,12,14,16,18,20,22,24,26,28,30,-1,-1,-1,-1,-1,-1,-1,-1,-1,-1,-1,-1,-1,-1,-1,-1],"split_conditions":[6.7882544E2,7.055259E4,5.9228723E4,2.107608E4,6.783939E2,3.8489484E4,7.190006E2,9.849214E3,5.01677E2,6.5321686E2,2.402E1,9.849214E3,7.132842E2,7.0231506E2,6.9968375E4,2.384278E-2,1.3908259E-2,2.7574554E-2,5.984298E-3,2.6324243E-4,-2.2798816E-2,9.027101E-3,2.0148847E-2,9.138153E-3,-3.2456005E-3,-6.723921E-3,-1.4658503E-2,-1.4293947E-2,-2.5751797E-2,-2.9771069E-2,-3.97336E-2],"split_indices":[5,3,3,26,5,3,5,3,5,5,11,3,5,5,3,0,0,0,0,0,0,0,0,0,0,0,0,0,0,0,0],"split_type":[0,0,0,0,0,0,0,0,0,0,0,0,0,0,0,0,0,0,0,0,0,0,0,0,0,0,0,0,0,0,0],"sum_hessian":[2.9181672E6,1.9094092E6,1.00875794E6,1.43204E6,4.773693E5,7.645454E5,2.4421253E5,2.4341728E5,1.1886226E6,3.8410653E5,9.3262766E4,4.7607178E5,2.8847362E5,1.29130055E5,1.15082484E5,5.960906E4,1.8380822E5,2.9448809E4,1.1591739E6,3.0449734E5,7.960918E4,8.9098016E4,4.164756E3,4.1154234E4,4.3491753E5,1.1805242E5,1.704212E5,8.392751E4,4.5202543E4,2.9224736E4,8.585774E4],"tree_param":{"num_deleted":"0","num_feature":"47","num_nodes":"31","size_leaf_vector":"1"}},{"base_weights":[-3.3399888E-4,1.5270804E-2,-1.1041064E-1,3.5938457E-2,-5.5943284E-2,-5.348311E-2,-2.4430038E-1,8.823158E-2,1.9849438E-2,4.194803E-2,-7.5096324E-2,-1.1301221E-2,-7.561026E-2,-1.8489365E-1,-2.7699217E-1,1.8102778E-2,8.501429E-3,1.0396202E-2,9.884186E-4,6.236783E-3,1.5503006E-3,-6.039603E-3,-1.1628198E-2,9.614695E-3,-2.307037E-3,-7.5643533E-3,-1.2229533E-2,-1.9745491E-2,-3.4250468E-2,-4.6733595E-2,-3.1528257E-2],"categories":[],"categories_nodes":[],"categories_segments":[],"categories_sizes":[],"default_left":[0,0,0,0,0,0,0,0,0,0,0,0,0,0,0,0,0,0,0,0,0,0,0,0,0,0,0,0,0,0,0],"id":20,"left_children":[1,3,5,7,9,11,13,15,17,19,21,23,25,27,29,-1,-1,-1,-1,-1,-1,-1,-1,-1,-1,-1,-1,-1,-1,-1,-1],"loss_changes":[4.999392E3,3.7518472E3,2.7543462E3,1.6622576E3,1.0750612E3,2.366643E2,2.0932568E2,4.7306006E2,1.193231E3,3.1489166E1,2.7697168E2,7.020938E1,5.178772E1,6.2798218E1,4.888086E1,0E0,0E0,0E0,0E0,0E0,0E0,0E0,0E0,0E0,0E0,0E0,0E0,0E0,0E0,0E0,0E0],"parents":[2147483647,0,0,1,1,2,2,3,3,4,4,5,5,6,6,7,7,8,8,9,9,10,10,11,11,12,12,13,13,14,14],"right_children":[2,4,6,8,10,12,14,16,18,20,22,24,26,28,30,-1,-1,-1,-1,-1,-1,-1,-1,-1,-1,-1,-1,-1,-1,-1,-1],"split_conditions":[3E0,7.23781E4,4.8467E4,2.3516404E4,1E0,2.3516404E4,6.1071867E4,9.849214E3,1E0,3.6402126E1,2E0,4.80919E3,4.3156887E4,4.9942654E1,8.9193036E2,1.8102778E-2,8.501429E-3,1.0396202E-2,9.884186E-4,6.236783E-3,1.5503006E-3,-6.039603E-3,-1.1628198E-2,9.614695E-3,-2.307037E-3,-7.5643533E-3,-1.2229533E-2,-1.9745491E-2,-3.4250468E-2,-4.6733595E-2,-3.1528257E-2],"split_indices":[34,3,3,3,34,3,3,3,34,9,34,3,3,9,27,0,0,0,0,0,0,0,0,0,0,0,0,0,0,0,0],"split_type":[0,0,0,0,0,0,0,0,0,0,0,0,0,0,0,0,0,0,0,0,0,0,0,0,0,0,0,0,0,0,0],"sum_hessian":[2.9104722E6,2.5491042E6,3.61368E5,1.9757154E6,5.733889E5,2.5356014E5,1.0780785E5,4.6484728E5,1.5108681E6,9.382867E4,4.7956022E5,8.72443E4,1.6631584E5,3.827043E4,6.953742E4,8.4703516E4,3.8014378E5,2.1162611E5,1.299242E6,6.653648E4,2.7292193E4,2.4913427E5,2.3042595E5,7.2736626E3,7.997063E4,1.2281512E5,4.350073E4,3.3692375E4,4.578056E3,2.9855818E3,6.6551836E4],"tree_param":{"num_deleted":"0","num_feature":"47","num_nodes":"31","size_leaf_vector":"1"}},{"base_weights":[-3.6781456E-4,1.3364571E-2,-9.7768866E-2,3.246144E-2,-4.7678508E-2,-4.6316E-2,-2.2090308E-1,9.806368E-2,2.2046214E-2,3.742262E-2,-6.431728E-2,-4.0364387E-3,-6.404545E-2,-1.6512036E-1,-2.519639E-1,1.8299237E-2,9.233831E-3,8.482044E-3,1.082298E-3,5.981079E-3,2.2996392E-3,-4.946046E-3,-1.0211091E-2,-1.8245835E-2,2.1636202E-4,-8.968425E-3,-4.9253935E-3,-2.1537445E-2,-1.2229696E-2,-3.0455817E-2,-2.1420073E-2],"categories":[],"categories_nodes":[],"categories_segments":[],"categories_sizes":[],"default_left":[0,0,0,0,0,0,0,0,0,0,0,0,0,0,0,0,0,0,0,0,0,0,0,0,0,0,0,0,0,0,0],"id":21,"left_children":[1,3,5,7,9,11,13,15,17,19,21,23,25,27,29,-1,-1,-1,-1,-1,-1,-1,-1,-1,-1,-1,-1,-1,-1,-1,-1],"loss_changes":[3.885896E3,2.9682417E3,2.2744116E3,1.3251791E3,8.591554E2,1.897915E2,1.83271E2,2.935708E2,1.0858613E3,2.4590347E1,2.6013965E2,6.751607E1,5.0775818E1,4.5862305E1,4.6683594E1,0E0,0E0,0E0,0E0,0E0,0E0,0E0,0E0,0E0,0E0,0E0,0E0,0E0,0E0,0E0,0E0],"parents":[2147483647,0,0,1,1,2,2,3,3,4,4,5,5,6,6,7,7,8,8,9,9,10,10,11,11,12,12,13,13,14,14],"right_children":[2,4,6,8,10,12,14,16,18,20,22,24,26,28,30,-1,-1,-1,-1,-1,-1,-1,-1,-1,-1,-1,-1,-1,-1,-1,-1],"split_conditions":[3E0,6.9968375E4,4.8467E4,1E0,1E0,2.1683154E4,6.1071867E4,2.411095E4,2.1368723E4,3.916716E1,2E0,7.2E1,1.4E1,5E0,1.8931761E5,1.8299237E-2,9.233831E-3,8.482044E-3,1.082298E-3,5.981079E-3,2.2996392E-3,-4.946046E-3,-1.0211091E-2,-1.8245835E-2,2.1636202E-4,-8.968425E-3,-4.9253935E-3,-2.1537445E-2,-1.2229696E-2,-3.0455817E-2,-2.1420073E-2],"split_indices":[34,3,3,34,34,3,3,3,3,0,34,22,45,41,33,0,0,0,0,0,0,0,0,0,0,0,0,0,0,0,0],"split_type":[0,0,0,0,0,0,0,0,0,0,0,0,0,0,0,0,0,0,0,0,0,0,0,0,0,0,0,0,0,0,0],"sum_hessian":[2.905235E6,2.5462455E6,3.5898934E5,1.9394909E6,6.067547E5,2.5319194E5,1.05797414E5,2.6573034E5,1.6737605E6,9.922983E4,5.0752484E5,7.480502E4,1.7838692E5,3.784222E4,6.7955195E4,6.3298496E4,2.0243183E5,3.345581E5,1.3392025E6,5.5207098E4,4.4022734E4,2.6398166E5,2.4354319E5,2.7758535E3,7.2029164E4,1.1099161E5,6.739531E4,2.8273E4,9.569221E3,5.906388E4,8.891316E3],"tree_param":{"num_deleted":"0","num_feature":"47","num_nodes":"31","size_leaf_vector":"1"}},{"base_weights":[-1.4408231E-4,3.362907E-2,-3.2427344E-2,5.1200334E-2,-2.1514617E-2,-1.7933865E-3,-8.5213855E-2,1.3339199E-1,4.394642E-2,3.131103E-2,-4.1382767E-2,1.25518525E-2,-4.0687505E-2,-5.8659926E-2,-1.975784E-1,2.1247776E-2,1.3897212E-2,9.196311E-3,3.728257E-3,3.9935033E-3,-6.1934697E-3,-7.5673996E-3,-4.079204E-3,7.5514773E-3,2.7422406E-4,-1.1784262E-3,-7.104872E-3,-4.199132E-3,-9.084968E-3,-1.5649997E-2,-2.5813416E-2],"categories":[],"categories_nodes":[],"categories_segments":[],"categories_sizes":[],"default_left":[0,0,0,0,0,0,0,0,0,0,0,0,0,0,0,0,0,0,0,0,0,0,0,0,0,0,0,0,0,0,0],"id":22,"left_children":[1,3,5,7,9,11,13,15,17,19,21,23,25,27,29,-1,-1,-1,-1,-1,-1,-1,-1,-1,-1,-1,-1,-1,-1,-1,-1],"loss_changes":[3.162152E3,1.3733948E3,2.3978193E3,6.4086206E2,3.5948453E2,5.2352014E2,1.6247104E3,5.9414673E1,4.1232373E2,2.4253654E1,3.707837E1,3.6638245E2,1.5803778E2,1.9374426E2,1.609707E2,0E0,0E0,0E0,0E0,0E0,0E0,0E0,0E0,0E0,0E0,0E0,0E0,0E0,0E0,0E0,0E0],"parents":[2147483647,0,0,1,1,2,2,3,3,4,4,5,5,6,6,7,7,8,8,9,9,10,10,11,11,12,12,13,13,14,14],"right_children":[2,4,6,8,10,12,14,16,18,20,22,24,26,28,30,-1,-1,-1,-1,-1,-1,-1,-1,-1,-1,-1,-1,-1,-1,-1,-1],"split_conditions":[2E0,7.23781E4,4.8467E4,1.4259165E4,1E0,3E0,3E0,5.7223E3,1E0,2.2342727E3,1.0741611E5,1.6859777E4,2.557775E4,7.1154914E4,5.7467613E4,2.1247776E-2,1.3897212E-2,9.196311E-3,3.728257E-3,3.9935033E-3,-6.1934697E-3,-7.5673996E-3,-4.079204E-3,7.5514773E-3,2.7422406E-4,-1.1784262E-3,-7.104872E-3,-4.199132E-3,-9.084968E-3,-1.5649997E-2,-2.5813416E-2],"split_indices":[34,3,3,3,34,34,34,26,34,14,16,3,3,3,3,0,0,0,0,0,0,0,0,0,0,0,0,0,0,0,0],"split_type":[0,0,0,0,0,0,0,0,0,0,0,0,0,0,0,0,0,0,0,0,0,0,0,0,0,0,0,0,0,0,0],"sum_hessian":[2.900237E6,1.4174114E6,1.4828258E6,1.0748999E6,3.4251144E5,9.382979E5,5.445278E5,8.717152E4,9.877284E5,9.3612625E4,2.4889881E5,6.854759E5,2.5282202E5,4.4044388E5,1.04083945E5,1.8979803E4,6.819173E4,2.488368E5,7.3889156E5,9.034454E4,3.2680815E3,5.1998887E4,1.9689992E5,1.11533375E5,5.739425E5,1.0143231E5,1.513897E5,2.0460697E5,2.358369E5,2.9272572E4,7.4811375E4],"tree_param":{"num_deleted":"0","num_feature":"47","num_nodes":"31","size_leaf_vector":"1"}},{"base_weights":[-2.8826014E-4,2.977627E-2,-2.9048048E-2,7.2721615E-2,1.12077305E-2,-1.8688132E-3,-7.6061755E-2,1.3888907E-1,6.396869E-2,2.7093904E-2,-1.8756112E-2,1.1048784E-2,-3.6938883E-2,-5.2282788E-2,-1.7806308E-1,2.0882249E-2,1.4626281E-2,1.1904882E-2,5.978137E-3,6.431725E-3,2.025889E-3,3.417266E-3,-4.284876E-3,6.7029996E-3,2.3171313E-4,1.4786967E-3,-5.5511324E-3,-3.928513E-3,-8.313414E-3,-1.4277582E-2,-2.3220507E-2],"categories":[],"categories_nodes":[],"categories_segments":[],"categories_sizes":[],"default_left":[0,0,0,0,0,0,0,0,0,0,0,0,0,0,0,0,0,0,0,0,0,0,0,0,0,0,0,0,0,0,0],"id":23,"left_children":[1,3,5,7,9,11,13,15,17,19,21,23,25,27,29,-1,-1,-1,-1,-1,-1,-1,-1,-1,-1,-1,-1,-1,-1,-1,-1],"loss_changes":[2.5035872E3,1.1288723E3,1.8909572E3,2.4747876E2,4.704486E2,4.2481635E2,1.3148936E3,2.6484802E1,1.818153E2,1.7629099E2,2.989549E2,2.8943567E2,1.3590695E2,1.5648108E2,1.23239746E2,0E0,0E0,0E0,0E0,0E0,0E0,0E0,0E0,0E0,0E0,0E0,0E0,0E0,0E0,0E0,0E0],"parents":[2147483647,0,0,1,1,2,2,3,3,4,4,5,5,6,6,7,7,8,8,9,9,10,10,11,11,12,12,13,13,14,14],"right_children":[2,4,6,8,10,12,14,16,18,20,22,24,26,28,30,-1,-1,-1,-1,-1,-1,-1,-1,-1,-1,-1,-1,-1,-1,-1,-1],"split_conditions":[2E0,3.2380217E4,4.8467E4,1.0669775E4,7.23781E4,3E0,3E0,1E0,1E0,1E0,1E0,1.6859777E4,1.6859777E4,7.493207E4,5.7467613E4,2.0882249E-2,1.4626281E-2,1.1904882E-2,5.978137E-3,6.431725E-3,2.025889E-3,3.417266E-3,-4.284876E-3,6.7029996E-3,2.3171313E-4,1.4786967E-3,-5.5511324E-3,-3.928513E-3,-8.313414E-3,-1.4277582E-2,-2.3220507E-2],"split_indices":[34,3,3,3,3,34,34,34,34,34,34,3,3,3,3,0,0,0,0,0,0,0,0,0,0,0,0,0,0,0,0],"split_type":[0,0,0,0,0,0,0,0,0,0,0,0,0,0,0,0,0,0,0,0,0,0,0,0,0,0,0,0,0,0,0],"sum_hessian":[2.8954915E6,1.4156344E6,1.4798572E6,4.2732156E5,9.883128E5,9.3773906E5,5.421182E5,4.9922086E4,3.7739947E5,6.4588094E5,3.4243188E5,6.8531356E5,2.524255E5,4.396311E5,1.0248708E5,1.2048611E4,3.7873477E4,9.258079E4,2.848187E5,1.6447438E5,4.814066E5,9.36194E4,2.4881247E5,1.1140311E5,5.7391044E5,4.5224555E4,2.0720095E5,2.2448875E5,2.1514233E5,2.9026027E4,7.346105E4],"tree_param":{"num_deleted":"0","num_feature":"47","num_nodes":"31","size_leaf_vector":"1"}},{"base_weights":[-2.5567767E-4,3.5015646E-2,-6.766271E-2,1.6136112E-2,1.1255669E-1,-4.037218E-2,-1.7070033E-1,4.4973645E-2,-9.946261E-2,2.476916E-1,1.1065425E-1,-1.9945385E-2,-7.936392E-2,-8.2814895E-2,-2.1957685E-1,3.412024E-2,4.8305653E-3,-9.304116E-3,-1.7462647E-2,2.7554965E-2,9.362248E-2,1.691874E-2,1.2522821E-2,9.6811267E-4,-3.7657816E-3,-5.2903118E-3,-1.0895897E-2,-9.944515E-3,9.77029E-3,-2.8588895E-2,-2.0909479E-2],"categories":[],"categories_nodes":[],"categories_segments":[],"categories_sizes":[],"default_left":[0,0,0,0,0,0,0,0,0,0,0,0,0,0,0,0,0,0,0,0,0,0,0,0,0,0,0,0,0,0,0],"id":24,"left_children":[1,3,5,7,9,11,13,15,17,19,21,23,25,27,29,-1,-1,-1,-1,-1,-1,-1,-1,-1,-1,-1,-1,-1,-1,-1,-1],"loss_changes":[6.8739536E3,2.7786162E3,2.792731E3,5.0883823E3,9.551709E1,6.2539233E2,8.9331396E2,1.031908E3,3.0027466E2,3.010556E1,3.674951E1,1.8165588E2,1.3166064E2,3.4479126E1,1.4017627E2,0E0,0E0,0E0,0E0,0E0,0E0,0E0,0E0,0E0,0E0,0E0,0E0,0E0,0E0,0E0,0E0],"parents":[2147483647,0,0,1,1,2,2,3,3,4,4,5,5,6,6,7,7,8,8,9,9,10,10,11,11,12,12,13,13,14,14],"right_children":[2,4,6,8,10,12,14,16,18,20,22,24,26,28,30,-1,-1,-1,-1,-1,-1,-1,-1,-1,-1,-1,-1,-1,-1,-1,-1],"split_conditions":[6.7882544E2,6.783939E2,6.2992188E4,6.5593915E2,4.80919E3,4.1255855E4,7.0231506E2,4.6980414E2,6.348647E4,1.6580133E2,1.6859777E4,7.059366E2,7.0231506E2,1.4283784E4,7.469125E2,3.412024E-2,4.8305653E-3,-9.304116E-3,-1.7462647E-2,2.7554965E-2,9.362248E-2,1.691874E-2,1.2522821E-2,9.6811267E-4,-3.7657816E-3,-5.2903118E-3,-1.0895897E-2,-9.944515E-3,9.77029E-3,-2.8588895E-2,-2.0909479E-2],"split_indices":[5,5,3,5,3,3,5,5,3,32,3,5,5,4,5,0,0,0,0,0,0,0,0,0,0,0,0,0,0,0,0],"split_type":[0,0,0,0,0,0,0,0,0,0,0,0,0,0,0,0,0,0,0,0,0,0,0,0,0,0,0,0,0,0,0],"sum_hessian":[2.8912078E6,1.8980415E6,9.931664E5,1.5263984E6,3.7164312E5,7.851998E5,2.0796656E5,1.2216446E6,3.0475375E5,5.1575913E3,3.6648553E5,5.1526628E5,2.6993356E5,7.4324875E4,1.3364169E5,1.6457414E4,1.2051872E6,2.206441E5,8.410967E4,5.06355E3,9.404165E1,2.7784293E4,3.3870122E5,1.5766039E5,3.5760588E5,8.066779E4,1.8926578E5,7.310824E4,1.2166284E3,8.007662E4,5.3565066E4],"tree_param":{"num_deleted":"0","num_feature":"47","num_nodes":"31","size_leaf_vector":"1"}},{"base_weights":[-3.1573363E-4,3.085515E-2,-6.0014002E-2,1.424727E-2,9.911673E-2,-2.5067113E-2,-7.3959224E-2,4.3940302E-2,-7.555416E-2,9.7812206E-2,1.908141E-1,-3.3242006E-2,1.9595461E-2,-1.1290081E-1,-5.6461845E-2,2.3339799E-2,4.5870445E-3,-4.319444E-3,-1.2024081E-2,1.1074735E-2,1.5932815E-2,2.4322104E-2,-2.0755025E-2,-4.0171314E-3,1.3367966E-2,5.6093815E-3,-2.8809968E-3,-1.0362422E-2,-2.0155732E-2,-2.6118374E-4,-7.638063E-3],"categories":[],"categories_nodes":[],"categories_segments":[],"categories_sizes":[],"default_left":[0,0,0,0,0,0,0,0,0,0,0,0,0,0,0,0,0,0,0,0,0,0,0,0,0,0,0,0,0,0,0],"id":25,"left_children":[1,3,5,7,9,11,13,15,17,19,21,23,25,27,29,-1,-1,-1,-1,-1,-1,-1,-1,-1,-1,-1,-1,-1,-1,-1,-1],"loss_changes":[5.36993E3,2.1492812E3,4.82417E2,4.0659907E3,4.4360107E1,1.03087906E2,4.82104E2,8.019739E2,4.0625317E2,3.581299E1,3.565413E1,4.721643E1,5.5629086E1,3.1507153E2,2.4561072E2,0E0,0E0,0E0,0E0,0E0,0E0,0E0,0E0,0E0,0E0,0E0,0E0,0E0,0E0,0E0,0E0],"parents":[2147483647,0,0,1,1,2,2,3,3,4,4,5,5,6,6,7,7,8,8,9,9,10,10,11,11,12,12,13,13,14,14],"right_children":[2,4,6,8,10,12,14,16,18,20,22,24,26,28,30,-1,-1,-1,-1,-1,-1,-1,-1,-1,-1,-1,-1,-1,-1,-1,-1],"split_conditions":[6.7882544E2,6.783939E2,7.0142584E2,6.504818E2,1.8030485E0,3.6987597E-1,4.362723E-2,4.8937143E2,6.621694E2,9.7297156E-1,2.920004E3,1.918855E4,1.6126912E3,1.18156525E2,1.8609985E2,2.3339799E-2,4.5870445E-3,-4.319444E-3,-1.2024081E-2,1.1074735E-2,1.5932815E-2,2.4322104E-2,-2.0755025E-2,-4.0171314E-3,1.3367966E-2,5.6093815E-3,-2.8809968E-3,-1.0362422E-2,-2.0155732E-2,-2.6118374E-4,-7.638063E-3],"split_indices":[5,5,5,5,24,24,37,5,5,37,36,4,14,36,36,0,0,0,0,0,0,0,0,0,0,0,0,0,0,0,0],"split_type":[0,0,0,0,0,0,0,0,0,0,0,0,0,0,0,0,0,0,0,0,0,0,0,0,0,0,0,0,0,0,0],"sum_hessian":[2.8857415E6,1.8958448E6,9.898969E5,1.5248529E6,3.709919E5,2.823435E5,7.075534E5,1.1459444E6,3.7890844E5,3.657901E5,5.2018105E3,2.3866019E5,4.3683324E4,2.1935616E5,4.8819722E5,3.1656922E4,1.1142875E6,1.5963581E5,2.1927261E5,3.4400494E5,2.1785156E4,4.9537983E3,2.480122E2,2.3653342E5,2.126761E3,2.653628E4,1.7147045E4,1.5765606E5,6.1700086E4,7.135221E4,4.16845E5],"tree_param":{"num_deleted":"0","num_feature":"47","num_nodes":"31","size_leaf_vector":"1"}},{"base_weights":[-2.2811226E-4,2.7255455E-2,-5.2935045E-2,1.23985475E-2,8.834428E-2,-2.7180891E-2,-1.3829073E-1,3.7033003E-2,-7.280552E-2,2.0304132E-1,8.675144E-2,-3.0521797E-3,-4.9102366E-2,-7.1280874E-2,-1.7966646E-1,8.719039E-3,2.3869853E-3,-6.707887E-3,-1.5311421E-2,2.2415128E-2,8.6457E-2,5.8269612E-3,1.0394749E-2,1.0118125E-2,-9.02749E-4,5.1499467E-4,-6.2348703E-3,-6.238162E-3,-1.1146631E-2,-1.5297796E-2,-2.3316223E-2],"categories":[],"categories_nodes":[],"categories_segments":[],"categories_sizes":[],"default_left":[0,0,0,0,0,0,0,0,0,0,0,0,0,0,0,0,0,0,0,0,0,0,0,0,0,0,0,0,0,0,0],"id":26,"left_children":[1,3,5,7,9,11,13,15,17,19,21,23,25,27,29,-1,-1,-1,-1,-1,-1,-1,-1,-1,-1,-1,-1,-1,-1,-1,-1],"loss_changes":[4.174441E3,1.7190647E3,2.1711343E3,3.1978984E3,6.767676E1,4.013211E2,6.347129E2,7.407335E2,3.0371606E2,2.7621536E1,3.6341064E1,1.5360144E2,9.709015E1,3.7899445E1,1.4276074E2,0E0,0E0,0E0,0E0,0E0,0E0,0E0,0E0,0E0,0E0,0E0,0E0,0E0,0E0,0E0,0E0],"parents":[2147483647,0,0,1,1,2,2,3,3,4,4,5,5,6,6,7,7,8,8,9,9,10,10,11,11,12,12,13,13,14,14],"right_children":[2,4,6,8,10,12,14,16,18,20,22,24,26,28,30,-1,-1,-1,-1,-1,-1,-1,-1,-1,-1,-1,-1,-1,-1,-1,-1],"split_conditions":[6.7882544E2,6.783939E2,5.9228723E4,6.5321686E2,4.80919E3,3.1533684E4,7.041037E2,3.2666951E4,7.559602E4,1.6580133E2,8.95821E3,4.80919E3,7.829648E2,6.926486E2,7.23781E4,8.719039E-3,2.3869853E-3,-6.707887E-3,-1.5311421E-2,2.2415128E-2,8.6457E-2,5.8269612E-3,1.0394749E-2,1.0118125E-2,-9.02749E-4,5.1499467E-4,-6.2348703E-3,-6.238162E-3,-1.1146631E-2,-1.5297796E-2,-2.3316223E-2],"split_indices":[5,5,3,5,3,3,5,3,3,32,33,3,13,5,3,0,0,0,0,0,0,0,0,0,0,0,0,0,0,0,0],"split_type":[0,0,0,0,0,0,0,0,0,0,0,0,0,0,0,0,0,0,0,0,0,0,0,0,0,0,0,0,0,0,0],"sum_hessian":[2.8817558E6,1.8940962E6,9.876594E5,1.5235641E6,3.705322E5,7.587308E5,2.2892858E5,1.1818614E6,3.4170275E5,5.0735244E3,3.6545866E5,3.611825E5,3.9754828E5,8.7393516E4,1.4153506E5,3.575438E5,8.243175E5,2.721658E5,6.953695E4,4.9817856E3,9.173863E1,2.5260928E4,3.4019772E5,1.7963023E4,3.4321947E5,3.1216379E4,3.663319E5,5.101234E4,3.6381176E4,4.3107387E4,9.842767E4],"tree_param":{"num_deleted":"0","num_feature":"47","num_nodes":"31","size_leaf_vector":"1"}},{"base_weights":[-2.5996772E-4,1.8646164E-2,-2.4946641E-2,3.8832247E-2,1.6644103E-3,-1.6650641E-2,-1.1059277E-1,9.756399E-2,3.1768896E-2,6.482315E-2,-1.980951E-3,2.214699E-2,-2.3790006E-2,-1.2629248E-1,-6.3976794E-2,1.5882108E-2,9.950276E-3,6.0448195E-3,2.9235147E-3,-6.2141316E-3,8.399504E-3,5.835956E-4,-2.4469527E-3,2.286152E-3,1.0536749E-2,-9.52696E-4,-4.727312E-3,-1.5948826E-2,-3.2392414E-3,-9.696098E-3,7.6874755E-3],"categories":[],"categories_nodes":[],"categories_segments":[],"categories_sizes":[],"default_left":[0,0,0,0,0,0,0,0,0,0,0,0,0,0,0,0,0,0,0,0,0,0,0,0,0,0,0,0,0,0,0],"id":27,"left_children":[1,3,5,7,9,11,13,15,17,19,21,23,25,27,29,-1,-1,-1,-1,-1,-1,-1,-1,-1,-1,-1,-1,-1,-1,-1,-1],"loss_changes":[1.3429255E3,5.585589E2,8.866457E2,3.0883667E2,2.037483E2,3.1512866E2,8.06427E1,3.72735E1,8.8937256E1,4.2694595E1,1.11810616E2,2.9931473E1,2.5313995E2,8.9080444E1,7.03923E1,0E0,0E0,0E0,0E0,0E0,0E0,0E0,0E0,0E0,0E0,0E0,0E0,0E0,0E0,0E0,0E0],"parents":[2147483647,0,0,1,1,2,2,3,3,4,4,5,5,6,6,7,7,8,8,9,9,10,10,11,11,12,12,13,13,14,14],"right_children":[2,4,6,8,10,12,14,16,18,20,22,24,26,28,30,-1,-1,-1,-1,-1,-1,-1,-1,-1,-1,-1,-1,-1,-1,-1,-1],"split_conditions":[4.8299332E4,2E0,3E0,1.4599945E4,9.724907E3,1E0,5E0,5.7223E3,1E0,8.303982E3,3E0,1.2308433E4,7.5221734E4,6.4711753E3,4.213888E4,1.5882108E-2,9.950276E-3,6.0448195E-3,2.9235147E-3,-6.2141316E-3,8.399504E-3,5.835956E-4,-2.4469527E-3,2.286152E-3,1.0536749E-2,-9.52696E-4,-4.727312E-3,-1.5948826E-2,-3.2392414E-3,-9.696098E-3,7.6874755E-3],"split_indices":[26,34,34,26,26,34,41,26,34,33,34,4,26,4,12,0,0,0,0,0,0,0,0,0,0,0,0,0,0,0,0],"split_type":[0,0,0,0,0,0,0,0,0,0,0,0,0,0,0,0,0,0,0,0,0,0,0,0,0,0,0,0,0,0,0],"sum_hessian":[2.8773082E6,1.6294244E6,1.247884E6,7.444733E5,8.8495106E5,1.1376849E6,1.1019916E5,7.992062E4,6.645527E5,4.828903E4,8.36662E5,1.7681462E5,9.6087025E5,8.243448E4,2.7764684E4,1.8657807E4,6.1262812E4,1.6340316E5,5.011495E5,2.8683726E3,4.542066E4,6.120061E5,2.2465592E5,1.7066638E5,6.148243E3,4.9978553E5,4.610847E5,7.415929E4,8.2751875E3,2.4150438E4,3.614246E3],"tree_param":{"num_deleted":"0","num_feature":"47","num_nodes":"31","size_leaf_vector":"1"}},{"base_weights":[-8.708568E-6,2.3387903E-2,-4.4990197E-2,9.982518E-3,7.8519784E-2,-2.4660448E-2,-1.238764E-1,2.928471E-2,-7.5613454E-2,1.1633611E-1,7.488302E-2,-9.2626475E-3,-5.2839685E-2,-6.074843E-2,-1.6201022E-1,2.72416E-2,3.091792E-3,-2.7847253E-3,-1.042839E-2,1.1809072E-2,1.854533E-2,2.4092205E-2,8.628701E-3,8.071492E-3,-1.4123536E-3,-3.2156818E-3,-7.3331497E-3,-3.2779757E-2,-6.8622315E-3,-2.1914583E-2,-1.3513087E-2],"categories":[],"categories_nodes":[],"categories_segments":[],"categories_sizes":[],"default_left":[0,0,0,0,0,0,0,0,0,0,0,0,0,0,0,0,0,0,0,0,0,0,0,0,0,0,0,0,0,0,0],"id":28,"left_children":[1,3,5,7,9,11,13,15,17,19,21,23,25,27,29,-1,-1,-1,-1,-1,-1,-1,-1,-1,-1,-1,-1,-1,-1,-1,-1],"loss_changes":[3.0257288E3,1.3977898E3,1.5776526E3,2.5136033E3,5.0866455E1,3.3938034E2,4.8523535E2,6.809486E2,2.0450305E2,2.0624847E1,2.7470581E1,1.15235954E2,7.1470215E1,2.8291168E1,1.5280396E2,0E0,0E0,0E0,0E0,0E0,0E0,0E0,0E0,0E0,0E0,0E0,0E0,0E0,0E0,0E0,0E0],"parents":[2147483647,0,0,1,1,2,2,3,3,4,4,5,5,6,6,7,7,8,8,9,9,10,10,11,11,12,12,13,13,14,14],"right_children":[2,4,6,8,10,12,14,16,18,20,22,24,26,28,30,-1,-1,-1,-1,-1,-1,-1,-1,-1,-1,-1,-1,-1,-1,-1,-1],"split_conditions":[6.7882544E2,6.783939E2,6.2992188E4,6.577411E2,1.6859777E4,4.0628965E4,7.032094E2,4.6980414E2,2.557775E4,1.5E1,8E0,4.80919E3,7.0142584E2,7.1226475E-3,7.519269E2,2.72416E-2,3.091792E-3,-2.7847253E-3,-1.042839E-2,1.1809072E-2,1.854533E-2,2.4092205E-2,8.628701E-3,8.071492E-3,-1.4123536E-3,-3.2156818E-3,-7.3331497E-3,-3.2779757E-2,-6.8622315E-3,-2.1914583E-2,-1.3513087E-2],"split_indices":[5,5,3,5,3,3,5,5,3,46,22,3,5,28,5,0,0,0,0,0,0,0,0,0,0,0,0,0,0,0,0],"split_type":[0,0,0,0,0,0,0,0,0,0,0,0,0,0,0,0,0,0,0,0,0,0,0,0,0,0,0,0,0,0,0],"sum_hessian":[2.8750335E6,1.8912971E6,9.837364E5,1.5213742E6,3.699229E5,7.821659E5,2.015705E5,1.2414284E6,2.799458E5,3.2451324E4,3.374716E5,5.0579106E5,2.763748E5,7.590971E4,1.2566079E5,1.5964914E4,1.2254635E6,6.0189297E4,2.1975652E5,2.422956E4,8.221763E3,1.5572446E3,3.3591434E5,1.7928938E4,4.8786212E5,8.015081E4,1.9622402E5,5.719219E2,7.533779E4,7.941545E4,4.624534E4],"tree_param":{"num_deleted":"0","num_feature":"47","num_nodes":"31","size_leaf_vector":"1"}},{"base_weights":[-1.7143082E-4,2.0377252E-2,-3.9741807E-2,8.390096E-3,6.969755E-2,-2.1943424E-2,-1.0933275E-1,2.984224E-2,-5.3512674E-2,1.6635072E-1,6.8369776E-2,-8.503375E-3,-4.7840323E-2,-6.413502E-2,-1.5585928E-1,1.8358124E-2,3.046387E-3,-4.736603E-3,-1.17836E-2,1.8323602E-2,7.5180255E-2,8.735986E-3,6.568149E-3,1.3439086E-3,-2.064151E-3,-3.0265567E-3,-6.651042E-3,-6.0070786E-3,-1.123292E-2,-2.5429014E-2,-1.2830487E-2],"categories":[],"categories_nodes":[],"categories_segments":[],"categories_sizes":[],"default_left":[0,0,0,0,0,0,0,0,0,0,0,0,0,0,0,0,0,0,0,0,0,0,0,0,0,0,0,0,0,0,0],"id":29,"left_children":[1,3,5,7,9,11,13,15,17,19,21,23,25,27,29,-1,-1,-1,-1,-1,-1,-1,-1,-1,-1,-1,-1,-1,-1,-1,-1],"loss_changes":[2.3343428E3,1.1171465E3,1.2153875E3,2.0186564E3,4.7403442E1,2.7197275E2,4.2025293E2,5.240124E2,2.3886536E2,2.0684372E1,2.9426025E1,9.5639694E1,5.4718567E1,4.1012787E1,2.8184863E2,0E0,0E0,0E0,0E0,0E0,0E0,0E0,0E0,0E0,0E0,0E0,0E0,0E0,0E0,0E0,0E0],"parents":[2147483647,0,0,1,1,2,2,3,3,4,4,5,5,6,6,7,7,8,8,9,9,10,10,11,11,12,12,13,13,14,14],"right_children":[2,4,6,8,10,12,14,16,18,20,22,24,26,28,30,-1,-1,-1,-1,-1,-1,-1,-1,-1,-1,-1,-1,-1,-1,-1,-1],"split_conditions":[6.7882544E2,6.783939E2,6.2992188E4,6.4956323E2,4.80919E3,4.1255855E4,7.142346E2,4.8937143E2,7.427545E4,1.6580133E2,4.275024E-1,7.068349E2,7.0231506E2,7.0231506E2,3E0,1.8358124E-2,3.046387E-3,-4.736603E-3,-1.17836E-2,1.8323602E-2,7.5180255E-2,8.735986E-3,6.568149E-3,1.3439086E-3,-2.064151E-3,-3.0265567E-3,-6.651042E-3,-6.0070786E-3,-1.123292E-2,-2.5429014E-2,-1.2830487E-2],"split_indices":[5,5,3,5,3,3,5,5,3,32,31,5,5,5,34,0,0,0,0,0,0,0,0,0,0,0,0,0,0,0,0],"split_type":[0,0,0,0,0,0,0,0,0,0,0,0,0,0,0,0,0,0,0,0,0,0,0,0,0,0,0,0,0,0,0],"sum_hessian":[2.870848E6,1.8895931E6,9.81255E5,1.5201309E6,3.694622E5,7.814061E5,1.9984889E5,1.1289118E6,3.9121912E5,5.0050586E3,3.6445712E5,5.1442803E5,2.6697806E5,1.0137324E5,9.847565E4,3.1021688E4,1.0978901E6,3.090209E5,8.219821E4,4.918025E3,8.703365E1,2.3120392E5,1.332532E5,1.624471E5,3.5198094E5,8.049736E4,1.864807E5,7.3357625E4,2.8015617E4,4.1251215E4,5.7224438E4],"tree_param":{"num_deleted":"0","num_feature":"47","num_nodes":"31","size_leaf_vector":"1"}},{"base_weights":[7.123205E-5,2.6147136E-2,-1.2758337E-2,4.3740608E-2,1.1922598E-2,-8.19932E-3,-5.2175958E-2,9.798663E-2,3.661173E-2,7.867481E-2,8.639654E-3,1.3911194E-3,-2.7886935E-2,-2.336067E-2,-9.491322E-2,7.1391775E-3,1.33746E-2,6.5741427E-3,3.5109646E-3,1.3140644E-3,1.2280436E-2,9.1215444E-4,1.4782699E-2,1.3880114E-3,-1.3676058E-3,-7.127802E-5,-3.864104E-3,-6.8909093E-3,-1.4756735E-3,-1.265641E-2,-6.2099285E-3],"categories":[],"categories_nodes":[],"categories_segments":[],"categories_sizes":[],"default_left":[0,0,0,0,0,0,0,0,0,0,0,0,0,0,0,0,0,0,0,0,0,0,0,0,0,0,0,0,0,0,0],"id":30,"left_children":[1,3,5,7,9,11,13,15,17,19,21,23,25,27,29,-1,-1,-1,-1,-1,-1,-1,-1,-1,-1,-1,-1,-1,-1,-1,-1],"loss_changes":[9.5928357E2,2.3663873E2,3.4537057E2,1.6347119E2,1.1457848E2,3.2525543E2,2.4535712E2,3.07258E1,4.770111E1,4.4616608E1,4.6608585E1,1.6093864E2,8.267111E1,4.5602135E1,4.6643555E1,0E0,0E0,0E0,0E0,0E0,0E0,0E0,0E0,0E0,0E0,0E0,0E0,0E0,0E0,0E0,0E0],"parents":[2147483647,0,0,1,1,2,2,3,3,4,4,5,5,6,6,7,7,8,8,9,9,10,10,11,11,12,12,13,13,14,14],"right_children":[2,4,6,8,10,12,14,16,18,20,22,24,26,28,30,-1,-1,-1,-1,-1,-1,-1,-1,-1,-1,-1,-1,-1,-1,-1,-1],"split_conditions":[3.2380217E4,2E0,3E0,1.0669775E4,4.80919E3,7.23781E4,5.294469E4,1.5298827E2,1E0,1.3014774E4,2.1739639E4,2E0,1E0,1.4418137E3,5E0,7.1391775E-3,1.33746E-2,6.5741427E-3,3.5109646E-3,1.3140644E-3,1.2280436E-2,9.1215444E-4,1.4782699E-2,1.3880114E-3,-1.3676058E-3,-7.127802E-5,-3.864104E-3,-6.8909093E-3,-1.4756735E-3,-1.265641E-2,-6.2099285E-3],"split_indices":[3,34,34,3,3,3,3,36,34,10,4,34,34,15,41,0,0,0,0,0,0,0,0,0,0,0,0,0,0,0,0],"split_type":[0,0,0,0,0,0,0,0,0,0,0,0,0,0,0,0,0,0,0,0,0,0,0,0,0,0,0,0,0,0,0],"sum_hessian":[2.867446E6,9.45576E5,1.92187E6,4.2272766E5,5.228483E5,1.7226325E6,1.9923738E5,4.9099613E4,3.7362806E5,2.4507783E4,4.9834053E5,1.1583606E6,5.6427194E5,1.19002414E5,8.023497E4,1.567312E4,3.3426492E4,9.05873E4,2.8304075E5,7.0171987E3,1.7490584E4,4.950497E5,3.2908687E3,6.4283244E5,5.155282E5,9.285249E4,4.7141947E5,2.721421E4,9.17882E4,5.9957258E4,2.0277709E4],"tree_param":{"num_deleted":"0","num_feature":"47","num_nodes":"31","size_leaf_vector":"1"}},{"base_weights":[-3.3064076E-5,1.5702592E-2,-3.7683293E-2,6.345661E-3,4.3965574E-2,-1.9770939E-2,-1.02329664E-1,2.1432063E-2,-6.0449347E-2,6.2913924E-2,-8.390895E-3,-1.0605919E-2,-4.5952946E-2,-7.3036395E-2,-1.3461632E-1,2.2229046E-2,2.2377435E-3,-3.5281389E-3,-8.81016E-3,1.0580824E-2,6.997074E-3,4.607282E-3,-2.3918394E-3,3.0088332E-3,-1.6738661E-3,-1.0971052E-2,-3.6865922E-3,-4.4612717E-3,-1.058136E-2,-2.9907828E-2,-1.0214196E-2],"categories":[],"categories_nodes":[],"categories_segments":[],"categories_sizes":[],"default_left":[0,0,0,0,0,0,0,0,0,0,0,0,0,0,0,0,0,0,0,0,0,0,0,0,0,0,0,0,0,0,0],"id":31,"left_children":[1,3,5,7,9,11,13,15,17,19,21,23,25,27,29,-1,-1,-1,-1,-1,-1,-1,-1,-1,-1,-1,-1,-1,-1,-1,-1],"loss_changes":[1.6975393E3,5.343917E2,9.779613E2,1.5298153E3,4.9861615E2,1.586875E2,1.7329309E2,4.5689417E2,1.2941632E2,2.793872E1,7.826355E1,6.7970276E1,1.18213196E2,6.002545E1,4.9987476E2,0E0,0E0,0E0,0E0,0E0,0E0,0E0,0E0,0E0,0E0,0E0,0E0,0E0,0E0,0E0,0E0],"parents":[2147483647,0,0,1,1,2,2,3,3,4,4,5,5,6,6,7,7,8,8,9,9,10,10,11,11,12,12,13,13,14,14],"right_children":[2,4,6,8,10,12,14,16,18,20,22,24,26,28,30,-1,-1,-1,-1,-1,-1,-1,-1,-1,-1,-1,-1,-1,-1,-1,-1],"split_conditions":[6.891611E2,6.783939E2,5.9228723E4,6.577411E2,6.7882544E2,4.446044E4,7.249082E2,4.6980414E2,3.352213E4,1.6859777E4,2.411095E4,1.14024E4,4.811038E4,7.427545E4,3E0,2.2229046E-2,2.2377435E-3,-3.5281389E-3,-8.81016E-3,1.0580824E-2,6.997074E-3,4.607282E-3,-2.3918394E-3,3.0088332E-3,-1.6738661E-3,-1.0971052E-2,-3.6865922E-3,-4.4612717E-3,-1.058136E-2,-2.9907828E-2,-1.0214196E-2],"split_indices":[5,5,3,5,5,3,5,5,3,3,3,3,3,3,34,0,0,0,0,0,0,0,0,0,0,0,0,0,0,0,0],"split_type":[0,0,0,0,0,0,0,0,0,0,0,0,0,0,0,0,0,0,0,0,0,0,0,0,0,0,0,0,0,0,0],"sum_hessian":[2.8652798E6,2.02073E6,8.4454975E5,1.5181292E6,5.0260078E5,6.61313E5,1.8323672E5,1.238419E6,2.7971016E5,3.6904084E5,1.3355992E5,4.8984425E5,1.7146875E5,9.607361E4,8.716311E4,1.5628106E4,1.2227909E6,9.4630695E4,1.8507945E5,3.2172002E4,3.3686884E5,2.7038533E4,1.0652139E5,4.6198137E4,4.4364612E5,3.8893473E4,1.3257528E5,3.2900777E4,6.317283E4,2.4013633E4,6.3149477E4],"tree_param":{"num_deleted":"0","num_feature":"47","num_nodes":"31","size_leaf_vector":"1"}},{"base_weights":[-2.2109477E-4,2.1805895E-2,-1.1064712E-2,3.7294406E-2,9.299805E-3,-3.6035664E-3,-2.7172307E-2,8.41598E-2,3.115593E-2,6.680412E-2,6.4758915E-3,9.09816E-3,-1.5806016E-2,-2.4040079E-2,-6.71959E-2,5.5764234E-3,1.1425086E-2,5.118784E-3,2.632913E-3,-2.9147374E-3,9.072186E-3,1.0398335E-3,-2.8879542E-3,1.0336407E-3,5.0562218E-2,-1.201514E-3,-3.962769E-3,-4.2303945E-3,-1.973198E-3,-3.3771412E-3,-1.10738445E-2],"categories":[],"categories_nodes":[],"categories_segments":[],"categories_sizes":[],"default_left":[0,0,0,0,0,0,0,0,0,0,0,0,0,0,0,0,0,0,0,0,0,0,0,0,0,0,0,0,0,0,0],"id":32,"left_children":[1,3,5,7,9,11,13,15,17,19,21,23,25,27,29,-1,-1,-1,-1,-1,-1,-1,-1,-1,-1,-1,-1,-1,-1,-1,-1],"loss_changes":[6.836677E2,1.8289954E2,2.3051503E2,1.2134802E2,8.483368E1,2.0317392E2,7.6118835E1,2.5040894E1,4.0873596E1,2.5352135E1,3.860247E1,5.514079E1,6.6863785E1,4.916046E1,4.7244217E1,0E0,0E0,0E0,0E0,0E0,0E0,0E0,0E0,0E0,0E0,0E0,0E0,0E0,0E0,0E0,0E0],"parents":[2147483647,0,0,1,1,2,2,3,3,4,4,5,5,6,6,7,7,8,8,9,9,10,10,11,11,12,12,13,13,14,14],"right_children":[2,4,6,8,10,12,14,16,18,20,22,24,26,28,30,-1,-1,-1,-1,-1,-1,-1,-1,-1,-1,-1,-1,-1,-1,-1,-1],"split_conditions":[3.2380217E4,2E0,7.23781E4,1.0669775E4,4.80919E3,2E0,3E0,1.298113E2,2.0082262E2,1.2484984E4,4.3539833E1,1.1264779E5,3E0,2.5E0,3E0,5.5764234E-3,1.1425086E-2,5.118784E-3,2.632913E-3,-2.9147374E-3,9.072186E-3,1.0398335E-3,-2.8879542E-3,1.0336407E-3,5.0562218E-2,-1.201514E-3,-3.962769E-3,-4.2303945E-3,-1.973198E-3,-3.3771412E-3,-1.10738445E-2],"split_indices":[3,34,3,3,3,34,34,36,36,33,32,26,34,2,8,0,0,0,0,0,0,0,0,0,0,0,0,0,0,0,0],"split_type":[0,0,0,0,0,0,0,0,0,0,0,0,0,0,0,0,0,0,0,0,0,0,0,0,0,0,0,0,0,0,0],"sum_hessian":[2.8623018E6,9.442385E5,1.9180632E6,4.218209E5,5.224176E5,1.3108638E6,6.0719956E5,4.885038E4,3.729705E5,2.4452873E4,4.9796472E5,6.4229194E5,6.685718E5,5.631308E5,4.4068773E4,1.3758938E4,3.509144E4,1.4806511E5,2.249054E5,2.673622E3,2.177925E4,4.6152306E5,3.644166E4,6.419894E5,3.0256506E2,5.1485328E5,1.5371855E5,2.0453627E5,3.5859453E5,1.870564E4,2.536313E4],"tree_param":{"num_deleted":"0","num_feature":"47","num_nodes":"31","size_leaf_vector":"1"}},{"base_weights":[-7.5006545E-5,1.6988536E-2,-7.260214E-3,3.2021314E-2,4.619429E-3,-2.172456E-3,-2.5487937E-2,8.056193E-2,2.690172E-2,4.74744E-2,1.4279133E-3,7.615073E-3,-1.1664842E-2,-1.4731883E-3,-2.983007E-2,3.154771E-3,1.095951E-2,2.9421023E-3,9.617567E-3,2.9070226E-2,5.099093E-3,8.638959E-5,1.5033499E-2,1.529469E-3,-4.242748E-4,-1.0717903E-3,-4.7944686E-3,1.9390029E-3,-3.3828611E-3,-8.505328E-3,-3.1969442E-3],"categories":[],"categories_nodes":[],"categories_segments":[],"categories_sizes":[],"default_left":[0,0,0,0,0,0,0,0,0,0,0,0,0,0,0,0,0,0,0,0,0,0,0,0,0,0,0,0,0,0,0],"id":33,"left_children":[1,3,5,7,9,11,13,15,17,19,21,23,25,27,29,-1,-1,-1,-1,-1,-1,-1,-1,-1,-1,-1,-1,-1,-1,-1,-1],"loss_changes":[3.5075104E2,1.5762225E2,1.8669342E2,9.5088745E1,6.360597E1,1.462202E2,4.58071E1,2.6841705E1,3.0532455E1,2.3422188E1,3.79036E1,4.8446938E1,5.7702927E1,3.377352E1,3.733258E1,0E0,0E0,0E0,0E0,0E0,0E0,0E0,0E0,0E0,0E0,0E0,0E0,0E0,0E0,0E0,0E0],"parents":[2147483647,0,0,1,1,2,2,3,3,4,4,5,5,6,6,7,7,8,8,9,9,10,10,11,11,12,12,13,13,14,14],"right_children":[2,4,6,8,10,12,14,16,18,20,22,24,26,28,30,-1,-1,-1,-1,-1,-1,-1,-1,-1,-1,-1,-1,-1,-1,-1,-1],"split_conditions":[1.1407684E4,2E0,4.805795E3,2.9783896E3,2.2925798E3,2E0,1E0,9.304478E1,1.3962603E5,8.2107075E-2,1.8785187E1,2.4384165E3,4.397862E3,3.0599968E1,9.4E1,3.154771E-3,1.095951E-2,2.9421023E-3,9.617567E-3,2.9070226E-2,5.099093E-3,8.638959E-5,1.5033499E-2,1.529469E-3,-4.242748E-4,-1.0717903E-3,-4.7944686E-3,1.9390029E-3,-3.3828611E-3,-8.505328E-3,-3.1969442E-3],"split_indices":[29,34,27,29,29,34,34,36,12,32,25,13,13,9,22,0,0,0,0,0,0,0,0,0,0,0,0,0,0,0,0],"split_type":[0,0,0,0,0,0,0,0,0,0,0,0,0,0,0,0,0,0,0,0,0,0,0,0,0,0,0,0,0,0,0],"sum_hessian":[2.860817E6,8.4769544E5,2.0131218E6,3.8264584E5,4.6504956E5,1.5738318E6,4.392899E5,3.650592E4,3.461399E5,3.223196E4,4.328176E5,7.748696E5,7.989621E5,6.726623E4,3.720237E5,7.4825396E3,2.9023383E4,3.3663066E5,9.509277E3,5.589999E2,3.167296E4,4.3051628E5,2.3013262E3,5.1916566E5,2.5570398E5,7.38126E5,6.083612E4,4.059486E4,2.6671365E4,1.8836582E4,3.531871E5],"tree_param":{"num_deleted":"0","num_feature":"47","num_nodes":"31","size_leaf_vector":"1"}},{"base_weights":[-2.7947882E-4,1.01790745E-2,-1.5979052E-2,3.008768E-2,4.7022346E-3,-1.184238E-2,-6.220214E-2,4.6912495E-2,1.6932093E-2,1.1090921E-3,3.1685688E-2,-2.9486453E-3,-1.9538091E-2,-5.8020275E-2,-2.1336737E-1,9.472735E-3,4.7400026E-3,-3.8704698E-3,2.34746E-3,5.753736E-4,-6.2538637E-3,3.2294828E-3,1.1349542E-2,-6.604714E-4,4.8596193E-3,-4.6639927E-3,-1.7901934E-3,-7.99855E-3,-1.048438E-3,-2.2113454E-2,-9.092665E-2],"categories":[],"categories_nodes":[],"categories_segments":[],"categories_sizes":[],"default_left":[0,0,0,0,0,0,0,0,0,0,0,0,0,0,0,0,0,0,0,0,0,0,0,0,0,0,0,0,0,0,0],"id":34,"left_children":[1,3,5,7,9,11,13,15,17,19,21,23,25,27,29,-1,-1,-1,-1,-1,-1,-1,-1,-1,-1,-1,-1,-1,-1,-1,-1],"loss_changes":[4.695771E2,1.8715407E2,2.1863565E2,8.19653E1,1.3051395E2,7.183247E1,5.9362244E1,3.4396454E1,3.417534E1,2.5081458E2,4.060202E1,5.964669E1,4.7877792E1,4.8471527E1,3.2999107E1,0E0,0E0,0E0,0E0,0E0,0E0,0E0,0E0,0E0,0E0,0E0,0E0,0E0,0E0,0E0,0E0],"parents":[2147483647,0,0,1,1,2,2,3,3,4,4,5,5,6,6,7,7,8,8,9,9,10,10,11,11,12,12,13,13,14,14],"right_children":[2,4,6,8,10,12,14,16,18,20,22,24,26,28,30,-1,-1,-1,-1,-1,-1,-1,-1,-1,-1,-1,-1,-1,-1,-1,-1],"split_conditions":[4.8467E4,1.9406188E4,3E0,2E0,4.811038E4,7.23781E4,6.662879E5,2.2925798E3,8.303982E3,4.5801008E4,3.0989287E3,6.7390195E3,7.503321E1,1.834394E1,1.8018646E0,9.472735E-3,4.7400026E-3,-3.8704698E-3,2.34746E-3,5.753736E-4,-6.2538637E-3,3.2294828E-3,1.1349542E-2,-6.604714E-4,4.8596193E-3,-4.6639927E-3,-1.7901934E-3,-7.99855E-3,-1.048438E-3,-2.2113454E-2,-9.092665E-2],"split_indices":[3,3,34,34,3,3,16,29,33,3,27,4,36,32,25,0,0,0,0,0,0,0,0,0,0,0,0,0,0,0,0],"split_type":[0,0,0,0,0,0,0,0,0,0,0,0,0,0,0,0,0,0,0,0,0,0,0,0,0,0,0,0,0,0,0],"sum_hessian":[2.8598758E6,1.7164392E6,1.1434365E6,3.7031606E5,1.3461231E6,1.049513E6,9.392348E4,1.6249588E5,2.0782017E5,1.1879374E6,1.5818583E5,4.8686138E5,5.626517E5,9.139645E4,2.5270256E3,2.4390312E4,1.3810556E5,1.2708106E4,1.9511208E5,1.1102672E6,7.767006E4,1.4938467E5,8.801143E3,4.5882497E5,2.8036393E4,9.393685E4,4.687148E5,7.485842E4,1.653803E4,2.4300303E3,9.699516E1],"tree_param":{"num_deleted":"0","num_feature":"47","num_nodes":"31","size_leaf_vector":"1"}},{"base_weights":[-5.9956223E-5,1.7362675E-2,-7.640246E-3,6.2233686E-2,1.5042789E-2,1.5275637E-4,-1.5785495E-2,5.9202842E-2,2.8635716E-1,2.6001673E-2,6.241602E-3,7.146522E-3,-1.373974E-2,-1.8250132E-2,2.5535798E-2,2.7334937E-3,8.890979E-3,3.9340213E-2,-7.357713E-2,4.937713E-3,2.41237E-3,1.3189667E-3,-9.849718E-4,5.234707E-3,6.479863E-4,-2.528127E-3,-2.8219225E-4,-9.1931253E-4,-3.1544014E-3,-2.5217267E-2,3.431517E-3],"categories":[],"categories_nodes":[],"categories_segments":[],"categories_sizes":[],"default_left":[0,0,0,0,0,0,0,0,0,0,0,0,0,0,0,0,0,0,0,0,0,0,0,0,0,0,0,0,0,0,0],"id":35,"left_children":[1,3,5,7,9,11,13,15,17,19,21,23,25,27,29,-1,-1,-1,-1,-1,-1,-1,-1,-1,-1,-1,-1,-1,-1,-1,-1],"loss_changes":[3.775548E2,9.0220184E1,1.2644819E2,2.8925262E1,7.948595E1,9.891435E1,9.9196594E1,2.597873E1,2.7517982E1,3.1719467E1,3.4383545E1,4.028243E1,3.0924034E1,8.457074E1,5.3202007E1,0E0,0E0,0E0,0E0,0E0,0E0,0E0,0E0,0E0,0E0,0E0,0E0,0E0,0E0,0E0,0E0],"parents":[2147483647,0,0,1,1,2,2,3,3,4,4,5,5,6,6,7,7,8,8,9,9,10,10,11,11,12,12,13,13,14,14],"right_children":[2,4,6,8,10,12,14,16,18,20,22,24,26,28,30,-1,-1,-1,-1,-1,-1,-1,-1,-1,-1,-1,-1,-1,-1,-1,-1],"split_conditions":[3.0692695E4,4.80919E3,2E0,-3.337048E2,2E0,7.23781E4,6.8318423E3,7.0122886E-1,8E0,1E0,1.4245712E4,2.1954228E2,6.062232E0,4.8467E4,3.3654567E-2,2.7334937E-3,8.890979E-3,3.9340213E-2,-7.357713E-2,4.937713E-3,2.41237E-3,1.3189667E-3,-9.849718E-4,5.234707E-3,6.479863E-4,-2.528127E-3,-2.8219225E-4,-9.1931253E-4,-3.1544014E-3,-2.5217267E-2,3.431517E-3],"split_indices":[3,3,34,27,34,3,4,37,42,34,15,15,32,3,25,0,0,0,0,0,0,0,0,0,0,0,0,0,0,0,0],"split_type":[0,0,0,0,0,0,0,0,0,0,0,0,0,0,0,0,0,0,0,0,0,0,0,0,0,0,0,0,0,0,0],"sum_hessian":[2.8587762E6,8.667124E5,1.9920638E6,4.260598E4,8.2410644E5,1.0180454E6,9.7401844E5,4.203875E4,5.672302E2,3.6705828E5,4.5704816E5,6.771531E5,3.4089222E5,9.1919306E5,5.4825387E4,1.374145E4,2.8297299E4,5.37334E2,2.9896275E1,8.845534E4,2.7860294E5,3.3925228E5,1.17795875E5,2.6915043E4,6.502381E5,1.994607E5,1.4143152E5,4.2525894E5,4.9393412E5,8.8842334E2,5.3936965E4],"tree_param":{"num_deleted":"0","num_feature":"47","num_nodes":"31","size_leaf_vector":"1"}},{"base_weights":[-1.1069223E-4,1.502424E-2,-6.976896E-3,3.258255E-2,1.0137014E-2,-4.446639E-3,-2.8859029E-2,4.905258E-2,1.9930523E-2,1.3726932E-2,-9.576472E-3,4.5600283E-4,-1.4906927E-2,-1.0343279E-2,-5.867832E-2,5.5376603E-3,2.331475E-2,2.1635694E-3,2.386185E-2,3.8681321E-3,1.2620871E-3,-7.382358E-3,-1.7330282E-4,-2.684197E-4,2.1111898E-3,-1.1270044E-3,-3.4217453E-3,1.43076405E-2,-1.5200559E-3,-5.0182114E-3,-1.14178145E-2],"categories":[],"categories_nodes":[],"categories_segments":[],"categories_sizes":[],"default_left":[0,0,0,0,0,0,0,0,0,0,0,0,0,0,0,0,0,0,0,0,0,0,0,0,0,0,0,0,0,0,0],"id":36,"left_children":[1,3,5,7,9,11,13,15,17,19,21,23,25,27,29,-1,-1,-1,-1,-1,-1,-1,-1,-1,-1,-1,-1,-1,-1,-1,-1],"loss_changes":[2.9695273E2,7.6525314E1,1.0883767E2,4.046106E1,4.9370163E1,9.036058E1,1.1249049E2,1.776001E1,2.6643353E1,3.3070587E1,4.6887836E1,5.8793015E1,4.2580933E1,4.597687E1,4.785318E1,0E0,0E0,0E0,0E0,0E0,0E0,0E0,0E0,0E0,0E0,0E0,0E0,0E0,0E0,0E0,0E0],"parents":[2147483647,0,0,1,1,2,2,3,3,4,4,5,5,6,6,7,7,8,8,9,9,10,10,11,11,12,12,13,13,14,14],"right_children":[2,4,6,8,10,12,14,16,18,20,22,24,26,28,30,-1,-1,-1,-1,-1,-1,-1,-1,-1,-1,-1,-1,-1,-1,-1,-1],"split_conditions":[3.1253086E4,1.4259165E4,3E0,2E0,3E0,7.23781E4,5.294469E4,1.918855E4,2.1739639E4,1E0,2.44E2,3.0701982E3,3.8290203E1,3.45E0,1.859E1,5.5376603E-3,2.331475E-2,2.1635694E-3,2.386185E-2,3.8681321E-3,1.2620871E-3,-7.382358E-3,-1.7330282E-4,-2.684197E-4,2.1111898E-3,-1.1270044E-3,-3.4217453E-3,1.43076405E-2,-1.5200559E-3,-5.0182114E-3,-1.14178145E-2],"split_indices":[3,3,34,34,34,3,3,4,4,34,22,4,9,11,11,0,0,0,0,0,0,0,0,0,0,0,0,0,0,0,0],"split_type":[0,0,0,0,0,0,0,0,0,0,0,0,0,0,0,0,0,0,0,0,0,0,0,0,0,0,0,0,0,0,0],"sum_hessian":[2.8575238E6,8.9178725E5,1.9657365E6,1.9417392E5,6.976133E5,1.761996E6,2.0374048E5,8.435728E4,1.0981664E5,5.901454E5,1.0746794E5,1.1997058E6,5.6229025E5,1.25694266E5,7.804623E4,8.359264E4,7.646405E2,1.0904836E5,7.6827594E2,7.535022E4,5.147952E5,1.4001876E4,9.346606E4,1.03766956E6,1.6203623E5,4.140639E5,1.4822636E5,2.527214E3,1.2316705E5,5.6105535E4,2.194069E4],"tree_param":{"num_deleted":"0","num_feature":"47","num_nodes":"31","size_leaf_vector":"1"}},{"base_weights":[-6.785441E-5,1.0745134E-2,-3.382761E-2,8.696729E-2,8.0039585E-3,-2.2011222E-2,-9.60964E-2,1.6697182E-1,6.629755E-2,-2.0687813E-3,3.0340696E-2,-1.4562084E-2,-3.9185487E-2,-1.3471387E-1,-4.6183486E-2,1.3067123E-2,2.3439415E-2,6.0150134E-3,1.05120065E-2,1.729688E-3,-4.8923083E-3,6.8119224E-3,-7.9038047E-4,-3.0645737E-3,-4.239822E-4,-8.853213E-3,-3.3591986E-3,-9.190337E-3,-3.1882342E-2,-1.7481552E-2,-3.9875447E-3],"categories":[],"categories_nodes":[],"categories_segments":[],"categories_sizes":[],"default_left":[0,0,0,0,0,0,0,0,0,0,0,0,0,0,0,0,0,0,0,0,0,0,0,0,0,0,0,0,0,0,0],"id":37,"left_children":[1,3,5,7,9,11,13,15,17,19,21,23,25,27,29,-1,-1,-1,-1,-1,-1,-1,-1,-1,-1,-1,-1,-1,-1,-1,-1],"loss_changes":[1.0427928E3,4.520645E2,5.0989728E2,1.2419513E2,4.69901E2,7.451614E1,2.1304224E2,2.9202332E1,2.0960693E1,9.7726855E2,6.82082E2,5.2380943E1,6.699866E1,4.841101E2,5.9638374E1,0E0,0E0,0E0,0E0,0E0,0E0,0E0,0E0,0E0,0E0,0E0,0E0,0E0,0E0,0E0,0E0],"parents":[2147483647,0,0,1,1,2,2,3,3,4,4,5,5,6,6,7,7,8,8,9,9,10,10,11,11,12,12,13,13,14,14],"right_children":[2,4,6,8,10,12,14,16,18,20,22,24,26,28,30,-1,-1,-1,-1,-1,-1,-1,-1,-1,-1,-1,-1,-1,-1,-1,-1],"split_conditions":[7.0142584E2,5.1807776E2,6.712919E4,4.6980414E2,6.783939E2,4.3804566E4,7.409718E2,2E0,2.1497224E3,6.467684E2,6.7882544E2,3E0,4.811038E4,7.2591046E2,9.790149E0,1.3067123E-2,2.3439415E-2,6.0150134E-3,1.05120065E-2,1.729688E-3,-4.8923083E-3,6.8119224E-3,-7.9038047E-4,-3.0645737E-3,-4.239822E-4,-8.853213E-3,-3.3591986E-3,-9.190337E-3,-3.1882342E-2,-1.7481552E-2,-3.9875447E-3],"split_indices":[5,5,3,5,5,3,5,6,13,5,5,34,3,5,9,0,0,0,0,0,0,0,0,0,0,0,0,0,0,0,0],"split_type":[0,0,0,0,0,0,0,0,0,0,0,0,0,0,0,0,0,0,0,0,0,0,0,0,0,0,0,0,0,0,0],"sum_hessian":[2.8566215E6,2.1636288E6,6.929929E5,7.510832E4,2.0885204E6,5.824635E5,1.1052935E5,1.5419259E4,5.9689062E4,1.439417E6,6.491034E5,4.0625638E5,1.7620716E5,6.231484E4,4.8214516E4,6.00765E3,9.411609E3,3.7290934E4,2.2398127E4,1.0111906E6,4.2822638E5,3.6846353E5,2.8063984E5,1.9506383E5,2.1119255E5,3.827675E4,1.379304E5,4.4573E4,1.7741842E4,4.9231143E3,4.3291402E4],"tree_param":{"num_deleted":"0","num_feature":"47","num_nodes":"31","size_leaf_vector":"1"}},{"base_weights":[-6.293033E-5,9.834817E-3,-3.1015048E-2,7.68131E-2,7.435845E-3,-2.0338329E-2,-8.764916E-2,1.5121303E-1,5.7690464E-2,-1.5950913E-3,2.7469603E-2,-1.38221225E-2,-3.538055E-2,-1.2360657E-1,-4.2848684E-2,1.6898902E-2,4.1867606E-2,1.1415838E-2,5.785655E-3,1.176612E-3,-5.845159E-3,6.099144E-3,-6.220454E-4,-2.8346053E-3,-4.7139422E-4,6.069929E-3,-4.5319125E-3,-8.4110545E-3,-3.0315442E-2,-2.8853505E-3,-1.2315289E-2],"categories":[],"categories_nodes":[],"categories_segments":[],"categories_sizes":[],"default_left":[0,0,0,0,0,0,0,0,0,0,0,0,0,0,0,0,0,0,0,0,0,0,0,0,0,0,0,0,0,0,0],"id":38,"left_children":[1,3,5,7,9,11,13,15,17,19,21,23,25,27,29,-1,-1,-1,-1,-1,-1,-1,-1,-1,-1,-1,-1,-1,-1,-1,-1],"loss_changes":[8.745506E2,3.475493E2,4.182328E2,1.0640207E2,3.7780734E2,5.704283E1,1.7673138E2,1.8377289E1,1.9046585E1,8.219546E2,5.33001E2,4.1933723E1,5.5893936E1,4.2799573E2,5.5570198E1,0E0,0E0,0E0,0E0,0E0,0E0,0E0,0E0,0E0,0E0,0E0,0E0,0E0,0E0,0E0,0E0],"parents":[2147483647,0,0,1,1,2,2,3,3,4,4,5,5,6,6,7,7,8,8,9,9,10,10,11,11,12,12,13,13,14,14],"right_children":[2,4,6,8,10,12,14,16,18,20,22,24,26,28,30,-1,-1,-1,-1,-1,-1,-1,-1,-1,-1,-1,-1,-1,-1,-1,-1],"split_conditions":[7.0142584E2,5.1807776E2,6.712919E4,4.6980414E2,6.783939E2,4.3804566E4,3E0,1.755E3,6.65E0,6.577411E2,6.7882544E2,3E0,6.355976E2,7.2591046E2,1.39E3,1.6898902E-2,4.1867606E-2,1.1415838E-2,5.785655E-3,1.176612E-3,-5.845159E-3,6.099144E-3,-6.220454E-4,-2.8346053E-3,-4.7139422E-4,6.069929E-3,-4.5319125E-3,-8.4110545E-3,-3.0315442E-2,-2.8853505E-3,-1.2315289E-2],"split_indices":[5,5,3,5,5,3,34,22,11,5,5,34,13,5,22,0,0,0,0,0,0,0,0,0,0,0,0,0,0,0,0],"split_type":[0,0,0,0,0,0,0,0,0,0,0,0,0,0,0,0,0,0,0,0,0,0,0,0,0,0,0,0,0,0,0],"sum_hessian":[2.8546832E6,2.1630062E6,6.91677E5,7.479276E4,2.0882135E6,5.819656E5,1.0971139E5,1.5291523E4,5.950123E4,1.4393678E6,6.488458E5,4.0606325E5,1.7590236E5,6.0861473E4,4.8849918E4,1.4883172E4,4.0835178E2,9.689138E3,4.9812094E4,1.1601902E6,2.7917744E5,3.681491E5,2.8069672E5,1.9493695E5,2.111263E5,6.989488E3,1.6891286E5,4.4330703E4,1.6530768E4,3.8008973E4,1.0840946E4],"tree_param":{"num_deleted":"0","num_feature":"47","num_nodes":"31","size_leaf_vector":"1"}},{"base_weights":[-3.7345522E-5,9.894326E-3,-4.2201034E-3,4.387291E-2,7.470665E-3,-5.782856E-3,1.9512158E-2,1.9403925E-2,5.47299E-2,1.711487E-2,-4.865736E-4,-3.2825705E-3,-1.5676996E-2,2.643583E-2,-2.7763147E-2,-5.3725313E-2,2.8312267E-3,8.335843E-3,2.2597404E-3,3.150165E-3,1.1517336E-3,1.0603534E-3,-9.315689E-4,8.252031E-4,-7.7706523E-4,-1.1586491E-3,-3.965651E-3,2.044818E-3,6.9175293E-3,-8.177764E-3,3.6761193E-3],"categories":[],"categories_nodes":[],"categories_segments":[],"categories_sizes":[],"default_left":[0,0,0,0,0,0,0,0,0,0,0,0,0,0,0,0,0,0,0,0,0,0,0,0,0,0,0,0,0,0,0],"id":39,"left_children":[1,3,5,7,9,11,13,15,17,19,21,23,25,27,29,-1,-1,-1,-1,-1,-1,-1,-1,-1,-1,-1,-1,-1,-1,-1,-1],"loss_changes":[1.185E2,6.96158E1,7.4442726E1,1.4950981E1,6.05535E1,4.65869E1,4.059074E1,4.13938E1,2.3404205E1,2.5687042E1,3.1302643E1,5.3170723E1,3.9994194E1,3.1638054E1,4.0114273E1,0E0,0E0,0E0,0E0,0E0,0E0,0E0,0E0,0E0,0E0,0E0,0E0,0E0,0E0,0E0,0E0],"parents":[2147483647,0,0,1,1,2,2,3,3,4,4,5,5,6,6,7,7,8,8,9,9,10,10,11,11,12,12,13,13,14,14],"right_children":[2,4,6,8,10,12,14,16,18,20,22,24,26,28,30,-1,-1,-1,-1,-1,-1,-1,-1,-1,-1,-1,-1,-1,-1,-1,-1],"split_conditions":[1.1407684E4,2.2925798E3,6.388467E3,1.433444E2,2E0,4.828891E4,2.206E1,4.6798688E2,1E0,8E0,4.311954E3,1E0,1.5986362E4,1.592979E4,3.0220732E1,-5.3725313E-2,2.8312267E-3,8.335843E-3,2.2597404E-3,3.150165E-3,1.1517336E-3,1.0603534E-3,-9.315689E-4,8.252031E-4,-7.7706523E-4,-1.1586491E-3,-3.965651E-3,2.044818E-3,6.9175293E-3,-8.177764E-3,3.6761193E-3],"split_indices":[29,29,4,36,34,29,11,13,17,46,15,1,15,4,9,0,0,0,0,0,0,0,0,0,0,0,0,0,0,0,0],"split_type":[0,0,0,0,0,0,0,0,0,0,0,0,0,0,0,0,0,0,0,0,0,0,0,0,0,0,0,0,0,0,0],"sum_hessian":[2.852548E6,8.453414E5,2.0072065E6,5.6281684E4,7.890597E5,1.8831999E6,1.2400662E5,1.729832E4,3.898336E4,3.5671662E5,4.323431E5,1.5033094E6,3.7989047E5,1.0816572E5,1.5840894E4,1.7548639E2,1.7122834E4,2.629748E4,1.2685881E4,1.4935228E5,2.0736434E5,1.8992517E5,2.4241792E5,3.7124803E5,1.1320614E6,2.9019725E5,8.969323E4,8.537878E4,2.2786941E4,9.222983E3,6.6179097E3],"tree_param":{"num_deleted":"0","num_feature":"47","num_nodes":"31","size_leaf_vector":"1"}},{"base_weights":[7.597869E-5,1.4366471E-2,-4.5521725E-3,4.7661997E-2,1.2212804E-2,-1.1166476E-3,-1.3025562E-2,4.489233E-2,2.534807E-1,1.33004235E-2,-4.2286966E-2,5.5418075E-3,-7.3630563E-3,-1.1222271E-2,-4.6902716E-2,-3.9609632E-4,6.379148E-3,3.940243E-2,-2.2953963E-2,2.4752603E-3,8.0588186E-4,-2.405978E-2,-2.308489E-3,6.252894E-4,4.656595E-2,2.468833E-3,-1.1396281E-3,-2.3435373E-3,-6.306233E-4,-1.2389445E-3,-8.576957E-3],"categories":[],"categories_nodes":[],"categories_segments":[],"categories_sizes":[],"default_left":[0,0,0,0,0,0,0,0,0,0,0,0,0,0,0,0,0,0,0,0,0,0,0,0,0,0,0,0,0,0,0],"id":40,"left_children":[1,3,5,7,9,11,13,15,17,19,21,23,25,27,29,-1,-1,-1,-1,-1,-1,-1,-1,-1,-1,-1,-1,-1,-1,-1,-1],"loss_changes":[1.8864568E2,5.0034454E1,6.2719048E1,2.4153854E1,3.8847977E1,6.37586E1,3.7969666E1,2.0232407E1,2.180674E1,3.2732178E1,4.7369865E1,4.6885002E1,5.535345E1,3.0600075E1,3.0643875E1,0E0,0E0,0E0,0E0,0E0,0E0,0E0,0E0,0E0,0E0,0E0,0E0,0E0,0E0,0E0,0E0],"parents":[2147483647,0,0,1,1,2,2,3,3,4,4,5,5,6,6,7,7,8,8,9,9,10,10,11,11,12,12,13,13,14,14],"right_children":[2,4,6,8,10,12,14,16,18,20,22,24,26,28,30,-1,-1,-1,-1,-1,-1,-1,-1,-1,-1,-1,-1,-1,-1,-1,-1],"split_conditions":[2.7021758E4,4.80919E3,7.1154914E4,-3.337048E2,1E1,2E0,4.770823E3,8.808385E3,6E0,2E0,9.2108014E2,1.1264779E5,7.829648E2,2E0,3E0,-3.9609632E-4,6.379148E-3,3.940243E-2,-2.2953963E-2,2.4752603E-3,8.0588186E-4,-2.405978E-2,-2.308489E-3,6.252894E-4,4.656595E-2,2.468833E-3,-1.1396281E-3,-2.3435373E-3,-6.306233E-4,-1.2389445E-3,-8.576957E-3],"split_indices":[3,3,3,27,7,34,13,10,42,34,13,26,13,6,20,0,0,0,0,0,0,0,0,0,0,0,0,0,0,0,0],"split_type":[0,0,0,0,0,0,0,0,0,0,0,0,0,0,0,0,0,0,0,0,0,0,0,0,0,0,0,0,0,0,0],"sum_hessian":[2.8522778E6,6.9776475E5,2.154513E6,4.239046E4,6.553743E5,1.5329725E6,6.2154056E5,4.1828797E4,5.616652E2,6.42552E5,1.282228E4,7.4201275E5,7.9095975E5,5.901291E5,3.1411412E4,7.1828384E3,3.4645957E4,4.7222995E2,8.943526E1,2.8459775E5,3.5795428E5,1.5343738E3,1.1287906E4,7.4171375E5,2.9898526E2,6.2287562E4,7.286722E5,2.319328E5,3.5819634E5,1.3389001E4,1.802241E4],"tree_param":{"num_deleted":"0","num_feature":"47","num_nodes":"31","size_leaf_vector":"1"}},{"base_weights":[-4.990921E-6,8.532376E-3,-2.6738688E-2,6.799279E-2,6.4106053E-3,-1.8070804E-2,-7.909314E-2,1.3075252E-1,5.196414E-2,-2.276082E-3,2.5674844E-2,-2.3310818E-2,5.2234177E-3,-1.1894833E-1,-3.012257E-2,9.63391E-3,1.8755456E-2,2.521282E-3,7.157782E-3,1.3135867E-3,-3.9882185E-3,5.5347676E-3,-3.6368295E-4,-2.086846E-3,-5.5098967E-3,5.827256E-4,1.4762327E-1,-6.620514E-3,-2.8011583E-2,4.608608E-4,-7.3070372E-3],"categories":[],"categories_nodes":[],"categories_segments":[],"categories_sizes":[],"default_left":[0,0,0,0,0,0,0,0,0,0,0,0,0,0,0,0,0,0,0,0,0,0,0,0,0,0,0,0,0,0,0],"id":41,"left_children":[1,3,5,7,9,11,13,15,17,19,21,23,25,27,29,-1,-1,-1,-1,-1,-1,-1,-1,-1,-1,-1,-1,-1,-1,-1,-1],"loss_changes":[6.508017E2,2.7266656E2,3.1321014E2,7.490094E1,3.4920898E2,7.2280014E1,1.9134009E2,2.221518E1,1.7310349E1,6.261082E2,4.1030746E2,6.2352448E1,2.8591724E1,4.0908508E2,4.9141518E1,0E0,0E0,0E0,0E0,0E0,0E0,0E0,0E0,0E0,0E0,0E0,0E0,0E0,0E0,0E0,0E0],"parents":[2147483647,0,0,1,1,2,2,3,3,4,4,5,5,6,6,7,7,8,8,9,9,10,10,11,11,12,12,13,13,14,14],"right_children":[2,4,6,8,10,12,14,16,18,20,22,24,26,28,30,-1,-1,-1,-1,-1,-1,-1,-1,-1,-1,-1,-1,-1,-1,-1,-1],"split_conditions":[7.0142584E2,5.1807776E2,7.1154914E4,4.6980414E2,6.783939E2,1.9525049E3,3E0,2E0,4E0,6.467684E2,6.7882544E2,4.8467E4,5.2764536E3,7.2291266E2,2.1917445E4,9.63391E-3,1.8755456E-2,2.521282E-3,7.157782E-3,1.3135867E-3,-3.9882185E-3,5.5347676E-3,-3.6368295E-4,-2.086846E-3,-5.5098967E-3,5.827256E-4,1.4762327E-1,-6.620514E-3,-2.8011583E-2,4.608608E-4,-7.3070372E-3],"split_indices":[5,5,3,5,5,4,34,6,19,5,5,3,27,5,10,0,0,0,0,0,0,0,0,0,0,0,0,0,0,0,0],"split_type":[0,0,0,0,0,0,0,0,0,0,0,0,0,0,0,0,0,0,0,0,0,0,0,0,0,0,0,0,0,0,0],"sum_hessian":[2.8514478E6,2.1612548E6,6.901929E5,7.446343E4,2.0867914E6,5.92156E5,9.803689E4,1.5147328E4,5.9316105E4,1.4382516E6,6.4853975E5,4.8341275E5,1.0874324E5,5.4047977E4,4.3988914E4,5.920271E3,9.227057E3,1.433486E4,4.4981246E4,1.010171E6,4.2808056E5,3.6796794E5,2.805718E5,3.9564803E5,8.776471E4,1.0872639E5,1.6853462E1,3.5858887E4,1.8189092E4,2.1560883E4,2.2428033E4],"tree_param":{"num_deleted":"0","num_feature":"47","num_nodes":"31","size_leaf_vector":"1"}},{"base_weights":[-2.9708694E-6,7.350325E-3,-2.3046508E-2,4.9916994E-2,4.88738E-3,-1.60835E-2,-7.052457E-2,1.1819822E-1,3.995586E-2,-3.0957481E-3,2.206402E-2,-2.1350674E-2,-1.9611802E-3,-1.0900032E-1,-2.3691004E-2,8.585593E-3,1.7042438E-2,5.2262186E-3,1.7275909E-4,6.2149006E-4,-5.64162E-3,4.8418613E-3,-4.2155548E-4,-1.8781195E-3,-4.869133E-3,-3.8964444E-4,1.9505292E-2,-8.044218E-3,-2.8499942E-2,-1.4904985E-2,-1.2094188E-3],"categories":[],"categories_nodes":[],"categories_segments":[],"categories_sizes":[],"default_left":[0,0,0,0,0,0,0,0,0,0,0,0,0,0,0,0,0,0,0,0,0,0,0,0,0,0,0,0,0,0,0],"id":42,"left_children":[1,3,5,7,9,11,13,15,17,19,21,23,25,27,29,-1,-1,-1,-1,-1,-1,-1,-1,-1,-1,-1,-1,-1,-1,-1,-1],"loss_changes":[4.828791E2,2.2649152E2,2.2790237E2,8.0365295E1,2.8003424E2,4.4720993E1,1.5887915E2,1.8974228E1,1.9941208E1,5.352818E2,3.264815E2,4.6681213E1,3.8628593E1,2.623247E2,5.5244713E1,0E0,0E0,0E0,0E0,0E0,0E0,0E0,0E0,0E0,0E0,0E0,0E0,0E0,0E0,0E0,0E0],"parents":[2147483647,0,0,1,1,2,2,3,3,4,4,5,5,6,6,7,7,8,8,9,9,10,10,11,11,12,12,13,13,14,14],"right_children":[2,4,6,8,10,12,14,16,18,20,22,24,26,28,30,-1,-1,-1,-1,-1,-1,-1,-1,-1,-1,-1,-1,-1,-1,-1,-1],"split_conditions":[7.0142584E2,5.34396E2,7.7185086E4,4.6980414E2,6.783939E2,1E0,3E0,2E0,1.583E3,6.621694E2,6.7882544E2,4.8299332E4,2.1247144E2,7.279515E2,1.0404243E1,8.585593E-3,1.7042438E-2,5.2262186E-3,1.7275909E-4,6.2149006E-4,-5.64162E-3,4.8418613E-3,-4.2155548E-4,-1.8781195E-3,-4.869133E-3,-3.8964444E-4,1.9505292E-2,-8.044218E-3,-2.8499942E-2,-1.4904985E-2,-1.2094188E-3],"split_indices":[5,5,26,5,5,30,34,6,22,5,5,26,32,5,9,0,0,0,0,0,0,0,0,0,0,0,0,0,0,0,0],"split_type":[0,0,0,0,0,0,0,0,0,0,0,0,0,0,0,0,0,0,0,0,0,0,0,0,0,0,0,0,0,0,0],"sum_hessian":[2.849751E6,2.1603685E6,6.8938256E5,1.181627E5,2.0422058E6,6.012117E5,8.817082E4,1.504206E4,1.0312065E5,1.3942199E6,6.4798594E5,4.378916E5,1.6332012E5,4.840377E4,3.9767055E4,5.888539E3,9.1535205E3,9.1202805E4,1.191784E4,1.1758056E6,2.1841423E5,3.67489E5,2.8049697E5,3.4969084E5,8.820076E4,1.6199295E5,1.3271731E3,3.7473344E4,1.0930425E4,4.4795547E3,3.52875E4],"tree_param":{"num_deleted":"0","num_feature":"47","num_nodes":"31","size_leaf_vector":"1"}},{"base_weights":[-2.1823342E-5,6.382925E-3,-2.1309895E-2,4.0392756E-2,3.9382083E-3,-1.3215474E-2,-5.84604E-2,1.0517392E-1,3.3055745E-2,-3.2093795E-3,1.8338434E-2,-2.4373561E-2,-3.2709055E-3,-6.9623515E-2,-1.1913044E-2,1.263803E-2,-1.9583473E-2,3.6676794E-3,1.7565528E-2,9.88644E-4,-3.2311E-3,4.2768773E-3,-4.1033333E-4,-1.8614782E-3,-8.015111E-3,1.1035502E-2,-1.381392E-3,-4.8364005E-3,-1.0729071E-2,7.415634E-2,-2.137861E-3],"categories":[],"categories_nodes":[],"categories_segments":[],"categories_sizes":[],"default_left":[0,0,0,0,0,0,0,0,0,0,0,0,0,0,0,0,0,0,0,0,0,0,0,0,0,0,0,0,0,0,0],"id":43,"left_children":[1,3,5,7,9,11,13,15,17,19,21,23,25,27,29,-1,-1,-1,-1,-1,-1,-1,-1,-1,-1,-1,-1,-1,-1,-1,-1],"loss_changes":[3.8835327E2,1.8204987E2,1.9809445E2,6.978793E1,2.1025177E2,6.0019806E1,6.1236847E1,1.475145E1,2.31745E1,3.9356183E2,2.7375464E2,9.497258E1,2.4220389E2,6.046579E1,9.6178535E1,0E0,0E0,0E0,0E0,0E0,0E0,0E0,0E0,0E0,0E0,0E0,0E0,0E0,0E0,0E0,0E0],"parents":[2147483647,0,0,1,1,2,2,3,3,4,4,5,5,6,6,7,7,8,8,9,9,10,10,11,11,12,12,13,13,14,14],"right_children":[2,4,6,8,10,12,14,16,18,20,22,24,26,28,30,-1,-1,-1,-1,-1,-1,-1,-1,-1,-1,-1,-1,-1,-1,-1,-1],"split_conditions":[7.041037E2,5.4255975E2,6.2021387E4,4.6980414E2,6.783939E2,3E0,7.812511E2,2.2466492E5,1.5917489E5,6.458429E2,6.7882544E2,7.332033E2,7.4448395E2,7.249082E2,1E-1,1.263803E-2,-1.9583473E-2,3.6676794E-3,1.7565528E-2,9.88644E-4,-3.2311E-3,4.2768773E-3,-4.1033333E-4,-1.8614782E-3,-8.015111E-3,1.1035502E-2,-1.381392E-3,-4.8364005E-3,-1.0729071E-2,7.415634E-2,-2.137861E-3],"split_indices":[5,5,3,5,5,34,5,15,29,5,5,5,5,5,2,0,0,0,0,0,0,0,0,0,0,0,0,0,0,0,0],"split_type":[0,0,0,0,0,0,0,0,0,0,0,0,0,0,0,0,0,0,0,0,0,0,0,0,0,0,0,0,0,0,0],"sum_hessian":[2.8483168E6,2.1895635E6,6.587533E5,1.4683555E5,2.0427279E6,5.4090194E5,1.17851375E5,1.4937095E4,1.3189845E5,1.3651386E6,6.775892E5,2.5489784E5,2.860041E5,9.505461E4,2.279676E4,1.4743629E4,1.9346596E2,1.3025942E5,1.6390388E3,9.2467106E5,4.4046756E5,3.6732206E5,3.1026716E5,2.1470634E5,4.01915E4,2.3064184E4,2.629399E5,4.2587207E4,5.2467406E4,2.2426448E2,2.2572494E4],"tree_param":{"num_deleted":"0","num_feature":"47","num_nodes":"31","size_leaf_vector":"1"}},{"base_weights":[-1.8245602E-4,5.454205E-3,-1.8929625E-2,1.8042237E-2,2.771454E-4,-1.23655675E-2,-5.976306E-2,3.274398E-3,3.6433265E-2,-1.2070327E-2,1.6201664E-2,-1.6868003E-2,7.6122875E-3,-9.8717E-2,-1.7206144E-2,2.7358478E-3,-5.0848816E-3,9.329753E-3,2.7906047E-3,-3.7367016E-4,-4.485827E-3,3.7692974E-3,-3.496343E-4,1.7948981E-3,-2.2628957E-3,-1.0695469E-2,1.4342034E-3,-5.351903E-3,-2.2013128E-2,-3.3738401E-3,7.072125E-3],"categories":[],"categories_nodes":[],"categories_segments":[],"categories_sizes":[],"default_left":[0,0,0,0,0,0,0,0,0,0,0,0,0,0,0,0,0,0,0,0,0,0,0,0,0,0,0,0,0,0,0],"id":44,"left_children":[1,3,5,7,9,11,13,15,17,19,21,23,25,27,29,-1,-1,-1,-1,-1,-1,-1,-1,-1,-1,-1,-1,-1,-1,-1,-1],"loss_changes":[3.0084158E2,1.426445E2,1.7639514E2,1.7324168E2,3.0496457E2,5.099875E1,1.5108896E2,3.3739383E2,1.5470993E2,2.052842E2,2.1134554E2,3.901236E1,4.918343E1,2.2736856E2,4.0243515E1,0E0,0E0,0E0,0E0,0E0,0E0,0E0,0E0,0E0,0E0,0E0,0E0,0E0,0E0,0E0,0E0],"parents":[2147483647,0,0,1,1,2,2,3,3,4,4,5,5,6,6,7,7,8,8,9,9,10,10,11,11,12,12,13,13,14,14],"right_children":[2,4,6,8,10,12,14,16,18,20,22,24,26,28,30,-1,-1,-1,-1,-1,-1,-1,-1,-1,-1,-1,-1,-1,-1,-1,-1],"split_conditions":[7.041037E2,6.1068E2,7.1154914E4,1E0,6.783939E2,1.9525049E3,3E0,5.636575E2,5.877725E2,6.621694E2,6.7882544E2,7.700516E2,2.565966E2,7.2291266E2,1.8931761E5,2.7358478E-3,-5.0848816E-3,9.329753E-3,2.7906047E-3,-3.7367016E-4,-4.485827E-3,3.7692974E-3,-3.496343E-4,1.7948981E-3,-2.2628957E-3,-1.0695469E-2,1.4342034E-3,-5.351903E-3,-2.2013128E-2,-3.3738401E-3,7.072125E-3],"split_indices":[5,5,3,34,5,4,34,5,5,5,5,13,15,5,33,0,0,0,0,0,0,0,0,0,0,0,0,0,0,0,0],"split_type":[0,0,0,0,0,0,0,0,0,0,0,0,0,0,0,0,0,0,0,0,0,0,0,0,0,0,0,0,0,0,0],"sum_hessian":[2.846951E6,2.1888392E6,6.581117E5,6.3786544E5,1.5509738E6,5.6697125E5,9.114048E4,3.5378234E5,2.8408306E5,8.736036E5,6.773701E5,4.626935E5,1.0427771E5,4.758386E4,4.3556613E4,2.4723183E5,1.0655052E5,6.265804E4,2.2142503E5,6.550641E5,2.1853953E5,3.670569E5,3.1031325E5,3.456337E4,4.2813012E5,4.725621E3,9.955209E4,3.0113953E4,1.7469908E4,3.7824727E4,